tree
version=v3
num_class=1
num_tree_per_iteration=1
label_index=0
max_feature_idx=1
objective=regression
feature_names=Dummy SourceElementKey
feature_infos=none [1001:136322]
tree_sizes=3311 3375 3381 3398 3377 3374 3374 3358 3345 3383 3389 3385 3372 3387 3356 3376 3353 3385 3392 3379 3377 3422 3388 3381 3403 3371 3402 3376 3396 3393 3368 3412 3390 3373 3401 3387 3404 3389 3410 3396 3382 3366 3395 3398 3401 3393 3391 3398 3392 3385 3428 3390 3351 3379 3376 3400 3379 3360 3386 3360 3363 3386 3364 3394 3370 3403 3363 3401 3381 3371 3424 3370 3394 3372 3408 3381 3410 3400 3387 3409 3407 3370 3381 3412 3402 3395 3393 3371 3387 3391 3393 3356 3401 3398 3412 3407 3392 3363 3409 3374

Tree=0
num_leaves=31
num_cat=0
split_feature=1 1 1 1 1 1 1 1 1 1 1 1 1 1 1 1 1 1 1 1 1 1 1 1 1 1 1 1 1 1
split_gain=23434.9 65187.6 32611.8 60994.5 24864 22225.2 21331 17211.9 28920.7 25985.3 15813.9 13007.6 15960.1 16681.6 15107.2 12551 11800.6 59960.2 37074.2 32840.2 19911.4 13203.3 43288.5 28298.4 14185.7 16866 12356.7 12118.8 11910.3 15805.2
threshold=75227.000000000015 80001.500000000015 58421.500000000007 58077.500000000007 80247.500000000015 80185.500000000015 79772.000000000015 81085.500000000015 87285.500000000015 84671.500000000015 78071.000000000015 60007.500000000007 66613.500000000015 68919.500000000015 59963.500000000007 80949.500000000015 35833.500000000007 35425.500000000007 42339.500000000007 37137.500000000007 37821.500000000007 13099.500000000002 11494.000000000002 31491.500000000004 12287.500000000002 12543.500000000002 11131.500000000002 34505.500000000007 35809.500000000007 35525.500000000007
decision_type=2 2 2 2 2 2 2 2 2 2 2 2 2 2 2 2 2 2 2 2 2 2 2 2 2 2 2 2 2 2
left_child=2 6 3 16 5 -3 10 15 9 -9 -2 14 -13 -14 -4 -6 17 21 19 -18 -21 22 26 -23 -24 -26 -1 -25 29 -19
right_child=1 4 11 -5 7 -7 -8 8 -10 -11 -12 12 13 -15 -16 -17 18 28 -20 20 -22 23 24 27 25 -27 -28 -29 -30 -31
leaf_value=0.44752977983247583 0.43703993036040589 0.44988152458697922 0.45451607969711888 0.42928676069238336 0.4439831566514178 0.48428015672874447 0.4214657695657219 0.45065164754269615 0.44178022340835255 0.46684068429426012 0.44569078684781799 0.44267370977761461 0.46624347710573327 0.45023487995038869 0.47544208336519889 0.42393472526208337 0.45055468294892975 0.42317227952523923 0.44648196760911329 0.47736720170650604 0.45762052480688825 0.45198460678360525 0.43083209171501657 0.44223962897721786 0.46084499332024115 0.43840257758791273 0.46506458341104545 0.45114753014343756 0.4154134092354213 0.44137057877755353
leaf_weight=14163587 7170169 382160 5188077 1938532 2795755 369375 693728 3902055 2552026 1329231 2996055 2338575 767368 4289581 369570 351522 4240069 789568 14798545 874992 1226298 12560803 2097755 6190714 398616 2093898 413621 2027409 407588 1206485
leaf_count=14163587 7170169 382160 5188077 1938532 2795755 369375 693728 3902055 2552026 1329231 2996055 2338575 767368 4289581 369570 351522 4240069 789568 14798545 874992 1226298 12560803 2097755 6190714 398616 2093898 413621 2027409 407588 1206485
internal_value=0 -0.0284149 0.00817194 -0.000903855 0.0234339 0.199377 -0.0841889 0.0113369 0.0365704 0.079146 -0.0726117 0.0540152 0.0265443 0.0581355 0.0905705 -0.0510663 0.00443128 -0.00520091 0.0237277 0.0877016 0.189926 0.00402907 -0.0149001 0.0214903 -0.0995882 -0.0485888 0.0117676 -0.0241336 -0.158595 -0.126786
internal_weight=0 2.25421e+07 7.83817e+07 6.54285e+07 1.16821e+07 751535 1.086e+07 1.09306e+07 7.78331e+06 5.23129e+06 1.01662e+07 1.29532e+07 7.39552e+06 5.05695e+06 5.55765e+06 3.14728e+06 6.34899e+07 4.235e+07 2.11399e+07 6.34136e+06 2.10129e+06 3.99464e+07 1.91675e+07 2.07789e+07 4.59027e+06 2.49251e+06 1.45772e+07 8.21812e+06 2.40364e+06 1.99605e+06
internal_count=100923727 22542076 78381651 65428480 11682124 751535 10859952 10930589 7783312 5231286 10166224 12953171 7395524 5056949 5557647 3147277 63489948 42350044 21139904 6341359 2101290 39946403 19167477 20778926 4590269 2492514 14577208 8218123 2403641 1996053
shrinkage=1


Tree=1
num_leaves=31
num_cat=0
split_feature=1 1 1 1 1 1 1 1 1 1 1 1 1 1 1 1 1 1 1 1 1 1 1 1 1 1 1 1 1 1
split_gain=18982.3 52801.9 26415.5 49405.5 20139.8 18002.4 17278.1 13941.6 23425.8 21540.8 12809.2 11272.9 11935.2 24460.9 10764.7 10536.2 12927.7 13512.1 12236.9 9558.53 50600 30125.7 13979.7 20513.4 13459.9 21829.6 35063.7 21376.8 22648.4 16135.7
threshold=75227.000000000015 80001.500000000015 58421.500000000007 58077.500000000007 80247.500000000015 80185.500000000015 79772.000000000015 81085.500000000015 87285.500000000015 84962.000000000015 78071.000000000015 80694.000000000015 80860.000000000015 80891.500000000015 79029.500000000015 60007.500000000007 66613.500000000015 68919.500000000015 59963.500000000007 35833.500000000007 35699.500000000007 46409.500000000007 35729.500000000007 35809.500000000007 32433.500000000004 13099.500000000002 11494.000000000002 35525.500000000007 35425.500000000007 34505.500000000007
decision_type=2 2 2 2 2 2 2 2 2 2 2 2 2 2 2 2 2 2 2 2 2 2 2 2 2 2 2 2 2 2
left_child=2 6 3 19 5 -3 10 11 9 -9 -2 -6 -13 -14 -12 18 -17 -18 -4 20 24 -21 -22 -24 25 26 -1 28 29 -26
right_child=1 4 15 -5 7 -7 -8 8 -10 -11 14 12 13 -15 -16 16 17 -19 -20 21 22 -23 23 -25 27 -27 -28 -29 -30 -31
leaf_value=0.0010590825409397544 -0.0088295686923860663 0.0027278656799603089 0.0068989657908831497 -0.015807420871286497 0.0019381893427250338 0.033686634578188129 -0.022846313790538933 0.0039334270276205818 -0.0045633044800298733 0.020032386922436432 0.0067955582582005973 -0.019986767596274404 0.020024575103708989 -0.013637567580030863 -0.0056270183011895188 -0.0037591671415800523 0.01745362240805471 0.0030458855991051382 0.025732368159513925 0.0067329699582870167 -0.035350162901960018 -0.00096416727676614856 0.0041144952600565702 -0.028293437405770824 -0.0074390854833860792 0.0037144210069011592 -0.0089629333515341553 0.018091069519997057 -0.021310453740138995 0.0038672709308219168
leaf_weight=14577208 7170169 382160 5188077 1938532 1435799 369375 693728 4194803 2552026 1036483 1105373 710735 315053 685690 1890682 2338575 767368 4289581 369570 8513095 421686 12626809 375024 407588 3344469 15407048 4590269 409775 789568 2027409
leaf_count=14577208 7170169 382160 5188077 1938532 1435799 369375 693728 4194803 2552026 1036483 1105373 710735 315053 685690 1890682 2338575 767368 4289581 369570 8513095 421686 12626809 375024 407588 3344469 15407048 4590269 409775 789568 2027409
internal_value=0 -0.0255734 0.00735474 -0.000813471 0.0210905 0.179439 -0.07577 0.0102032 0.0329134 0.0712314 -0.0653505 -0.0459597 -0.100776 -0.0304008 -0.010438 0.0486137 0.0238899 0.0523219 0.0815134 0.00398816 -0.00468082 0.0213549 -0.206724 -0.127637 0.00123279 0.00911783 -0.0134101 -0.0402544 -0.0549632 -0.0317194
internal_weight=0 2.25421e+07 7.83817e+07 6.54285e+07 1.16821e+07 751535 1.086e+07 1.09306e+07 7.78331e+06 5.23129e+06 1.01662e+07 3.14728e+06 1.71148e+06 1.00074e+06 2.99606e+06 1.29532e+07 7.39552e+06 5.05695e+06 5.55765e+06 6.34899e+07 4.235e+07 2.11399e+07 1.2043e+06 782612 4.11457e+07 3.45745e+07 1.91675e+07 6.57122e+06 6.16145e+06 5.37188e+06
internal_count=100923727 22542076 78381651 65428480 11682124 751535 10859952 10930589 7783312 5231286 10166224 3147277 1711478 1000743 2996055 12953171 7395524 5056949 5557647 63489948 42350044 21139904 1204298 782612 41145746 34574525 19167477 6571221 6161446 5371878
shrinkage=0.1


Tree=2
num_leaves=31
num_cat=0
split_feature=1 1 1 1 1 1 1 1 1 1 1 1 1 1 1 1 1 1 1 1 1 1 1 1 1 1 1 1 1 1
split_gain=15375.7 42769.6 21396.6 40018.5 16313.3 14582 13995.3 11292.7 18974.9 17577.4 10561.3 11444 9884.71 9131.07 9667.48 19813.3 9046.99 16462.6 23742.9 13118.9 21408.3 18096.2 29398.4 26922.1 25425.8 26600.6 16128.2 15479.3 21029.7 11929.9
threshold=75227.000000000015 80001.500000000015 58421.500000000007 58077.500000000007 80247.500000000015 80185.500000000015 79772.000000000015 81085.500000000015 87285.500000000015 84671.500000000015 76429.500000000015 76719.500000000015 78071.000000000015 80694.000000000015 80860.000000000015 80891.500000000015 1279.5000000000002 1013.5000000000001 1025.5000000000002 13099.500000000002 11494.000000000002 31491.500000000004 35833.500000000007 35699.500000000007 42339.500000000007 37137.500000000007 37821.500000000007 35525.500000000007 35425.500000000007 8611.5000000000018
decision_type=2 2 2 2 2 2 2 2 2 2 2 2 2 2 2 2 2 2 2 2 2 2 2 2 2 2 2 2 2 2
left_child=2 6 3 16 5 -3 10 13 9 -9 -2 -12 -13 -6 -15 -16 17 -1 -19 20 29 -21 23 27 25 -24 -27 28 -23 -18
right_child=1 4 -4 -5 7 -7 -8 8 -10 -11 11 12 -14 14 15 -17 19 18 -20 21 -22 22 24 -25 -26 26 -28 -29 -30 -31
leaf_value=-0.010011633288966554 -0.011144694243226264 0.0024550790328880831 0.0043752294676090734 -0.014226678720054429 0.0017443707780933995 0.030317971193743794 -0.020561681342606067 0.0030276340006882394 -0.0041069744200915642 0.016342432018296941 0.0080459319822377261 -0.0086783575507993344 -0.00093941823346364308 -0.01798809075024969 0.018022117391493394 -0.012273810761747132 -0.0032559582623931712 0.031197601246805109 0.0043527771349259467 0.004249197833603848 -0.0080666402059132707 -0.0020933274316303845 0.0026604117880184098 -0.018605137510527444 -0.00034827637264772573 0.02679167812643762 0.0090196687774346512 0.01628196302748881 -0.01917940871854219 0.0029618246192255836
leaf_weight=469559 2772768 382160 12953171 1938532 1435799 369375 693728 3902055 2552026 1329231 722621 3674780 2996055 710735 315053 685690 6019282 439360 1317243 12560803 4590269 8218123 4240069 1204298 14798545 874992 1226298 409775 789568 6331764
leaf_count=469559 2772768 382160 12953171 1938532 1435799 369375 693728 3902055 2552026 1329231 722621 3674780 2996055 710735 315053 685690 6019282 439360 1317243 12560803 4590269 8218123 4240069 1204298 14798545 874992 1226298 409775 789568 6331764
internal_value=0 -0.023016 0.00661927 -0.000732121 0.0189815 0.161495 -0.068193 0.0091829 0.029622 0.0641083 -0.0588154 -0.039077 -0.0520259 -0.0413637 -0.0906986 -0.0273607 0.00358934 0.0662108 0.110672 0.00131385 -0.0223554 0.0103609 -0.00234597 -0.0452664 0.0192194 0.0721985 0.164201 -0.0272629 -0.0359101 -0.000684117
internal_weight=0 2.25421e+07 7.83817e+07 6.54285e+07 1.16821e+07 751535 1.086e+07 1.09306e+07 7.78331e+06 5.23129e+06 1.01662e+07 7.39346e+06 6.67084e+06 3.14728e+06 1.71148e+06 1.00074e+06 6.34899e+07 2.22616e+06 1.7566e+06 6.12638e+07 1.69413e+07 4.43225e+07 3.17617e+07 1.06218e+07 2.11399e+07 6.34136e+06 2.10129e+06 9.41747e+06 9.00769e+06 1.2351e+07
internal_count=100923727 22542076 78381651 65428480 11682124 751535 10859952 10930589 7783312 5231286 10166224 7393456 6670835 3147277 1711478 1000743 63489948 2226162 1756603 61263786 16941315 44322471 31761668 10621764 21139904 6341359 2101290 9417466 9007691 12351046
shrinkage=0.1


Tree=3
num_leaves=31
num_cat=0
split_feature=1 1 1 1 1 1 1 1 1 1 1 1 1 1 1 1 1 1 1 1 1 1 1 1 1 1 1 1 1 1
split_gain=12454.3 34643.3 17331.2 32415 13213.8 11811.4 11336.2 9272.76 17078 8554.65 9321.31 9726.27 8719.39 9238.05 8534.31 10839.7 9911.85 8210.83 7557 15197.6 54138.8 19191 15502.6 13331.9 12861.6 12319 23812.7 21806.9 20594.9 21546.5
threshold=75227.000000000015 80001.500000000015 58421.500000000007 58077.500000000007 80247.500000000015 80185.500000000015 79772.000000000015 94511.500000000015 81207.500000000015 76429.500000000015 76987.500000000015 78071.000000000015 79029.500000000015 79356.000000000015 60007.500000000007 63125.500000000007 59963.500000000007 120106.00000000001 4433.5000000000009 8611.5000000000018 9127.5000000000018 12859.000000000002 11494.000000000002 8244.0000000000018 11131.500000000002 31491.500000000004 35833.500000000007 35699.500000000007 42339.500000000007 37137.500000000007
decision_type=2 2 2 2 2 2 2 2 2 2 2 2 2 2 2 2 2 2 2 2 2 2 2 2 2 2 2 2 2 2
left_child=2 6 3 18 5 -3 9 8 -6 -2 -11 -12 -13 -14 16 -16 -4 -9 -1 23 -21 22 24 -20 -22 -23 27 -27 29 -28
right_child=1 4 14 -5 7 -7 -8 17 -10 10 11 12 13 -15 15 -17 -18 -19 19 20 21 25 -24 -25 -26 26 28 -29 -30 -31
leaf_value=0.0043321156117512574 -0.010030225457293323 0.0022095714213776442 0.0057715462572734133 -0.012804011070959945 -0.0026935643639815717 0.027286173216355205 -0.018505513993511365 -0.012691531969943742 0.0058973386058046237 0.0051104116546000188 -0.0087005832336504146 0.0062099442792880131 -0.018442678117605488 -0.0013436034165835338 -0.0072601641998413236 0.0033460789658015726 0.022721609315408835 0.0017980267322710499 -0.00072138666159277294 0.024986455476280648 -0.0023535341799392016 0.0033630635231004929 -0.0096429883627279223 -0.012522109066292492 0.01599052789333389 -0.0024536594104313009 0.0023943704700210653 -0.016744623927614246 -0.00031344917054150023 0.014778053015335371
leaf_weight=4377584 2772768 382160 5188077 1938532 4212614 369375 693728 879604 5134185 1070940 3326461 1105373 401020 1489662 1139015 6256509 369570 704186 2126693 884885 5033258 13847273 3303799 1741167 413621 9417466 4240069 1204298 14798545 2101290
leaf_count=4377584 2772768 382160 5188077 1938532 4212614 369375 693728 879604 5134185 1070940 3326461 1105373 401020 1489662 1139015 6256509 369570 704186 2126693 884885 5033258 13847273 3303799 1741167 413621 9417466 4240069 1204298 14798545 2101290
internal_value=0 -0.0207144 0.00595734 -0.000658911 0.0170833 0.145346 -0.0613737 0.00826461 0.0202541 -0.0529339 -0.0351693 -0.0497828 -0.00845476 -0.0497037 0.0393771 0.0171257 0.0689868 -0.0624917 0.00323041 0.000261474 0.00450414 0.000510074 -0.0423858 -0.0603363 -0.00960537 0.00874021 -0.00211138 -0.0407397 0.0172975 0.0649786
internal_weight=0 2.25421e+07 7.83817e+07 6.54285e+07 1.16821e+07 751535 1.086e+07 1.09306e+07 9.3468e+06 1.01662e+07 7.39346e+06 6.32252e+06 2.99606e+06 1.89068e+06 1.29532e+07 7.39552e+06 5.55765e+06 1.58379e+06 6.34899e+07 5.91124e+07 5.52445e+07 5.43596e+07 8.75068e+06 3.86786e+06 5.44688e+06 4.56089e+07 3.17617e+07 1.06218e+07 2.11399e+07 6.34136e+06
internal_count=100923727 22542076 78381651 65428480 11682124 751535 10859952 10930589 9346799 10166224 7393456 6322516 2996055 1890682 12953171 7395524 5557647 1583790 63489948 59112364 55244504 54359619 8750678 3867860 5446879 45608941 31761668 10621764 21139904 6341359
shrinkage=0.1


Tree=4
num_leaves=31
num_cat=0
split_feature=1 1 1 1 1 1 1 1 1 1 1 1 1 1 1 1 1 1 1 1 1 1 1 1 1 1 1 1 1 1
split_gain=10088 28061.1 14038.3 26256.1 10703.1 9567.22 9182.3 7786.32 13547.4 14115.9 8103.84 6929.27 7842.54 6912.79 9177.19 10944.8 8028.6 6572.35 7211.94 8228.22 6322.59 13334.7 19231.8 9058.98 14469.2 12176.4 19288.3 18139.1 17663.6 12538.2
threshold=75227.000000000015 80001.500000000015 58421.500000000007 58077.500000000007 80247.500000000015 80185.500000000015 79772.000000000015 81085.500000000015 87285.500000000015 84962.000000000015 80949.500000000015 76429.500000000015 76719.500000000015 60007.500000000007 66613.500000000015 68919.500000000015 59963.500000000007 78071.000000000015 78935.500000000015 78701.500000000015 1279.5000000000002 1013.5000000000001 1025.5000000000002 13099.500000000002 11494.000000000002 31491.500000000004 35833.500000000007 53189.500000000007 35699.500000000007 35525.500000000007
decision_type=2 2 2 2 2 2 2 2 2 2 2 2 2 2 2 2 2 2 2 2 2 2 2 2 2 2 2 2 2 2
left_child=2 6 3 20 5 -3 11 10 9 -9 -6 -2 -13 16 -15 -16 -4 -14 19 -19 21 -1 -23 24 -22 -25 28 -28 29 -27
right_child=1 4 13 -5 7 -7 -8 8 -10 -11 -12 12 17 14 15 -17 -18 18 -20 -21 23 22 -24 25 -26 26 27 -29 -30 -31
leaf_value=-0.0094436815932385284 -0.0090272026672353674 0.0019886143645417502 0.0051943911851418893 -0.011523610143704163 -0.0016540740373094725 0.024557556209480375 -0.016654962494733763 0.0027728453678521354 -0.003532197183780365 0.01580517144778636 -0.017763758444420828 0.0067302973560861672 -0.007071373103046741 -0.003638798845689962 0.014936129669165766 0.0019691666641211587 0.020449447134885779 -0.0020087601682961722 -0.0035877121915580674 0.019041245868420844 -8.4736466438400568e-05 0.02764462861494256 0.0034842872627404557 0.0034879716134147663 -0.0066601851134203667 -0.0029865392988157663 0.0040572968692360496 -0.0018747168151510411 -0.015070161227125754 0.014899131995991261
leaf_weight=469559 2772768 382160 5188077 1938532 2795755 369375 693728 4194803 2552026 1036483 351522 722621 3674780 2338575 767368 4289581 369570 400365 2249362 346328 12351046 439360 1317243 12560803 4590269 9007691 12228790 8911114 1204298 409775
leaf_count=469559 2772768 382160 5188077 1938532 2795755 369375 693728 4194803 2552026 1036483 351522 722621 3674780 2338575 767368 4289581 369570 400365 2249362 346328 12351046 439360 1317243 12560803 4590269 9007691 12228790 8911114 1204298 409775
internal_value=0 -0.018643 0.00536161 -0.00059302 0.015375 0.130811 -0.0552364 0.00743815 0.02441 0.0535496 -0.0345338 -0.0476405 -0.0316524 0.0354394 0.0154131 0.0393684 0.0620882 -0.0423718 -0.00760929 0.0775456 0.00290737 0.0552576 0.0952725 0.0010051 -0.0186636 0.00852305 -0.00190024 0.0155677 -0.0366658 -0.0220829
internal_weight=0 2.25421e+07 7.83817e+07 6.54285e+07 1.16821e+07 751535 1.086e+07 1.09306e+07 7.78331e+06 5.23129e+06 3.14728e+06 1.01662e+07 7.39346e+06 1.29532e+07 7.39552e+06 5.05695e+06 5.55765e+06 6.67084e+06 2.99606e+06 746693 6.34899e+07 2.22616e+06 1.7566e+06 6.12638e+07 1.69413e+07 4.43225e+07 3.17617e+07 2.11399e+07 1.06218e+07 9.41747e+06
internal_count=100923727 22542076 78381651 65428480 11682124 751535 10859952 10930589 7783312 5231286 3147277 10166224 7393456 12953171 7395524 5056949 5557647 6670835 2996055 746693 63489948 2226162 1756603 61263786 16941315 44322471 31761668 21139904 10621764 9417466
shrinkage=0.1


Tree=5
num_leaves=31
num_cat=0
split_feature=1 1 1 1 1 1 1 1 1 1 1 1 1 1 1 1 1 1 1 1 1 1 1 1 1 1 1 1 1 1
split_gain=8171.26 22729.5 11371 21267.5 8669.54 7749.45 7437.66 6536.12 11738.7 6694.53 6546.78 8760.59 6901.83 8947.67 7038.88 6400.99 6432.74 5612.71 6535.4 6534.6 6028.09 8204.41 5599.36 7689.83 6503.17 5309.37 12223.5 43934 13453 10798.8
threshold=75227.000000000015 80001.500000000015 58421.500000000007 58077.500000000007 80247.500000000015 80185.500000000015 79772.000000000015 94511.500000000015 81207.500000000015 117905.50000000001 81159.500000000015 81085.500000000015 80694.000000000015 80787.500000000015 80949.500000000015 80860.000000000015 80891.500000000015 76429.500000000015 76987.500000000015 78071.000000000015 79029.500000000015 79653.500000000015 60007.500000000007 63125.500000000007 59963.500000000007 4433.5000000000009 8611.5000000000018 9127.5000000000018 12859.000000000002 8244.0000000000018
decision_type=2 2 2 2 2 2 2 2 2 2 2 2 2 2 2 2 2 2 2 2 2 2 2 2 2 2 2 2 2 2
left_child=2 6 3 25 5 -3 17 8 10 -9 11 12 -6 -14 15 -15 -17 -2 -19 -20 -21 -22 24 -24 -4 -1 29 -28 -29 -27
right_child=1 4 22 -5 7 -7 -8 9 -10 -11 -12 -13 13 14 -16 16 -18 18 19 20 21 -23 23 -25 -26 26 27 28 -30 -31
leaf_value=0.0036220634012878957 -0.008124482013467306 0.0017897526531200306 0.0046749521894698691 -0.010371249529357921 0.002004697419764639 0.022101800891372318 -0.014989465952388717 -0.013456037177044418 0.0048861293441302594 -0.00010682800680189368 -0.014119115869477471 0.0096630722711921295 -0.021877058621632854 -0.010089156012968319 -0.015987382300150468 0.016654669402573954 -0.0032621482957964996 0.0043752347342073368 -0.0071233878068285676 0.0051815367244692411 -0.0097365155220292994 0.0036040955176752758 -0.0061702674455164606 0.0027630343998026521 0.018404503503001154 -0.00064077448287458742 0.022496283739182624 -0.0035579910021061086 0.00072257842023206061 -0.01126142429139896
leaf_weight=4377584 2772768 382160 5188077 1938532 1435799 369375 693728 612697 5134185 971093 417680 647657 341585 369150 351522 315053 334168 1070940 3326461 1105373 1093918 796764 1139015 6256509 369570 2126693 884885 8750678 45608941 1741167
leaf_count=4377584 2772768 382160 5188077 1938532 1435799 369375 693728 612697 5134185 971093 417680 647657 341585 369150 351522 315053 334168 1070940 3326461 1105373 1093918 796764 1139015 6256509 369570 2126693 884885 8750678 45608941 1741167
internal_value=0 -0.0167787 0.00482545 -0.000533718 0.0138375 0.11773 -0.0497127 0.00669433 0.0167603 -0.0527104 -0.0223633 -0.00928476 -0.0310804 -0.0739724 -0.0378667 0.00424782 0.0640306 -0.0428765 -0.0284872 -0.0407235 -0.00684836 -0.0411457 0.0318954 0.0138718 0.0558793 0.00261663 0.000128074 0.00393303 0.000335029 -0.054218
internal_weight=0 2.25421e+07 7.83817e+07 6.54285e+07 1.16821e+07 751535 1.086e+07 1.09306e+07 9.3468e+06 1.58379e+06 4.21261e+06 3.79493e+06 3.14728e+06 1.71148e+06 1.36989e+06 1.01837e+06 649221 1.01662e+07 7.39346e+06 6.32252e+06 2.99606e+06 1.89068e+06 1.29532e+07 7.39552e+06 5.55765e+06 6.34899e+07 5.91124e+07 5.52445e+07 5.43596e+07 3.86786e+06
internal_count=100923727 22542076 78381651 65428480 11682124 751535 10859952 10930589 9346799 1583790 4212614 3794934 3147277 1711478 1369893 1018371 649221 10166224 7393456 6322516 2996055 1890682 12953171 7395524 5557647 63489948 59112364 55244504 54359619 3867860
shrinkage=0.1


Tree=6
num_leaves=31
num_cat=0
split_feature=1 1 1 1 1 1 1 1 1 1 1 1 1 1 1 1 1 1 1 1 1 1 1 1 1 1 1 1 1 1
split_gain=6618.72 18410.9 9210.53 17226.6 7022.33 6277.06 6024.5 5294.25 9508.34 5736.13 5302.89 7096.08 5590.48 7247.61 5701.49 5184.8 5210.52 4862.95 9244.1 8867.92 4574.63 15881.4 14540.4 13071.7 31893.8 9014.05 8311.67 11526.8 10864.7 11593.3
threshold=75227.000000000015 80001.500000000015 58421.500000000007 58077.500000000007 80247.500000000015 80185.500000000015 79772.000000000015 94511.500000000015 81207.500000000015 120106.00000000001 81159.500000000015 81085.500000000015 80694.000000000015 80787.500000000015 80949.500000000015 80860.000000000015 80891.500000000015 81453.500000000015 84671.500000000015 87285.500000000015 54005.500000000007 55639.500000000007 56683.500000000007 37137.500000000007 37821.500000000007 56195.500000000007 32433.500000000004 14677.500000000002 35833.500000000007 35699.500000000007
decision_type=2 2 2 2 2 2 2 2 2 2 2 2 2 2 2 2 2 2 2 2 2 2 2 2 2 2 2 2 2 2
left_child=2 6 3 20 5 -3 -2 8 10 -9 11 12 -6 -14 15 -15 -17 -10 -19 -20 23 -22 25 26 -25 -23 27 -1 29 -28
right_child=1 4 -4 -5 7 -7 -8 9 17 -11 -12 -13 13 14 -16 16 -18 18 19 -21 21 22 -24 24 -26 -27 28 -29 -30 -31
leaf_value=-0.00061299743003456937 -0.0038588813729141386 0.0016107774482073329 0.0028705880513306224 -0.0093341239223255611 0.001804227454743121 0.019891620718309695 -0.01349051944950435 -0.010128623727401372 0.010470386291848065 0.0019821263420261867 -0.012707204735684402 0.0086967646559778893 -0.019689353036244486 -0.0090802402559650927 -0.014388644879345873 0.014989202912314451 -0.0029359328288984863 -0.0025551240750012094 0.012336346493257301 -0.00024551006934666898 -0.0067592972544141807 -0.00060328222823032636 -0.0017034409848298339 0.022156716496804597 0.0020865913221002428 0.017483510931509034 -0.0029626196930206353 0.0032810786359341879 0.001676945529220022 -0.013635402880132938
leaf_weight=23289849 10166224 382160 12953171 1938532 1435799 369375 693728 879604 1049148 704186 417680 647657 341585 369150 351522 315053 334168 1787570 1329231 968236 3709723 416355 2757857 874992 8326136 814772 6571221 11284676 4240069 1204298
leaf_count=23289849 10166224 382160 12953171 1938532 1435799 369375 693728 879604 1049148 704186 417680 647657 341585 369150 351522 315053 334168 1787570 1329231 968236 3709723 416355 2757857 874992 8326136 814772 6571221 11284676 4240069 1204298
internal_value=0 -0.0151008 0.0043429 -0.000480347 0.0124537 0.105957 -0.0447415 0.0060249 0.0150843 -0.0474393 -0.0201269 -0.00835629 -0.0279724 -0.0665751 -0.03408 0.00382305 0.0576275 0.0439752 0.0283784 0.070339 0.00235497 -0.0204957 0.0233043 0.00550816 0.0399518 0.113667 -0.00129415 0.00657978 -0.0239512 -0.0461566
internal_weight=0 2.25421e+07 7.83817e+07 6.54285e+07 1.16821e+07 751535 1.086e+07 1.09306e+07 9.3468e+06 1.58379e+06 4.21261e+06 3.79493e+06 3.14728e+06 1.71148e+06 1.36989e+06 1.01837e+06 649221 5.13418e+06 4.08504e+06 2.29747e+06 6.34899e+07 7.69871e+06 3.98898e+06 5.57912e+07 9.20113e+06 1.23113e+06 4.65901e+07 3.45745e+07 1.20156e+07 7.77552e+06
internal_count=100923727 22542076 78381651 65428480 11682124 751535 10859952 10930589 9346799 1583790 4212614 3794934 3147277 1711478 1369893 1018371 649221 5134185 4085037 2297467 63489948 7698707 3988984 55791241 9201128 1231127 46590113 34574525 12015588 7775519
shrinkage=0.1


Tree=7
num_leaves=31
num_cat=0
split_feature=1 1 1 1 1 1 1 1 1 1 1 1 1 1 1 1 1 1 1 1 1 1 1 1 1 1 1 1 1 1
split_gain=5361.16 14912.8 7460.53 14190.9 5688.09 5084.41 4980.52 4879.85 4714.85 25289.8 4546.29 5511.36 6632.25 4981.6 6664.86 4757.11 4535.48 6515.04 8865.26 5669.12 4496.09 4288.35 7701.76 4658.8 4295.34 5747.82 4528.29 5870.57 4618.21 4199.69
threshold=75227.000000000015 80001.500000000015 58421.500000000007 58181.500000000007 80247.500000000015 80185.500000000015 58197.500000000007 79772.000000000015 1025.5000000000002 1013.5000000000001 76429.500000000015 77125.500000000015 78071.000000000015 78935.500000000015 78701.500000000015 79653.500000000015 60007.500000000007 66613.500000000015 68919.500000000015 59013.500000000007 76201.500000000015 94511.500000000015 81207.500000000015 117905.50000000001 81159.500000000015 81085.500000000015 80694.000000000015 80787.500000000015 80949.500000000015 80860.000000000015
decision_type=2 2 2 2 2 2 2 2 2 2 2 2 2 2 2 2 2 2 2 2 2 2 2 2 2 2 2 2 2 2
left_child=2 7 3 8 5 -3 -5 10 9 -1 20 -12 -13 14 -14 -15 19 -18 -19 -4 -2 22 24 -23 25 26 -6 -28 29 -29
right_child=1 4 16 6 21 -7 -8 -9 -10 -11 11 12 13 15 -16 -17 17 18 -20 -21 -22 23 -24 -25 -26 -27 27 28 -30 -31
leaf_value=-0.0088002203859576314 -0.0043739846009683593 0.0014497002683804127 0.0024035903438356563 -0.01902955516711383 0.0016238046892931011 0.017902458559144699 -0.0061211532675062774 -0.01214146715245322 8.0923919147614083e-05 0.024579258813172015 0.0033028335476542161 -0.0069231485366852107 -0.0019401493929678739 -0.0059857488798807472 0.017004855792851204 0.0036295742098941507 -0.0034031800149379194 0.012879154530230206 0.0012088874151070482 0.0091041150658773273 -0.013279652470958723 -0.011097571338912421 0.0039577650376140692 3.8508606506009076e-05 -0.011436484167365531 0.0078270885002718598 -0.017720417721776509 -0.0081722163927758339 -0.012949780154703406 0.0051864753192561617
leaf_weight=469559 1978156 382160 3618021 408489 1435799 369375 1114178 693728 62996894 439360 1469953 2927448 400365 1452598 346328 796764 2338575 767368 4289581 1939626 794612 612697 5134185 971093 417680 647657 341585 369150 351522 649221
leaf_count=469559 1978156 382160 3618021 408489 1435799 369375 1114178 693728 62996894 439360 1469953 2927448 400365 1452598 346328 796764 2338575 767368 4289581 1939626 794612 612697 5134185 971093 417680 647657 341585 369150 351522 649221
internal_value=0 -0.0135907 0.00390861 -0.000432311 0.0112084 0.0953613 -0.0958412 -0.0402673 0.00184097 0.07335 -0.0347299 -0.0217796 -0.0353805 -0.00230464 0.0684684 -0.0257983 0.0258353 0.00961403 0.029798 0.0474208 -0.0692615 0.00542241 0.0135758 -0.0426954 -0.0181142 -0.00752066 -0.0251751 -0.0599176 -0.030672 0.00344074
internal_weight=0 2.25421e+07 7.83817e+07 6.54285e+07 1.16821e+07 751535 1.52267e+06 1.086e+07 6.39058e+07 908919 1.01662e+07 7.39346e+06 5.9235e+06 2.99606e+06 746693 2.24936e+06 1.29532e+07 7.39552e+06 5.05695e+06 5.55765e+06 2.77277e+06 1.09306e+07 9.3468e+06 1.58379e+06 4.21261e+06 3.79493e+06 3.14728e+06 1.71148e+06 1.36989e+06 1.01837e+06
internal_count=100923727 22542076 78381651 65428480 11682124 751535 1522667 10859952 63905813 908919 10166224 7393456 5923503 2996055 746693 2249362 12953171 7395524 5056949 5557647 2772768 10930589 9346799 1583790 4212614 3794934 3147277 1711478 1369893 1018371
shrinkage=0.1


Tree=8
num_leaves=31
num_cat=0
split_feature=1 1 1 1 1 1 1 1 1 1 1 1 1 1 1 1 1 1 1 1 1 1 1 1 1 1 1 1 1 1
split_gain=4576.56 9276.71 28018.8 17820.1 18417 11587.2 9237.71 11641.4 15607.2 14815 10573.9 11323.6 16615.8 10878.2 15762.5 10348 9991.09 8179.25 14194.3 7910.61 7116.87 6940.72 6585.63 6005.13 10900.5 10151.9 5172.33 17875.6 4810.94 4604.54
threshold=4433.5000000000009 8385.5000000000018 8369.5000000000018 9153.5000000000018 8611.5000000000018 12859.000000000002 31893.500000000004 35833.500000000007 42339.500000000007 37137.500000000007 35699.500000000007 35729.500000000007 35809.500000000007 35525.500000000007 35425.500000000007 34505.500000000007 37821.500000000007 11494.000000000002 10209.500000000002 9591.5000000000018 36109.500000000007 37183.000000000007 3033.5000000000005 12125.500000000002 12543.500000000002 12287.500000000002 1013.5000000000001 1025.5000000000002 11131.500000000002 14677.500000000002
decision_type=2 2 2 2 2 2 2 2 2 2 2 2 2 2 2 2 2 2 2 2 2 2 2 2 2 2 2 2 2 2
left_child=22 2 -2 4 -3 17 29 10 9 20 13 -12 -13 14 15 -8 21 18 19 -5 -9 -11 26 -19 25 -25 -1 -28 -20 -7
right_child=1 3 -4 5 -6 6 7 8 -10 16 11 12 -14 -15 -16 -17 -18 23 28 -21 -22 -23 -24 24 -26 -27 27 -29 -30 -31
leaf_value=-0.0079201980143508172 -0.0017918828736282551 -0.002116095411023903 -0.030123149233045394 -0.0011219107789606497 0.016492622542346191 0.00013310435939398798 -0.0039345912724332707 0.0056805775649747476 -0.00034976118685724422 0.011227577117328634 -0.025489963660849199 0.010028228057310837 -0.019138911877374293 0.013625131239166189 -0.016501536019630635 0.0044498083610147628 0.0059451578121069307 -0.01176551283036115 0.0027491758920546896 -0.011556238299300763 -0.0025148995651499773 0.029044936761220125 0.01543515410957472 -0.0061281990846940746 -0.011445134614197135 0.016337268903929971 0.022121333615615489 0.00055604865626154149 0.014808955050353477 0.0038056795543763562
leaf_weight=469559 2566867 896976 404017 1678889 1306532 5408842 5373452 2077776 52232324 447480 421686 375024 407588 409775 789568 2027409 1226298 1691709 1651797 1280925 2162293 427512 397531 406046 807428 398616 439360 3071134 413621 9255693
leaf_count=469559 2566867 896976 404017 1678889 1306532 5408842 5373452 2077776 52232324 447480 421686 375024 407588 409775 789568 2027409 1226298 1691709 1651797 1280925 2162293 427512 397531 406046 807428 398616 439360 3071134 413621 9255693
internal_value=0 -0.00143391 -0.0564471 0.00031268 0.0891762 -0.00183034 0.00173606 -0.00314829 0.00219004 0.049038 -0.0350404 -0.1228 -0.0516216 -0.0227513 -0.0307064 -0.0163775 0.117698 -0.0373883 -0.0119793 -0.056376 0.0150116 0.19933 0.0316245 -0.0760366 -0.0323627 0.0500082 0.0193664 0.0325508 0.0516427 0.0245109
internal_weight=0 9.65461e+07 2.97088e+06 9.35753e+07 2.20351e+06 9.13718e+07 8.30427e+07 6.83782e+07 5.85737e+07 6.34136e+06 9.8045e+06 1.2043e+06 782612 8.6002e+06 8.19043e+06 7.40086e+06 2.10129e+06 8.32903e+06 5.02523e+06 2.95981e+06 4.24007e+06 874992 4.37758e+06 3.3038e+06 1.61209e+06 804662 3.98005e+06 3.51049e+06 2.06542e+06 1.46645e+07
internal_count=100923727 96546143 2970884 93575259 2203508 91371751 83042720 68378185 58573683 6341359 9804502 1204298 782612 8600204 8190429 7400861 2101290 8329031 5025232 2959814 4240069 874992 4377584 3303799 1612090 804662 3980053 3510494 2065418 14664535
shrinkage=0.1


Tree=9
num_leaves=31
num_cat=0
split_feature=1 1 1 1 1 1 1 1 1 1 1 1 1 1 1 1 1 1 1 1 1 1 1 1 1 1 1 1 1 1
split_gain=4208.25 10180.1 9799.97 6018.33 11408 4607.35 4571.12 4118.38 3727.02 5946.26 6507.87 4876.7 3495.95 7456.32 9676.77 4560.29 11258.2 12725.6 9447.64 9079.72 7891.51 7548.26 6845.52 10760.6 10811.2 9930.46 11777.7 9360.74 7738.2 7377.14
threshold=69445.500000000015 80001.500000000015 69293.500000000015 58421.500000000007 58077.500000000007 80247.500000000015 79772.000000000015 80185.500000000015 60007.500000000007 66613.500000000015 68919.500000000015 59963.500000000007 1279.5000000000002 1013.5000000000001 1025.5000000000002 13099.500000000002 13140.000000000002 13197.500000000002 13123.000000000002 11494.000000000002 12125.500000000002 11131.500000000002 31491.500000000004 35833.500000000007 53189.500000000007 55639.500000000007 56683.500000000007 35425.500000000007 57047.500000000007 34505.500000000007
decision_type=2 2 2 2 2 2 2 2 2 2 2 2 2 2 2 2 2 2 2 2 2 2 2 2 2 2 2 2 2 2
left_child=2 6 3 4 12 7 -2 -3 11 -10 -11 -5 13 -1 -15 19 18 -18 -17 21 -21 -14 -19 27 -25 -26 -27 29 -28 -24
right_child=1 5 -4 8 -6 -7 -8 -9 9 10 -12 -13 15 14 -16 16 17 22 -20 20 -22 -23 23 24 25 26 28 -29 -30 -31
leaf_value=-0.0071281782387634662 -0.0025585425602402574 0.0013397063583452183 0.015930659489304177 0.0035122387949858384 -0.0076146637018499859 0.00052299302338855284 -0.010892344497018272 0.016147189130418786 -0.0030278860355681288 0.011626215696242767 -0.00013939642708200362 0.015401558325139265 -0.00041294828187810149 0.019909199647161036 0.0027712546503568 0.0003877290938384984 -0.017435912572745457 0.0026197858725008137 0.02234179712779695 -0.010588961842160472 -0.0019939745806357646 0.013328059577953992 -0.0029452448229010629 0.0029957039773029189 -0.0045891358283668224 0.010256946455079768 -0.0099262406095414479 -0.0083253344259728891 0.001826168412497251 0.0040048274749425843
leaf_weight=469559 12839428 382160 402718 5188077 1938532 10930589 693728 369375 2338575 767368 1213659 369570 11937425 439360 1317243 358592 398595 11371262 432354 1691709 2898560 413621 6190714 12228790 4922130 1231127 781987 2403641 1975870 2027409
leaf_count=469559 12839428 382160 402718 5188077 1938532 10930589 693728 369375 2338575 767368 1213659 369570 11937425 439360 1317243 358592 398595 11371262 432354 1691709 2898560 413621 6190714 12228790 4922130 1231127 781987 2403641 1975870 2027409
internal_value=0 -0.0111891 0.00372661 0.0028946 -0.000578827 0.0104373 -0.0298574 0.086175 0.0259032 0.00386949 0.0441812 0.0430285 0.00172848 0.0406557 0.0705778 0.000313965 0.005648 0.0034997 0.123885 -0.0136411 -0.0516159 0.000472208 0.00514331 -0.0023946 0.0106525 -0.0158394 0.0212427 -0.0283614 -0.0150621 -0.0123066
internal_weight=0 2.52153e+07 7.57084e+07 7.53057e+07 6.54285e+07 1.16821e+07 1.35332e+07 751535 9.87725e+06 4.3196e+06 1.98103e+06 5.55765e+06 6.34899e+07 2.22616e+06 1.7566e+06 6.12638e+07 4.43225e+07 4.35315e+07 790946 1.69413e+07 4.59027e+06 1.2351e+07 4.31329e+07 3.17617e+07 2.11399e+07 8.91111e+06 3.98898e+06 1.06218e+07 2.75786e+06 8.21812e+06
internal_count=100923727 25215280 75708447 75305729 65428480 11682124 13533156 751535 9877249 4319602 1981027 5557647 63489948 2226162 1756603 61263786 44322471 43531525 790946 16941315 4590269 12351046 43132930 31761668 21139904 8911114 3988984 10621764 2757857 8218123
shrinkage=0.1


Tree=10
num_leaves=31
num_cat=0
split_feature=1 1 1 1 1 1 1 1 1 1 1 1 1 1 1 1 1 1 1 1 1 1 1 1 1 1 1 1 1 1
split_gain=3469.83 10019.5 5319.26 9429.19 4220.06 5309.84 7183.02 4441.76 4034.22 4008.48 3450.54 12272.4 7746.96 20655.5 5621.98 5214.71 8387.54 7286.25 6652.39 27063.9 16254.2 9924.61 7903.85 5036.57 4893.77 8691.5 10421.1 7301.38 5569.07 4611.26
threshold=75227.000000000015 80001.500000000015 58421.500000000007 58181.500000000007 94511.500000000015 84671.500000000015 87285.500000000015 80247.500000000015 58197.500000000007 120106.00000000001 54357.000000000007 54731.500000000007 37137.500000000007 37821.500000000007 37183.000000000007 32433.500000000004 32879.000000000007 14677.500000000002 9153.5000000000018 8611.5000000000018 8244.0000000000018 8385.5000000000018 8369.5000000000018 54515.500000000007 54757.500000000007 55639.500000000007 56683.500000000007 56195.500000000007 57047.500000000007 57379.500000000007
decision_type=2 2 2 2 2 2 2 2 2 2 2 2 2 2 2 2 2 2 2 2 2 2 2 2 2 2 2 2 2 2
left_child=2 -2 3 10 5 7 -7 -3 -5 -6 12 23 15 14 -14 17 -17 18 19 20 -1 22 -22 -12 -13 -26 27 -27 -28 -30
right_child=1 4 -4 8 9 6 -8 -9 -10 -11 11 24 13 -15 -16 16 -18 -19 -20 -21 21 -23 -24 -25 25 26 28 -29 29 -31
leaf_value=0.0016910212294492942 -0.0032799912278488985 0.0077557467262764071 0.0021659048977699723 -0.016330156858267591 -0.0083612406494977913 0.010689612594878896 -0.0006340594710109971 -0.00033149270450020629 -0.0047125959554057363 0.0017627401928565678 -0.0021483776296390396 0.0097395368729978928 0.0098052482794420918 0.0015233403121010171 0.025840872625512368 -0.011830777845224391 -0.0012174760231597125 0.0025818645512745196 -0.0019234097150563343 0.014884654780728236 -0.0076996212160527436 -0.0018631909611207598 -0.027069540132034615 -0.015708928387128111 -0.0071229594457023569 -0.0015417643786650359 -0.0089336169643471127 0.014736349422859478 0.0069563196342416408 -0.0023378562150720146
leaf_weight=6504277 10859952 751535 12953171 408489 879604 1329231 968236 7049332 1114178 704186 416429 466846 447480 8721109 427512 797557 11218031 11284676 13737873 1306532 440174 896976 404017 800193 1631282 416355 781987 814772 804288 1587447
leaf_count=6504277 10859952 751535 12953171 408489 879604 1329231 968236 7049332 1114178 704186 416429 466846 447480 8721109 427512 797557 11218031 11284676 13737873 1306532 440174 896976 404017 800193 1631282 416355 781987 814772 804288 1587447
internal_value=0 -0.0109337 0.00314447 -0.000520945 0.00939356 0.0169206 0.0591741 0.00447631 -0.0782926 -0.0385991 0.0013321 -0.0184919 0.00405578 0.029929 0.176401 -0.00127329 -0.0192195 0.00496352 -0.00514146 0.0151269 -0.00606164 -0.091875 -0.169698 -0.110674 -0.00124583 -0.00887493 0.0142174 0.0923125 -0.0160767 0.00787571
internal_weight=0 2.25421e+07 7.83817e+07 6.54285e+07 1.16821e+07 1.00983e+07 2.29747e+06 7.80087e+06 1.52267e+06 1.58379e+06 6.39058e+07 7.7196e+06 5.61862e+07 9.5961e+06 874992 4.65901e+07 1.20156e+07 3.45745e+07 2.32898e+07 9.55198e+06 8.24544e+06 1.74117e+06 844191 1.21662e+06 6.50298e+06 6.03613e+06 4.40485e+06 1.23113e+06 3.17372e+06 2.39174e+06
internal_count=100923727 22542076 78381651 65428480 11682124 10098334 2297467 7800867 1522667 1583790 63905813 7719599 56186214 9596101 874992 46590113 12015588 34574525 23289849 9551976 8245444 1741167 844191 1216622 6502977 6036131 4404849 1231127 3173722 2391735
shrinkage=0.1


Tree=11
num_leaves=31
num_cat=0
split_feature=1 1 1 1 1 1 1 1 1 1 1 1 1 1 1 1 1 1 1 1 1 1 1 1 1 1 1 1 1 1
split_gain=2921.2 7722.13 6878.29 4009.75 7637.64 3591.5 3418.25 4300.97 5878.73 4039.64 5152.7 5299.16 6511.21 6635.56 4539.44 3267.72 3246.87 3105.77 3085.59 7060.54 3028.41 3018.89 4816.47 5271.38 4253.47 3288.34 2951.56 2809.74 8093.75 8441.08
threshold=69445.500000000015 69293.500000000015 80001.500000000015 58421.500000000007 58181.500000000007 79772.000000000015 94511.500000000015 84671.500000000015 87253.500000000015 81693.500000000015 81207.500000000015 80694.000000000015 80860.000000000015 80891.500000000015 82425.500000000015 58197.500000000007 120106.00000000001 79679.500000000015 81159.500000000015 81085.500000000015 130750.50000000001 60007.500000000007 66613.500000000015 68919.500000000015 59013.500000000007 58451.500000000007 58381.500000000007 54005.500000000007 55639.500000000007 56683.500000000007
decision_type=2 2 2 2 2 2 2 2 2 2 2 2 2 2 2 2 2 2 2 2 2 2 2 2 2 2 2 2 2 2
left_child=1 3 5 4 27 17 7 9 -9 10 11 -4 -13 -14 -11 -6 -8 -2 19 -15 -18 24 -23 -24 25 -5 -17 -1 -29 -30
right_child=2 -3 6 21 15 -7 16 8 -10 14 -12 12 13 18 -16 26 20 -19 -20 -21 -22 22 23 -25 -26 -27 -28 28 29 -31
leaf_value=0.00037276782443853868 -0.0023571737424799397 0.014121003709243355 0.0033679715189086096 0.010676545387356042 -0.014697141426519143 -0.0094751116207040693 -0.007525117076826353 0.011069484855575532 0.00087081257236829826 -0.014323009356132999 0.0060184043434966155 -0.011469217328702059 0.012987461230650407 -0.0074995525971178383 -0.0006897381724765586 0.0026394768051473216 0.0060495147446441161 0.0069009028757856311 -0.010277009526321062 0.0070602053306541533 -0.0080495226496198457 -0.0029416877418524728 0.010247002970541869 -0.00034204698010876019 0.0074343302339159312 0.00062568198691486288 -0.0080913106798305573 -0.0050601757236539511 0.0083081263354437499 -0.0014469065283948777
leaf_weight=55791241 12466231 402718 2187334 361667 408489 693728 879604 1003550 1293917 365236 1734297 710735 315053 685690 737185 399743 481276 373197 417680 647657 222910 2338575 767368 1213659 1939626 3256354 714435 3709723 1231127 3173722
leaf_count=55791241 12466231 402718 2187334 361667 408489 693728 879604 1003550 1293917 365236 1734297 710735 315053 685690 737185 399743 481276 373197 417680 647657 222910 2338575 767368 1213659 1939626 3256354 714435 3709723 1231127 3173722
internal_value=0 0.00310487 -0.00932233 0.00236632 -0.00046885 -0.0246674 0.0084542 0.0152285 0.0532567 0.00402868 0.0132605 -0.00313293 -0.0321307 -0.00372948 -0.0520649 -0.0704634 -0.0347392 -0.0208807 -0.0277682 -0.00427328 0.0158647 0.0211469 0.00131664 0.0375971 0.0365597 0.0163039 -0.0424134 0.00119889 -0.0161876 0.0127956
internal_weight=0 7.57084e+07 2.52153e+07 7.53057e+07 6.54285e+07 1.35332e+07 1.16821e+07 1.00983e+07 2.29747e+06 7.80087e+06 6.69845e+06 4.96415e+06 2.77682e+06 2.06608e+06 1.10242e+06 1.52267e+06 1.58379e+06 1.28394e+07 1.75103e+06 1.33335e+06 704186 9.87725e+06 4.3196e+06 1.98103e+06 5.55765e+06 3.61802e+06 1.11418e+06 6.39058e+07 8.11457e+06 4.40485e+06
internal_count=100923727 75708447 25215280 75305729 65428480 13533156 11682124 10098334 2297467 7800867 6698446 4964149 2776815 2066080 1102421 1522667 1583790 12839428 1751027 1333347 704186 9877249 4319602 1981027 5557647 3618021 1114178 63905813 8114572 4404849
shrinkage=0.1


Tree=12
num_leaves=31
num_cat=0
split_feature=1 1 1 1 1 1 1 1 1 1 1 1 1 1 1 1 1 1 1 1 1 1 1 1 1 1 1 1 1 1
split_gain=2754.35 6496.78 18119.4 11660.3 12083.4 7501.98 5556.61 5543.8 5091.21 10855.7 6407.6 4688.03 4053.6 9922.38 9731.87 7652.59 5578.15 7467.25 9641.24 9671.03 7784.14 6154.44 6153.3 5751.46 16524.8 9588.85 11433.5 6880.64 4553.81 4023.32
threshold=4433.5000000000009 8385.5000000000018 8369.5000000000018 9153.5000000000018 8611.5000000000018 12859.000000000002 3033.5000000000005 12949.500000000002 11494.000000000002 10209.500000000002 9591.5000000000018 11671.500000000002 13099.500000000002 13140.000000000002 13197.500000000002 13123.000000000002 31893.500000000004 35833.500000000007 42339.500000000007 37137.500000000007 35809.500000000007 35899.500000000007 37821.500000000007 35729.500000000007 35699.500000000007 35525.500000000007 35425.500000000007 34505.500000000007 37183.000000000007 34297.500000000007
decision_type=2 2 2 2 2 2 2 2 2 2 2 2 2 2 2 2 2 2 2 2 2 2 2 2 2 2 2 2 2 2
left_child=6 2 -2 4 -3 8 -1 -7 9 10 -5 -10 -9 15 -15 -14 -16 20 19 21 23 -19 28 24 25 26 27 29 -21 -18
right_child=1 3 -4 5 -6 7 -8 12 11 -11 -12 -13 13 14 16 -17 17 18 -20 22 -22 -23 -24 -25 -26 -27 -28 -29 -30 -31
leaf_value=0.0013273948192289498 -0.0016167453929473816 -0.0017141490391148586 -0.024399862884472379 -0.00081336117654876462 0.01335891306144062 0.011158116792100891 0.013726554760681934 -0.0068585579159770281 -0.01612737814699854 0.0045690237133656272 -0.010204255810788362 -0.0046408221131384484 0.00050402039350172317 -0.015537257356345702 0.0020976242105922474 0.020262681636954098 -0.0019710405700455271 0.0086902868595730657 -0.00024399930677429266 0.0087874468877362083 -0.016308016221425716 -0.00078546136884345924 0.0048614613872836002 0.0099424090817254902 -0.022023964191539874 0.013179622315033499 -0.013934378261723472 0.0036888155757066792 0.02321950831562513 -0.0095093468910125312
leaf_weight=3980053 2566867 896976 404017 1678889 1306532 454863 397531 831607 404947 2065418 1280925 2898852 358592 398595 12188524 432354 4534443 859762 52232324 447480 407588 3380307 1226298 375024 421686 409775 789568 2027409 427512 839009
leaf_count=3980053 2566867 896976 404017 1678889 1306532 454863 397531 831607 404947 2065418 1280925 2898852 358592 398595 12188524 432354 4534443 859762 52232324 447480 407588 3380307 1226298 375024 421686 409775 789568 2027409 427512 839009
internal_value=0 -0.0011124 -0.0471507 0.000349248 0.0722316 -0.00138426 0.0245337 0.00148539 -0.0299954 -0.00994877 -0.0487748 -0.0604873 0.000879023 0.0015856 0.000496743 0.113047 0.00126789 -0.00224516 0.00203031 0.0388511 -0.0277875 0.0113594 0.094325 -0.0219192 -0.0269632 -0.0174865 -0.0249552 -0.0127516 0.158388 -0.0314807
internal_weight=0 9.65461e+07 2.97088e+06 9.35753e+07 2.20351e+06 9.13718e+07 4.37758e+06 8.30427e+07 8.32903e+06 5.02523e+06 2.95981e+06 3.3038e+06 8.25879e+07 8.17562e+07 8.09653e+07 790946 8.05667e+07 6.83782e+07 5.85737e+07 6.34136e+06 9.8045e+06 4.24007e+06 2.10129e+06 9.39691e+06 9.02189e+06 8.6002e+06 8.19043e+06 7.40086e+06 874992 5.37345e+06
internal_count=100923727 96546143 2970884 93575259 2203508 91371751 4377584 83042720 8329031 5025232 2959814 3303799 82587857 81756250 80965304 790946 80566709 68378185 58573683 6341359 9804502 4240069 2101290 9396914 9021890 8600204 8190429 7400861 874992 5373452
shrinkage=0.1


Tree=13
num_leaves=31
num_cat=0
split_feature=1 1 1 1 1 1 1 1 1 1 1 1 1 1 1 1 1 1 1 1 1 1 1 1 1 1 1 1 1 1
split_gain=2508.95 6039.62 7838.18 2277.45 7608.7 5892.79 4490.48 3797.3 3283.41 8037.13 7882.82 6198.6 4554.28 5320.41 7997.39 6545.98 5375.75 4746.03 4681.26 5073.05 12893.1 4632.08 4459.04 13739.8 7501.8 9665.09 4924.79 4167.08 8357.61 3730.5
threshold=1279.5000000000002 1013.5000000000001 1025.5000000000002 12859.000000000002 11494.000000000002 11131.500000000002 12949.500000000002 11671.500000000002 13099.500000000002 13140.000000000002 13197.500000000002 13123.000000000002 31491.500000000004 35833.500000000007 46409.500000000007 35809.500000000007 46248.000000000007 48047.500000000007 53189.500000000007 56195.500000000007 56683.500000000007 57047.500000000007 35729.500000000007 35699.500000000007 35525.500000000007 35425.500000000007 34505.500000000007 27400.000000000004 28957.500000000004 34297.500000000007
decision_type=2 2 2 2 2 2 2 2 2 2 2 2 2 2 2 2 2 2 2 2 2 2 2 2 2 2 2 2 2 2
left_child=1 -1 -3 4 5 -2 -5 -6 -8 11 -11 -10 27 15 16 22 -15 -16 -19 -20 -21 -22 23 24 25 26 29 -12 -29 -14
right_child=3 2 -4 6 7 -7 8 -9 9 10 12 -13 13 14 17 -17 -18 18 19 20 21 -23 -24 -25 -26 -27 -28 28 -30 -31
leaf_value=-0.0067544794080779741 -0.00044761984487417107 0.017579162012532172 0.0021550109838436378 0.010042305236823555 -0.014514640366730128 0.011693415982672652 -0.0061727019347780111 -0.0041767400000230761 0.00045361815087945816 -0.013983531404255428 0.0010499676930033036 0.018236413513163904 -0.0013866751944232279 0.002439851980680828 -0.0065229718299752576 -0.014677214805063152 0.013971622782325744 0.0040508495966927686 -0.0032747104510212816 0.012456301497479179 -0.0078711644080847534 -9.8770182876482666e-05 0.0089481691535859258 -0.019821567372654128 0.011861660312827184 -0.01254094072355591 0.0033199341943563245 0.018624655967906249 0.0028583934344208017 -0.008558412394573946
leaf_weight=469559 11937425 439360 1317243 454863 404947 413621 831607 2898852 358592 398595 9242128 432354 5351705 8087579 1195948 407588 425516 2519747 5338485 814772 781987 39409649 375024 421686 409775 789568 2027409 418468 1710666 839009
leaf_count=469559 11937425 439360 1317243 454863 404947 413621 831607 2898852 358592 398595 9242128 432354 5351705 8087579 1195948 407588 425516 2519747 5338485 814772 781987 39409649 375024 421686 409775 789568 2027409 418468 1710666 839009
internal_value=0 0.033199 0.0601289 -0.000748815 -0.0118124 -0.000410318 0.00133685 -0.0544386 0.000791121 0.00142704 0.00044707 0.101742 0.0011411 -0.00190678 0.00182728 -0.0224982 0.0301625 -0.0029913 -0.00146803 -0.00375027 2.47276e-05 -0.00249993 -0.0175392 -0.0216183 -0.0137108 -0.0197306 -0.00957737 0.0196878 0.0595715 -0.0235864
internal_weight=0 2.22616e+06 1.7566e+06 9.86976e+07 1.56548e+07 1.2351e+07 8.30427e+07 3.3038e+06 8.25879e+07 8.17562e+07 8.09653e+07 790946 8.05667e+07 6.91954e+07 5.85737e+07 1.06218e+07 8.5131e+06 5.00606e+07 4.88646e+07 4.63449e+07 4.10064e+07 4.01916e+07 1.02142e+07 9.83915e+06 9.41747e+06 9.00769e+06 8.21812e+06 1.13713e+07 2.12913e+06 6.19071e+06
internal_count=100923727 2226162 1756603 98697565 15654845 12351046 83042720 3303799 82587857 81756250 80965304 790946 80566709 69195447 58573683 10621764 8513095 50060588 48864640 46344893 41006408 40191636 10214176 9839152 9417466 9007691 8218123 11371262 2129134 6190714
shrinkage=0.1


Tree=14
num_leaves=31
num_cat=0
split_feature=1 1 1 1 1 1 1 1 1 1 1 1 1 1 1 1 1 1 1 1 1 1 1 1 1 1 1 1 1 1
split_gain=2214.27 7014.4 4742.66 5498.41 8273.9 3900.53 4503.69 3853.67 6083.08 3543.74 5398.54 3779.77 2843.12 8744.72 3148.97 3335.88 2646.85 2529.21 3476.77 2844.9 3456.26 4961.07 2390.77 2374.34 2272.93 2332.61 2516.51 4454.61 3456.08 2112.5
threshold=75227.000000000015 78071.000000000015 77545.500000000015 76623.500000000015 76719.500000000015 77369.500000000015 77265.500000000015 58421.500000000007 58181.500000000007 78935.500000000015 78701.500000000015 80001.500000000015 87285.500000000015 84962.000000000015 80247.500000000015 80185.500000000015 58197.500000000007 79772.000000000015 79653.500000000015 79568.000000000015 79356.000000000015 79029.500000000015 58381.500000000007 79881.500000000015 58451.500000000007 58493.500000000007 60007.500000000007 63125.500000000007 59963.500000000007 81085.500000000015
decision_type=2 2 2 2 2 2 2 2 2 2 2 2 2 2 2 2 2 2 2 2 2 2 2 2 2 2 2 2 2 2
left_child=7 2 3 -2 -5 6 -6 8 -1 10 -3 17 13 14 15 -13 -10 18 19 20 21 -11 -18 -19 -9 -26 28 -28 -27 -16
right_child=1 9 -4 4 5 -7 -8 24 16 11 -12 12 -14 -15 29 -17 22 23 -20 -21 -22 -23 -24 -25 25 26 27 -29 -30 -31
leaf_value=8.804505819432634e-05 -0.0049844355774858254 -0.0008573109982328614 -0.0085765891567816735 0.015234357412847111 -0.00045610239407430558 0.0087801115741139007 -0.012912245353066643 0.009643167741292093 -0.013193150824523842 0.0027945191074317268 0.016193194114752403 0.00012764061081079427 -0.0021555917467722167 0.010268133816421034 -0.0020769203860551114 0.013454375001519995 0.0024098059602606688 -0.014193656956800325 0.0037218006796572536 -0.012324906631700402 0.0063683058532368816 -0.01339270089301132 -0.007247902643238502 -0.0024891596346031004 -0.0056831795474141383 0.0028675029456086292 -0.0050503616439793063 0.0017488488856128668 0.012935656032920684 0.0013506326049709512
leaf_weight=63905813 3132048 400365 1444519 363341 1529551 342452 358258 361667 408489 358680 346328 382160 2552026 1036483 3147277 369375 399743 355868 796764 351918 340980 401020 714435 337860 424614 4401796 1139015 6256509 369570 4194803
leaf_count=63905813 3132048 400365 1444519 363341 1529551 342452 358258 361667 408489 358680 346328 382160 2552026 1036483 3147277 369375 399743 355868 796764 351918 340980 401020 714435 337860 424614 4401796 1139015 6256509 369570 4194803
internal_value=0 -0.00873433 -0.0345627 -0.0216447 0.0124093 -0.0103879 -0.0281996 0.00251194 -0.000607918 0.00331323 0.0705098 -0.000117503 0.00795155 0.0161994 0.00512439 0.0667765 -0.0630743 -0.0321463 -0.0158663 -0.0449835 -0.0199598 -0.0575017 -0.0378293 -0.0849332 0.0182708 0.0160258 0.0185685 0.00701675 0.0364734 -0.00118632
internal_weight=0 2.25421e+07 7.17017e+06 5.72565e+06 2.5936e+06 2.23026e+06 1.88781e+06 7.83817e+07 6.54285e+07 1.53719e+07 746693 1.46252e+07 1.16821e+07 9.1301e+06 8.09362e+06 751535 1.52267e+06 2.94309e+06 2.24936e+06 1.4526e+06 1.10068e+06 759700 1.11418e+06 693728 1.29532e+07 1.25915e+07 1.21669e+07 7.39552e+06 4.77137e+06 7.34208e+06
internal_count=100923727 22542076 7170169 5725650 2593602 2230261 1887809 78381651 65428480 15371907 746693 14625214 11682124 9130098 8093615 751535 1522667 2943090 2249362 1452598 1100680 759700 1114178 693728 12953171 12591504 12166890 7395524 4771366 7342080
shrinkage=0.1


Tree=15
num_leaves=31
num_cat=0
split_feature=1 1 1 1 1 1 1 1 1 1 1 1 1 1 1 1 1 1 1 1 1 1 1 1 1 1 1 1 1 1
split_gain=2021.72 11350.2 9953.51 9532.08 9787.55 5620.26 10026.3 6761.53 5884.58 8297.38 5190.15 3974.46 3628.56 3215.26 8438.55 3190.87 2669.74 6494.41 6396.19 5020.86 3675.33 5034.39 6715.35 7833.53 5168.07 5090.49 4984.18 3787.9 10815 6312.51
threshold=7693.5000000000009 8385.5000000000018 8369.5000000000018 9153.5000000000018 8611.5000000000018 12287.500000000002 12543.500000000002 12859.000000000002 11494.000000000002 10209.500000000002 9591.5000000000018 9127.5000000000018 12949.500000000002 1013.5000000000001 1025.5000000000002 8403.5000000000018 13099.500000000002 13140.000000000002 13197.500000000002 13123.000000000002 31893.500000000004 35833.500000000007 42339.500000000007 37137.500000000007 36109.500000000007 35809.500000000007 37821.500000000007 35729.500000000007 35699.500000000007 35525.500000000007
decision_type=2 2 2 2 2 2 2 2 2 2 2 2 2 2 2 2 2 2 2 2 2 2 2 2 2 2 2 2 2 2
left_child=13 2 -2 4 15 8 -7 -8 9 10 -5 -6 -9 -1 -15 -3 -14 19 -19 -18 -20 25 23 24 -23 27 -25 28 29 -22
right_child=1 3 -4 5 11 6 7 12 -10 -11 -12 -13 16 14 -16 -17 17 18 20 -21 21 22 -24 26 -26 -27 -28 -29 -30 -31
leaf_value=-0.0060878354982020879 -0.0039293119315525161 0.0045941750884105808 -0.021923918897369565 -0.00069606761613808389 0.015866219295980779 0.015930954666428392 -0.0090732080741738868 0.0090292702253557157 -0.0072650665145829966 0.0039049418198131591 -0.009147872696486389 0.0040689543317751348 -0.0055642359532105338 0.01581244083435647 0.0013269606224334532 -0.0073376126509627233 0.00039945177211832137 -0.012593982820610706 0.0017046782446100519 0.016403966970722279 -0.002051617837947215 0.0043310797992156379 -0.00020226151893939405 0.014002131704758315 -0.0026527529189936368 -0.013218296868511524 0.0041225252026725308 0.0080445481078443605 -0.017848215155248155 0.010666689410075427
leaf_weight=469559 1285283 438335 404017 1678889 884885 398616 807428 454863 2097755 2065418 1280925 421647 831607 439360 4750249 458641 358592 398595 12188524 432354 8190429 2077776 52232324 874992 2162293 407588 1226298 375024 421686 409775
leaf_count=469559 1285283 438335 404017 1678889 884885 398616 807428 454863 2097755 2065418 1280925 421647 831607 439360 4750249 458641 358592 398595 12188524 432354 8190429 2077776 52232324 874992 2162293 407588 1226298 375024 421686 409775
internal_value=0 -0.00109087 -0.0823294 0.000375715 0.065368 -0.00119163 0.00108882 0.000336657 -0.0281642 -0.00959363 -0.0435377 0.12059 0.00122212 0.0183634 0.0255332 -0.0150678 0.000731555 0.00130498 0.000424065 0.0914798 0.00104924 -0.00180235 0.00170821 0.0324381 0.00769559 -0.022775 0.0823646 -0.0180295 -0.0221229 -0.0144563
internal_weight=0 9.52646e+07 1.6893e+06 9.35753e+07 2.20351e+06 9.13718e+07 8.42488e+07 8.38501e+07 7.12299e+06 5.02523e+06 2.95981e+06 1.30653e+06 8.30427e+07 5.65917e+06 5.18961e+06 896976 8.25879e+07 8.17562e+07 8.09653e+07 790946 8.05667e+07 6.83782e+07 5.85737e+07 6.34136e+06 4.24007e+06 9.8045e+06 2.10129e+06 9.39691e+06 9.02189e+06 8.6002e+06
internal_count=100923727 95264559 1689300 93575259 2203508 91371751 84248764 83850148 7122987 5025232 2959814 1306532 83042720 5659168 5189609 896976 82587857 81756250 80965304 790946 80566709 68378185 58573683 6341359 4240069 9804502 2101290 9396914 9021890 8600204
shrinkage=0.1


Tree=16
num_leaves=31
num_cat=0
split_feature=1 1 1 1 1 1 1 1 1 1 1 1 1 1 1 1 1 1 1 1 1 1 1 1 1 1 1 1 1 1
split_gain=1766.63 6172.27 4645 2963.26 3597.78 7409.8 5342.38 4275.82 10441.6 4079.62 3837.81 5220.41 7335.82 3688.58 3678.7 2930.59 3239.06 2872.45 2687.05 6517.07 4229.08 4092.44 3113.86 3528.73 14617 8922.06 5663.61 3757.35 3283.79 3219.32
threshold=69445.500000000015 69293.500000000015 80001.500000000015 58544.000000000007 54357.000000000007 54731.500000000007 54757.500000000007 37137.500000000007 37821.500000000007 54515.500000000007 55439.500000000007 56683.500000000007 56195.500000000007 37183.000000000007 54985.500000000007 58641.500000000007 58685.500000000007 54671.000000000007 32433.500000000004 32879.000000000007 32357.500000000004 32489.500000000004 14677.500000000002 9153.5000000000018 8611.5000000000018 8244.0000000000018 8385.5000000000018 8369.5000000000018 31893.500000000004 9127.5000000000018
decision_type=2 2 2 2 2 2 2 2 2 2 2 2 2 2 2 2 2 2 2 2 2 2 2 2 2 2 2 2 2 2
left_child=1 3 -2 4 7 9 -7 18 13 -6 14 12 -12 -9 -8 -5 -17 -11 20 21 22 -20 23 24 25 -1 27 -27 -24 -26
right_child=2 -3 -4 15 5 6 10 8 -10 17 11 -13 -14 -15 -16 16 -18 -19 19 -21 -22 -23 28 -25 29 26 -28 -29 -30 -31
leaf_value=0.001170675480197845 -0.001985984616307849 0.012588520949882054 0.00073586604675671043 0.0075069842004930115 -0.0010642293949315249 0.0096348933704018189 0.0013316453646854609 0.0062556990028285204 0.0011429932713093803 -0.019471896084470957 -0.0021872375229390218 -0.0018839093435030971 0.011222093500625743 0.019244555156362197 -0.01032833164753247 -0.0073192719596612129 0.0017885390639574687 -0.0074818523990173181 -0.003060515280329672 -0.00079751137015804472 0.011001328385650091 -0.017387723667449128 0.0023314093240703027 -0.001476676381460363 0.014279597491117233 -0.0063763728008556127 -0.001356098991983498 -0.019731526639202652 -0.0024957027599610852 0.0036620582124592335
leaf_weight=6504277 13533156 402718 11682124 845324 416429 466846 401751 447480 8721109 386205 817135 5889923 814772 427512 828751 412144 7426247 413988 402746 11218031 366572 394811 9255693 13737873 884885 440174 896976 404017 1662411 421647
leaf_count=6504277 13533156 402718 11682124 845324 416429 466846 401751 447480 8721109 386205 817135 5889923 814772 427512 828751 412144 7426247 413988 402746 11218031 366572 394811 9255693 13737873 884885 440174 896976 404017 1662411 421647
internal_value=0 0.00241455 -0.00724964 0.00175425 -0.000510467 -0.0175619 -0.00788196 0.00265659 0.0218784 -0.0909133 -0.0134416 -0.00497206 0.0450772 0.126019 -0.0652142 0.0191293 0.0130965 -0.132687 -0.0013025 -0.0141849 0.00317449 -0.101528 0.0020296 -0.00450285 0.0102589 -0.00531272 -0.0688904 -0.127679 0.0159642 0.108531
internal_weight=0 7.57084e+07 2.52153e+07 7.53057e+07 6.6622e+07 1.04358e+07 9.21918e+06 5.61862e+07 9.5961e+06 1.21662e+06 8.75233e+06 7.52183e+06 1.63191e+06 874992 1.2305e+06 8.68372e+06 7.83839e+06 800193 4.65901e+07 1.20156e+07 3.45745e+07 797557 3.4208e+07 2.32898e+07 9.55198e+06 8.24544e+06 1.74117e+06 844191 1.09181e+07 1.30653e+06
internal_count=100923727 75708447 25215280 75305729 66622014 10435800 9219178 56186214 9596101 1216622 8752332 7521830 1631907 874992 1230502 8683715 7838391 800193 46590113 12015588 34574525 797557 34207953 23289849 9551976 8245444 1741167 844191 10918104 1306532
shrinkage=0.1


Tree=17
num_leaves=31
num_cat=0
split_feature=1 1 1 1 1 1 1 1 1 1 1 1 1 1 1 1 1 1 1 1 1 1 1 1 1 1 1 1 1 1
split_gain=1538.65 3997.37 5093.05 1555.72 14658.5 5146.98 4587.52 3250.63 8291.61 5426.14 5503.9 5566.87 5279.22 3050.66 3043.45 2584.61 2259.96 2035.27 5460.75 5041.06 4066.9 2582.61 9071.67 2669.02 5158.67 4909.87 5140.96 4476.5 3549.02 3401.07
threshold=1279.5000000000002 1013.5000000000001 1025.5000000000002 8611.5000000000018 9127.5000000000018 8244.0000000000018 8385.5000000000018 12287.500000000002 12543.500000000002 11494.000000000002 10209.500000000002 9591.5000000000018 12859.000000000002 12949.500000000002 8369.5000000000018 8403.5000000000018 11131.500000000002 13099.500000000002 13140.000000000002 13197.500000000002 13123.000000000002 30697.500000000004 27400.000000000004 35833.500000000007 35425.500000000007 42339.500000000007 37137.500000000007 35899.500000000007 34505.500000000007 35525.500000000007
decision_type=2 2 2 2 2 2 2 2 2 2 2 2 2 2 2 2 2 2 2 2 2 2 2 2 2 2 2 2 2 2
left_child=1 -1 -3 5 -5 -2 14 9 -9 10 11 -6 -10 -14 -7 -8 -12 -15 20 -20 -19 22 -21 24 28 26 27 -25 -23 -26
right_child=3 2 -4 4 7 6 15 8 12 -11 16 -13 13 17 -16 -17 -18 18 19 21 -22 23 -24 25 29 -27 -28 -29 -30 -31
leaf_value=-0.005596119896551021 0.00024900551526251154 0.014114129476097066 0.0016809411571213446 0.012851637574852552 0.00027890287706859362 -0.0057387354858668875 0.0042703674300526616 0.01448552763514145 -0.0080182192534511056 -0.0063908924447259059 0.0020068455868583255 -0.0080854178938269249 0.0082740108323793842 -0.0048601452815724491 -0.017758374221314707 -0.0064682419605928592 0.010272443184455939 0.00050717452285056069 -0.011186917038593367 0.00065340055833744935 0.014911238552841023 -0.0014560320636947306 0.011247396659978495 0.0072151114182049591 -0.011010738040783273 -0.00016985918757164752 0.0068213601873077625 -0.00086632405072443487 0.0032640490337327299 -0.0030015893884394532
leaf_weight=469559 4278115 439360 1317243 884885 2100536 440174 438335 398616 807428 2097755 1651797 1280925 454863 831607 404017 458641 413621 358592 398595 9242128 432354 7434091 885757 859762 789568 52232324 2101290 3380307 2027409 1614073
leaf_count=469559 4278115 439360 1317243 884885 2100536 440174 438335 398616 807428 2097755 1651797 1280925 454863 831607 404017 458641 413621 358592 398595 9242128 432354 7434091 885757 859762 789568 52232324 2101290 3380307 2027409 1614073
internal_value=0 0.0259985 0.0479072 -0.000586406 0.000425398 -0.0161651 -0.0620014 -0.000809394 0.000971408 -0.0206951 -0.00405217 -0.0288957 0.000287397 0.00106981 -0.114912 -0.0122049 0.0366212 0.000619997 0.00112067 0.000312894 0.0838085 0.000867902 0.0157992 -0.00127896 -0.0149558 0.00149152 0.0277677 0.00772355 -0.00444614 -0.056325
internal_weight=0 2.22616e+06 1.7566e+06 9.86976e+07 9.26783e+07 6.01928e+06 1.74117e+06 9.17934e+07 8.42488e+07 7.54463e+06 5.44688e+06 3.38146e+06 8.38501e+07 8.30427e+07 844191 896976 2.06542e+06 8.25879e+07 8.17562e+07 8.09653e+07 790946 8.05667e+07 1.01279e+07 7.04388e+07 1.18651e+07 5.85737e+07 6.34136e+06 4.24007e+06 9.4615e+06 2.40364e+06
internal_count=100923727 2226162 1756603 98697565 92678283 6019282 1741167 91793398 84248764 7544634 5446879 3381461 83850148 83042720 844191 896976 2065418 82587857 81756250 80965304 790946 80566709 10127885 70438824 11865141 58573683 6341359 4240069 9461500 2403641
shrinkage=0.1


Tree=18
num_leaves=31
num_cat=0
split_feature=1 1 1 1 1 1 1 1 1 1 1 1 1 1 1 1 1 1 1 1 1 1 1 1 1 1 1 1 1 1
split_gain=1390.38 5944.29 4142.23 3791.55 4703.57 6726.64 5291.88 3977.92 3097.77 3978.66 4293.46 3641.83 2928.36 4558.75 2790.29 3637.85 3066.7 2613.71 4034.79 3846.3 4956.49 3159.43 3647.99 2166.2 2562.18 2107.25 2498.63 5987.78 2998.34 5413.52
threshold=81207.500000000015 81453.500000000015 75227.000000000015 81487.500000000015 81693.500000000015 82425.500000000015 87285.500000000015 84962.000000000015 76429.500000000015 76719.500000000015 76623.500000000015 76201.500000000015 58421.500000000007 58077.500000000007 81159.500000000015 81085.500000000015 80949.500000000015 78071.000000000015 77545.500000000015 79029.500000000015 79356.000000000015 77369.500000000015 77265.500000000015 78701.500000000015 78935.500000000015 57897.500000000007 57379.500000000007 57201.500000000007 56904.000000000007 56195.500000000007
decision_type=2 2 2 2 2 2 2 2 2 2 2 2 2 2 2 2 2 2 2 2 2 2 2 2 2 2 2 2 2 2
left_child=2 -2 12 -3 -5 -6 7 -7 11 10 -10 -4 13 25 15 16 17 18 21 23 -21 22 -11 -19 -25 26 27 28 29 -1
right_child=1 3 8 4 5 6 -8 -9 9 14 -12 -13 -14 -15 -16 -17 -18 19 -20 20 -22 -23 -24 24 -26 -27 -28 -29 -30 -31
leaf_value=-3.3377833479174535e-05 0.0083043956642280051 -0.0097311289551116949 -0.0023135083067217094 0.012562529938006854 -0.013027869022835668 0.00042985883379852163 -0.0019764071571056548 0.0092049462052546539 -0.0014697579089619497 -0.00017468180684549037 0.013946732446832855 -0.010328609941197069 0.0015725503545392294 -0.0048501412711408681 -0.0093864694096398565 0.006217024123169647 -0.010683426345145949 -0.0005357689149369109 -0.0074831199897227724 -0.011817620502087425 -0.00031778527392049122 0.0081379107796351897 -0.011385210161297475 0.014809685167626438 0.0027508772637121399 0.0075926681011266872 -0.0055206000509411095 0.012223168583673701 -0.0060864643642401213 0.0067427299889480921
leaf_weight=59917319 1049148 366189 1978156 318960 365236 1029933 2552026 1036483 359280 1529551 363341 794612 12953171 1938532 417680 647657 351522 400365 1444519 401020 5730680 342452 358258 346328 358680 370462 801120 404760 793606 1202681
leaf_count=59917319 1049148 366189 1978156 318960 365236 1029933 2552026 1036483 359280 1529551 363341 794612 12953171 1938532 417680 647657 351522 400365 1444519 401020 5730680 342452 358258 346328 358680 370462 801120 404760 793606 1202681
internal_value=0 0.0138992 -0.000991177 0.00110238 0.00789862 0.000364002 0.0106955 0.0483131 -0.0157491 -0.0093001 0.0628181 -0.0461045 0.00198824 -0.000731392 -0.0135271 -0.01071 -0.0149007 -0.0119391 -0.0336583 -0.000910641 -0.0106989 -0.00699104 -0.0230215 0.0533864 0.0867464 0.000727165 0.000285803 0.000999166 0.000206609 0.000999582
internal_weight=0 6.71798e+06 9.42058e+07 5.66883e+06 5.30264e+06 4.98368e+06 4.61844e+06 2.06642e+06 1.58241e+07 1.30513e+07 722621 2.77277e+06 7.83817e+07 6.54285e+07 1.23287e+07 1.1911e+07 1.12634e+07 1.09119e+07 3.67478e+06 7.23707e+06 6.1317e+06 2.23026e+06 1.88781e+06 1.10537e+06 705008 6.34899e+07 6.31195e+07 6.23184e+07 6.19136e+07 6.112e+07
internal_count=100923727 6717975 94205752 5668827 5302638 4983678 4618442 2066416 15824101 13051333 722621 2772768 78381651 65428480 12328712 11911032 11263375 10911853 3674780 7237073 6131700 2230261 1887809 1105373 705008 63489948 63119486 62318366 61913606 61120000
shrinkage=0.1


Tree=19
num_leaves=31
num_cat=0
split_feature=1 1 1 1 1 1 1 1 1 1 1 1 1 1 1 1 1 1 1 1 1 1 1 1 1 1 1 1 1 1
split_gain=1249.86 3237.87 4125.37 1535.33 1254.01 11880.9 4169.05 3715.89 2622.23 6720.35 4395.17 4458.16 4509.16 4271.42 2473.77 2465.19 2093.53 1830.56 1804.94 1692.14 1645.53 4428.11 4079.9 3294.19 2109.94 3124.68 3474.29 2991.56 4049.11 4015.82
threshold=1279.5000000000002 1013.5000000000001 1025.5000000000002 1039.0000000000002 8611.5000000000018 9127.5000000000018 8244.0000000000018 8385.5000000000018 12287.500000000002 12543.500000000002 11494.000000000002 10209.500000000002 9591.5000000000018 12859.000000000002 12949.500000000002 8369.5000000000018 8403.5000000000018 11131.500000000002 10277.500000000002 11671.500000000002 13099.500000000002 13140.000000000002 13197.500000000002 13123.000000000002 31893.500000000004 31721.000000000004 31491.500000000004 35833.500000000007 35809.500000000007 39945.500000000007
decision_type=2 2 2 2 2 2 2 2 2 2 2 2 2 2 2 2 2 2 2 2 2 2 2 2 2 2 2 2 2 2
left_child=1 -1 -3 -4 6 -6 -2 15 10 -10 11 12 -7 -11 -15 -8 -9 18 -13 -12 -16 23 -23 -22 25 26 -24 28 -26 -29
right_child=4 2 3 -5 5 8 7 16 9 13 19 17 -14 14 20 -17 -18 -19 -20 -21 21 22 24 -25 27 -27 -28 29 -30 -31
leaf_value=-0.0050331695592276968 0.00022744267756413632 0.012706053888626528 -0.0033259001392938513 0.0039233347113001912 0.011569810846289365 0.00025435071259434874 -0.0051615241110721764 0.0038466681656616018 0.013040312302740487 -0.0072130602120584657 -0.011555379496449247 0.0072691319286532011 -0.0072735378107088846 0.0074499476051460862 -0.0043707926356060757 -0.015979198997515588 -0.0058180799116066542 0.0092485365638672896 -0.00019194037614499624 -0.0043593576019768949 0.00045979486121496064 -0.010064886994433917 0.0013362471657244307 0.013423452676990771 -0.0013322515447019715 0.010179082251917236 -0.0077771690549021492 0.0025972143470313863 -0.011513220124218751 -0.00014626731159129354
leaf_weight=469559 4278115 439360 437398 879845 884885 2100536 440174 438335 398616 807428 404947 443096 1280925 454863 831607 404017 458641 413621 1208701 1692808 358592 398595 11371262 432354 9396914 382971 434291 5937264 407588 52636419
leaf_count=469559 4278115 439360 437398 879845 884885 2100536 440174 438335 398616 807428 404947 443096 1280925 454863 831607 404017 458641 413621 1208701 1692808 358592 398595 11371262 432354 9396914 382971 434291 5937264 407588 52636419
internal_value=0 0.023432 0.0431499 0.0151619 -0.000528518 0.000379889 -0.0145152 -0.0557679 -0.000731775 0.000867661 -0.0185922 -0.00361357 -0.0259727 0.000251861 0.000955639 -0.103387 -0.010951 0.0329924 0.018095 -0.0574847 0.000550587 0.00100077 0.000273376 0.0754611 0.000772678 0.0128937 0.0100099 -0.00138792 -0.0175549 0.00131823
internal_weight=0 2.22616e+06 1.7566e+06 1.31724e+06 9.86976e+07 9.26783e+07 6.01928e+06 1.74117e+06 9.17934e+07 8.42488e+07 7.54463e+06 5.44688e+06 3.38146e+06 8.38501e+07 8.30427e+07 844191 896976 2.06542e+06 1.6518e+06 2.09776e+06 8.25879e+07 8.17562e+07 8.09653e+07 790946 8.05667e+07 1.21885e+07 1.18056e+07 6.83782e+07 9.8045e+06 5.85737e+07
internal_count=100923727 2226162 1756603 1317243 98697565 92678283 6019282 1741167 91793398 84248764 7544634 5446879 3381461 83850148 83042720 844191 896976 2065418 1651797 2097755 82587857 81756250 80965304 790946 80566709 12188524 11805553 68378185 9804502 58573683
shrinkage=0.1


Tree=20
num_leaves=31
num_cat=0
split_feature=1 1 1 1 1 1 1 1 1 1 1 1 1 1 1 1 1 1 1 1 1 1 1 1 1 1 1 1 1 1
split_gain=1173.68 3830.08 3552.91 2796.34 2112.96 4103.3 2914.6 2784.36 5959.8 3276.51 2509.2 3222.72 3477.71 2949.89 2444.79 3709.01 2260.13 2946.66 2484.03 2283.31 5709.07 4246.09 3380.33 3216.64 2143.95 2000.05 1936.52 1883.86 1717.2 1933.77
threshold=94511.500000000015 84671.500000000015 87253.500000000015 117905.50000000001 81693.500000000015 81487.500000000015 82425.500000000015 81453.500000000015 81207.500000000015 75227.000000000015 76429.500000000015 76719.500000000015 76623.500000000015 76201.500000000015 58421.500000000007 58181.500000000007 81159.500000000015 81085.500000000015 80949.500000000015 80860.000000000015 80694.000000000015 80185.500000000015 80247.500000000015 80891.500000000015 58197.500000000007 58451.500000000007 58381.500000000007 58409.500000000007 58493.500000000007 60007.500000000007
decision_type=2 2 2 2 2 2 2 2 2 2 2 2 2 2 2 2 2 2 2 2 2 2 2 2 2 2 2 2 2 2
left_child=1 4 -3 -2 5 7 -6 8 9 14 13 12 -12 -11 15 -1 17 18 19 20 21 -13 -23 -21 -17 -16 -26 -28 -27 -30
right_child=3 2 -4 -5 6 -7 -8 -9 -10 10 11 16 -14 -15 25 24 -18 -19 -20 23 -22 22 -24 -25 26 28 27 -29 29 -31
leaf_value=4.2458740761042965e-05 -0.0079907728367214475 0.0085438721214042331 0.0006153171488166324 0.00063683650176569627 -0.011710456151309508 0.011320903898613493 -0.00078628432386850195 -0.0087433893298560703 0.0074885827535033783 -0.0020675311260590279 -0.0013081562592249759 -0.00179811961703376 0.012566686174839636 -0.0092811218336551829 0.0087618255975631474 -0.011148592118292585 -0.0084331950549770066 0.0056099484885504189 -0.0096004574340002279 0.011940714894138359 -0.01007029610518701 0.012118968304912592 0.0013924530721018209 -0.0021432062299166451 0.0028940687937680362 -0.0050318871870890748 -0.010811345071040415 -0.00053835068189385046 0.0030070422993431676 0.00042486124065816268
leaf_weight=63905813 612697 1003550 1293917 971093 365236 318960 737185 366189 1049148 1978156 359280 7746723 363341 794612 361667 408489 417680 647657 351522 315053 710735 369375 1435799 334168 399743 424614 365773 348662 4771366 7395524
leaf_count=63905813 612697 1003550 1293917 971093 365236 318960 737185 366189 1049148 1978156 359280 7746723 363341 794612 361667 408489 417680 647657 351522 315053 710735 369375 1435799 334168 399743 424614 365773 348662 4771366 7395524
internal_value=0 0.000430591 0.0407857 -0.027008 -0.00052481 -2.4616e-05 -0.044055 -0.000402326 -6.77497e-05 -0.000902491 -0.014028 -0.00822382 0.0566825 -0.0413478 0.00174735 -0.000737604 -0.0120282 -0.00949271 -0.0132643 -0.0105989 -0.0142372 -0.00780348 0.0358731 0.0469142 -0.0495144 0.0142992 -0.0267939 -0.0579787 0.0121933 0.0143749
internal_weight=0 9.93399e+07 2.29747e+06 1.58379e+06 9.70425e+07 9.594e+07 1.10242e+06 9.56211e+07 9.52549e+07 9.42058e+07 1.58241e+07 1.30513e+07 722621 2.77277e+06 7.83817e+07 6.54285e+07 1.23287e+07 1.1911e+07 1.12634e+07 1.09119e+07 1.02626e+07 9.5519e+06 1.80517e+06 649221 1.52267e+06 1.29532e+07 1.11418e+06 714435 1.25915e+07 1.21669e+07
internal_count=100923727 99339937 2297467 1583790 97042470 95940049 1102421 95621089 95254900 94205752 15824101 13051333 722621 2772768 78381651 65428480 12328712 11911032 11263375 10911853 10262632 9551897 1805174 649221 1522667 12953171 1114178 714435 12591504 12166890
shrinkage=0.1


Tree=21
num_leaves=31
num_cat=0
split_feature=1 1 1 1 1 1 1 1 1 1 1 1 1 1 1 1 1 1 1 1 1 1 1 1 1 1 1 1 1 1
split_gain=1058.24 1621.95 2982.12 3102.36 2877.86 1711.5 3323.68 2360.83 2255.33 4827.43 2653.97 2032.45 2829.97 2937.55 3610.45 3679.85 2389.41 2169.17 1981.82 2557.29 6108.39 4266.67 3304.49 3202.05 3478.14 5293.49 3065.73 3351.12 2979.75 2739.74
threshold=130750.50000000001 120106.00000000001 94511.500000000015 84671.500000000015 87253.500000000015 81693.500000000015 81487.500000000015 82425.500000000015 81453.500000000015 81207.500000000015 75227.000000000015 76429.500000000015 77125.500000000015 78071.000000000015 79029.500000000015 79356.000000000015 76201.500000000015 81159.500000000015 58544.000000000007 54357.000000000007 54731.500000000007 54757.500000000007 54515.500000000007 55439.500000000007 56683.500000000007 56195.500000000007 51479.500000000007 53189.500000000007 54985.500000000007 53615.500000000007
decision_type=2 2 2 2 2 2 2 2 2 2 2 2 2 2 2 2 2 2 2 2 2 2 2 2 2 2 2 2 2 2
left_child=1 2 3 5 -5 6 8 -7 9 10 18 16 -13 -14 -15 -16 -12 -17 19 26 22 -22 -21 28 25 -25 -1 -28 -23 -29
right_child=-2 -3 -4 4 -6 7 -8 -9 -10 -11 11 12 13 14 15 17 -18 -19 -20 20 21 23 -24 24 -26 -27 27 29 -30 -31
leaf_value=4.1249869477064678e-05 -0.0068825254754219444 0.0058066086094038898 -0.005809594682210443 0.0076894857370806832 0.00055378472353247545 -0.010539410016987903 0.010188813892274329 -0.00070765636842357884 -0.0078690501583791404 0.0067397241209842876 -0.0018607777944871465 0.0033931064654651511 -0.0040030129940475303 0.0049992158891072865 -0.010441419150088609 -0.00016309374049463664 -0.0083530094628300241 -0.0075898758752524151 0.001354102279331739 -0.00092710217121924317 0.0087021083473469343 0.0012291852185629629 -0.011911147819715577 -0.0019378090720281694 -0.0014678059116766872 0.0094529770945192826 0.0072185326920279659 -0.0035731869078700325 -0.0092647940366736986 0.004694301437862901
leaf_weight=53304022 222910 481276 879604 1003550 1293917 365236 318960 737185 366189 1049148 1978156 1469953 2927448 1105373 401020 6729859 794612 417680 11759637 416429 466846 401751 800193 817135 5889923 814772 1274812 844043 828751 763337
leaf_count=53304022 222910 481276 879604 1003550 1293917 365236 318960 737185 366189 1049148 1978156 1469953 2927448 1105373 401020 6729859 794612 417680 11759637 416429 466846 401751 800193 817135 5889923 814772 1274812 844043 828751 763337
internal_value=0 0.000152351 -0.000125763 0.000387533 0.0367071 -0.000472328 -2.21537e-05 -0.0396495 -0.000362092 -6.09739e-05 -0.000812241 -0.0126252 -0.00740144 -0.0126475 -0.00338454 -0.0112008 -0.037213 -0.00597092 0.00157261 -0.000539965 -0.0149158 -0.00612694 -0.081515 -0.0110954 -0.00335915 0.0374934 0.00213014 0.0338967 -0.0583858 0.00353003
internal_weight=0 1.00701e+08 1.0022e+08 9.93399e+07 2.29747e+06 9.70425e+07 9.594e+07 1.10242e+06 9.56211e+07 9.52549e+07 9.42058e+07 1.58241e+07 1.30513e+07 1.15814e+07 8.65393e+06 7.54856e+06 2.77277e+06 7.14754e+06 7.83817e+07 6.6622e+07 1.04358e+07 9.21918e+06 1.21662e+06 8.75233e+06 7.52183e+06 1.63191e+06 5.61862e+07 2.88219e+06 1.2305e+06 1.60738e+06
internal_count=100923727 100700817 100219541 99339937 2297467 97042470 95940049 1102421 95621089 95254900 94205752 15824101 13051333 11581380 8653932 7548559 2772768 7147539 78381651 66622014 10435800 9219178 1216622 8752332 7521830 1631907 56186214 2882192 1230502 1607380
shrinkage=0.1


Tree=22
num_leaves=31
num_cat=0
split_feature=1 1 1 1 1 1 1 1 1 1 1 1 1 1 1 1 1 1 1 1 1 1 1 1 1 1 1 1 1 1
split_gain=1024.56 5568.97 4305.64 4390.18 3947.07 2866.2 2921.72 1888.25 1749.64 4415.29 1695.76 1649.41 3868.5 1625.77 5434.12 4699.22 3646.94 2224.63 1466.85 1376.64 2701.03 2653.87 2672.92 3016.37 5917.31 2533.66 3430.26 2566.06 7256.73 4090.15
threshold=7693.5000000000009 8385.5000000000018 9153.5000000000018 8611.5000000000018 8369.5000000000018 10209.500000000002 10053.500000000002 10277.500000000002 1013.5000000000001 1025.5000000000002 8403.5000000000018 3033.5000000000005 4433.5000000000009 12287.500000000002 12543.500000000002 11494.000000000002 12673.500000000002 11131.500000000002 9127.5000000000018 31893.500000000004 32123.500000000004 31721.000000000004 31491.500000000004 27400.000000000004 28957.500000000004 25717.500000000004 25705.500000000004 24047.500000000004 24265.500000000004 24035.500000000004
decision_type=2 2 2 2 2 2 2 2 2 2 2 2 2 2 2 2 2 2 2 2 2 2 2 2 2 2 2 2 2 2
left_child=8 4 3 10 -2 6 -4 -7 -1 -10 -3 -11 -13 15 -15 17 -16 -9 -5 21 -21 22 23 25 -25 26 27 29 -29 -18
right_child=1 2 5 18 -6 7 -8 13 9 11 -12 12 -14 14 16 -17 19 -19 -20 20 -22 -23 -24 24 -26 -27 -28 28 -30 -31
leaf_value=-0.004538223802624146 -0.0030580399589648136 0.0034536305749081572 -0.0018282269798499823 0.010404459760575078 -0.014389650268105958 0.0065338475271299878 -0.010658933467576246 -0.00018111774261933132 0.011427077444900782 -0.0004287602119101358 -0.005244642841359246 0.012087415455814316 0.00079588882514505452 0.01172791052923444 -0.0095537013222669939 -0.0051819895012630568 0.0005316044038529967 0.0083153123681505257 0.0032374941948029945 -0.0058470492977750858 -5.1944165010940387e-05 0.0091528032259354641 -0.0070078228246306237 0.015086379768454984 0.0018200771032167312 -0.0072326651722742488 0.0092959046448139373 -0.014823871337511991 2.6319720756532769e-05 0.010419694522569155
leaf_weight=469559 1285283 438335 2519702 884885 404017 443096 440112 1208701 439360 3071134 458641 397531 1281584 398616 395656 2097755 8732858 413621 421647 813967 67564218 382971 434291 418468 1710666 425584 438851 408961 1684284 439373
leaf_count=469559 1285283 438335 2519702 884885 404017 443096 440112 1208701 439360 3071134 458641 397531 1281584 398616 395656 2097755 8732858 413621 421647 813967 67564218 382971 434291 418468 1710666 425584 438851 408961 1684284 439373
internal_value=0 -0.000776572 0.000250722 0.0439312 -0.0576813 -0.00080267 -0.0314132 0.000222094 0.0130726 0.0183616 -0.00993963 0.00949075 0.0346916 -0.000105895 0.000797463 -0.0205643 0.00024372 0.019851 0.0809152 0.000697815 -0.00120929 0.00934741 0.00720544 0.00955928 0.0442749 0.00346574 0.00622165 0.00284276 -0.0287499 0.0100527
internal_weight=0 9.52646e+07 9.35753e+07 2.20351e+06 1.6893e+06 9.13718e+07 2.95981e+06 8.84119e+07 5.65917e+06 5.18961e+06 896976 4.75025e+06 1.67912e+06 8.79688e+07 8.42488e+07 3.72008e+06 8.38501e+07 1.62232e+06 1.30653e+06 8.34545e+07 6.83782e+07 1.50763e+07 1.46933e+07 1.4259e+07 2.12913e+06 1.21299e+07 1.17043e+07 1.12655e+07 2.09324e+06 9.17223e+06
internal_count=100923727 95264559 93575259 2203508 1689300 91371751 2959814 88411937 5659168 5189609 896976 4750249 1679115 87968841 84248764 3720077 83850148 1622322 1306532 83454492 68378185 15076307 14693336 14259045 2129134 12129911 11704327 11265476 2093245 9172231
shrinkage=0.1


Tree=23
num_leaves=31
num_cat=0
split_feature=1 1 1 1 1 1 1 1 1 1 1 1 1 1 1 1 1 1 1 1 1 1 1 1 1 1 1 1 1 1
split_gain=906.981 2200.13 2601.1 1243.62 888.483 7781.37 2786.28 2016.79 3133.49 1740.2 4401.64 3014.8 2883.67 2925 3228.71 1969.64 1371.23 3525.51 3347.08 2668.29 1452.74 6195.14 2142.48 2675.5 2418.26 5877.95 3991.15 6873.46 3241.96 1769.89
threshold=1279.5000000000002 1013.5000000000001 1025.5000000000002 1039.0000000000002 8611.5000000000018 9127.5000000000018 7693.5000000000009 3033.5000000000005 4433.5000000000009 12287.500000000002 12543.500000000002 12859.000000000002 11494.000000000002 10209.500000000002 9591.5000000000018 12949.500000000002 13099.500000000002 13140.000000000002 13197.500000000002 13123.000000000002 30697.500000000004 27400.000000000004 25717.500000000004 25705.500000000004 24047.500000000004 24265.500000000004 24411.500000000004 24553.500000000004 14677.500000000002 24035.500000000004
decision_type=2 2 2 2 2 2 2 2 2 2 2 2 2 2 2 2 2 2 2 2 2 2 2 2 2 2 2 2 2 2
left_child=1 -1 -3 -4 6 -6 7 -2 -9 12 -11 -12 13 14 -7 -13 -17 19 -19 -18 21 22 23 24 28 -26 -27 -28 -20 -30
right_child=4 2 3 -5 5 9 -8 8 -10 10 11 15 -14 -15 -16 16 17 18 20 -21 -22 -23 -24 -25 25 26 27 -29 29 -31
leaf_value=-0.0040844013010277094 -0.0017264582456361954 0.010284370345059392 -0.0029588050108274033 0.0035655062436285878 0.0093640132974079967 0.00030168176672997821 -0.0037011144555783998 0.010878673174938635 0.000716299936684546 0.010555119553607058 -0.006059084787583385 0.0066434216225319019 -0.0046637908798250723 0.0026648523759057021 -0.0060683190879935499 -0.0039952448677623249 0.00035228409656085536 -0.0091199299026778376 -0.0010911526667180338 0.012019575394825135 -9.4682684453573909e-05 0.0091752365477751965 -0.0065093986614572653 0.008366314088292354 -0.01334148411385783 0.0086439681777646504 -0.013093089666197584 0.0024661128767356471 0.002568943202977873 0.0093777244729399793
leaf_weight=469559 1753891 439360 437398 879845 884885 2100536 2586276 397531 1281584 398616 807428 454863 2097755 2065418 1280925 831607 358592 398595 2932831 432354 70438824 885757 425584 438851 408961 407237 426088 850959 2912244 439373
leaf_count=469559 1753891 439360 437398 879845 884885 2100536 2586276 397531 1281584 398616 807428 454863 2097755 2065418 1280925 831607 358592 398595 2932831 432354 70438824 885757 425584 438851 408961 407237 426088 850959 2912244 439373
internal_value=0 0.0199608 0.0362145 0.0139907 -0.000450223 0.000314413 -0.0122232 0.00645087 0.0312224 -0.000585244 0.000717716 0.000219347 -0.015135 -0.00300233 -0.0211133 0.000810608 0.000449177 0.000860134 0.00021109 0.0672996 0.000663333 0.0118619 0.00420527 0.00755042 0.00356338 -0.0258749 0.000236874 -0.0272523 0.0133688 0.0346153
internal_weight=0 2.22616e+06 1.7566e+06 1.31724e+06 9.86976e+07 9.26783e+07 6.01928e+06 3.43301e+06 1.67912e+06 9.17934e+07 8.42488e+07 8.38501e+07 7.54463e+06 5.44688e+06 3.38146e+06 8.30427e+07 8.25879e+07 8.17562e+07 8.09653e+07 790946 8.05667e+07 1.01279e+07 9.24213e+06 8.81654e+06 8.37769e+06 2.09324e+06 1.68428e+06 1.27705e+06 6.28445e+06 3.35162e+06
internal_count=100923727 2226162 1756603 1317243 98697565 92678283 6019282 3433006 1679115 91793398 84248764 83850148 7544634 5446879 3381461 83042720 82587857 81756250 80965304 790946 80566709 10127885 9242128 8816544 8377693 2093245 1684284 1277047 6284448 3351617
shrinkage=0.1


Tree=24
num_leaves=31
num_cat=0
split_feature=1 1 1 1 1 1 1 1 1 1 1 1 1 1 1 1 1 1 1 1 1 1 1 1 1 1 1 1 1 1
split_gain=853.124 1321.2 2401.86 2535.87 2331.06 1403.39 4794.42 1534.84 3351.74 2792.49 2614.56 2510.76 3541.98 2381.13 3484.75 2006.16 1477.75 4601.57 4269.81 1760.82 4124.98 3672.22 1595.61 1455.22 5364.03 3257.99 2880.15 2702.24 7289.6 2987.75
threshold=130750.50000000001 120106.00000000001 94511.500000000015 84671.500000000015 87253.500000000015 69445.500000000015 69293.500000000015 78071.000000000015 77545.500000000015 77369.500000000015 77265.500000000015 78935.500000000015 78701.500000000015 76623.500000000015 76719.500000000015 76201.500000000015 66613.500000000015 65809.500000000015 68919.500000000015 58815.500000000007 60007.500000000007 63125.500000000007 59963.500000000007 54357.000000000007 54731.500000000007 54757.500000000007 55439.500000000007 37137.500000000007 37821.500000000007 37183.000000000007
decision_type=2 2 2 2 2 2 2 2 2 2 2 2 2 2 2 2 2 2 2 2 2 2 2 2 2 2 2 2 2 2
left_child=1 2 3 5 -5 6 16 8 9 10 13 12 -9 15 -15 -7 17 19 -18 23 22 -22 -21 27 -25 -26 -27 -1 29 -29
right_child=-2 -3 -4 4 -6 7 -8 11 -10 -11 -12 -13 -14 14 -16 -17 18 -19 -20 20 21 -23 -24 24 25 26 -28 28 -30 -31
leaf_value=-0.00013469879156053285 -0.0061796105006841013 0.0052406106861437709 -0.0052139725911806122 0.0069351997709112979 0.00051306937321436263 -0.00097630817607442192 0.011040793287387265 -0.00077301235943275613 -0.0061254051937545545 0.0079335224810821291 -0.0096372865618663175 -0.00036412198721741352 0.013037896444087402 0.010985369221888922 9.0817800154083001e-05 -0.0056345353182715493 0.0086341908938950707 -0.010846411051910294 -0.00089595349842753037 0.003768194561713953 -0.0049928292692563506 0.0038070927878165054 0.010936368666004901 -0.0073216835963231504 0.0078465605981782142 -0.0052400566147041798 -0.0001004950550669583 0.0046979011750032541 0.00083510594740295442 0.016387871611624024
leaf_weight=46590113 222910 481276 879604 1003550 1293917 4651360 402718 400365 1444519 342452 358258 10743957 346328 363341 1529551 1153892 767368 387092 1213659 1944013 1139015 812468 369570 1216622 466846 1230502 9572360 447480 8721109 427512
leaf_count=46590113 222910 481276 879604 1003550 1293917 4651360 402718 400365 1444519 342452 358258 10743957 346328 363341 1529551 1153892 767368 387092 1213659 1944013 1139015 812468 369570 1216622 466846 1230502 9572360 447480 8721109 427512
internal_value=0 0.000136791 -0.000114217 0.000346442 0.033183 -0.00043096 0.00158775 -0.00759478 -0.016759 -0.0091063 -0.0128657 0.000255678 0.0563271 -0.00897939 0.0218203 -0.0190221 0.0010058 0.000277674 0.0279563 0.000854784 0.0205704 -0.0132913 0.0491323 -0.000369699 -0.0101347 -0.00332461 -0.00685918 0.00180038 0.0170812 0.104095
internal_weight=0 1.00701e+08 1.0022e+08 9.93399e+07 2.29747e+06 9.70425e+07 7.57084e+07 2.1334e+07 9.84337e+06 8.39885e+06 8.0564e+06 1.14906e+07 746693 7.69814e+06 1.89289e+06 5.80525e+06 7.53057e+07 7.33247e+07 1.98103e+06 7.29376e+07 4.26507e+06 1.95148e+06 2.31358e+06 6.86725e+07 1.24863e+07 1.12697e+07 1.08029e+07 5.61862e+07 9.5961e+06 874992
internal_count=100923727 100700817 100219541 99339937 2297467 97042470 75708447 21334023 9843373 8398854 8056402 11490650 746693 7698144 1892892 5805252 75305729 73324702 1981027 72937610 4265066 1951483 2313583 68672544 12486330 11269708 10802862 56186214 9596101 874992
shrinkage=0.1


Tree=25
num_leaves=31
num_cat=0
split_feature=1 1 1 1 1 1 1 1 1 1 1 1 1 1 1 1 1 1 1 1 1 1 1 1 1 1 1 1 1 1
split_gain=745.713 1782.11 2106.89 1007.33 778.259 2519.72 1971.88 2784.57 2465.59 2344.52 1580.3 3307.53 1696.09 3593.48 1323.18 1880.04 4534.84 3503.53 2738.07 2605.48 1644.23 2687.82 1799.54 1736.6 1568.58 1525.92 1310.15 1253.78 1215.76 1307
threshold=1279.5000000000002 1013.5000000000001 1025.5000000000002 1039.0000000000002 81085.500000000015 80949.500000000015 87285.500000000015 84962.000000000015 81693.500000000015 82425.500000000015 81487.500000000015 81453.500000000015 81207.500000000015 81159.500000000015 75227.000000000015 80860.000000000015 80694.000000000015 80185.500000000015 80247.500000000015 80891.500000000015 58421.500000000007 58181.500000000007 58451.500000000007 58197.500000000007 58381.500000000007 58409.500000000007 80787.500000000015 80537.500000000015 58493.500000000007 60007.500000000007
decision_type=2 2 2 2 2 2 2 2 2 2 2 2 2 2 2 2 2 2 2 2 2 2 2 2 2 2 2 2 2 2
left_child=1 -1 -3 -4 5 14 7 8 10 -10 11 12 13 -6 20 16 17 -16 -19 -17 21 -2 -22 -23 -25 -26 -18 -20 -24 -30
right_child=4 2 3 -5 6 -7 -8 -9 9 -11 -12 -13 -14 -15 15 19 26 18 27 -21 22 23 28 24 25 -27 -28 -29 29 -31
leaf_value=-0.0036624915683094207 -3.182479084056047e-05 0.0092694029026912043 -0.0026494545297030075 0.0032224258165658077 0.0051163375482938776 -0.0085730264405503489 -0.0013599806529372546 0.0066720243758311001 -0.0094343941953284518 -0.00010938727843127702 0.0092210074650588246 -0.0070310706305058701 0.0061168274336893709 -0.0067798141954012493 -0.0014500490653410001 0.010814027148688961 -0.013459213999883713 0.01097445591810804 -0.0037279400263775988 -0.0018615019363063521 0.0080571358368588634 -0.0098622392595413555 -0.0043572053901646543 0.0027761555801976753 -0.0095587178305228324 -0.00031302242158202627 -0.0048658335218021882 0.0030502557931676171 0.0023766155422998278 0.00025375331435893912
leaf_weight=469559 61679651 439360 437398 879845 647657 351522 2552026 1036483 365236 1029933 318960 366189 1049148 417680 11242112 315053 341585 369375 366388 334168 361667 408489 424614 399743 365773 348662 369150 1069411 4771366 7395524
leaf_count=469559 61679651 439360 437398 879845 647657 351522 2552026 1036483 365236 1029933 318960 366189 1049148 417680 11242112 315053 341585 369375 366388 334168 361667 408489 424614 399743 365773 348662 369150 1069411 4771366 7395524
internal_value=0 0.0180994 0.0327278 0.0127263 -0.000408239 -0.00122987 0.00918892 0.0203061 0.00883781 -0.0255055 0.0259524 0.0174331 0.0326287 0.00452288 -0.000901875 -0.00968997 -0.0121715 -0.00793408 0.0329597 0.0428966 0.000760673 -0.00134287 0.0110245 -0.042848 -0.0223996 -0.0504659 -0.0899588 0.0132059 0.00902689 0.0108625
internal_weight=0 2.22616e+06 1.7566e+06 1.31724e+06 9.86976e+07 9.09143e+07 7.78331e+06 5.23129e+06 4.1948e+06 1.39517e+06 2.79963e+06 2.48067e+06 2.11448e+06 1.06534e+06 9.05627e+07 1.44072e+07 1.3758e+07 1.30473e+07 1.80517e+06 649221 7.61555e+07 6.32023e+07 1.29532e+07 1.52267e+06 1.11418e+06 714435 710735 1.4358e+06 1.25915e+07 1.21669e+07
internal_count=100923727 2226162 1756603 1317243 98697565 90914253 7783312 5231286 4194803 1395169 2799634 2480674 2114485 1065337 90562731 14407242 13758021 13047286 1805174 649221 76155489 63202318 12953171 1522667 1114178 714435 710735 1435799 12591504 12166890
shrinkage=0.1


Tree=26
num_leaves=31
num_cat=0
split_feature=1 1 1 1 1 1 1 1 1 1 1 1 1 1 1 1 1 1 1 1 1 1 1 1 1 1 1 1 1 1
split_gain=657.648 1133.08 1833.36 1786.67 2445.15 901.658 3872.94 1199.92 2453.2 2111.48 1923.21 1873.6 1645.53 1183.82 3737.74 3458.55 1429.04 1535.61 4384.53 1136.06 1613.38 2069.48 1099.7 8578.55 2111.45 6376 3993.92 2535.46 3053.47 2518.69
threshold=130750.50000000001 120106.00000000001 94511.500000000015 84962.000000000015 87253.500000000015 69445.500000000015 69293.500000000015 80001.500000000015 79772.000000000015 79679.500000000015 79881.500000000015 80247.500000000015 80185.500000000015 66613.500000000015 65809.500000000015 68919.500000000015 64681.500000000007 60007.500000000007 59013.500000000007 60227.500000000007 62095.500000000007 63125.500000000007 54515.500000000007 54671.000000000007 36813.500000000007 36424.000000000007 39945.500000000007 51479.500000000007 53189.500000000007 36141.500000000007
decision_type=2 2 2 2 2 2 2 2 2 2 2 2 2 2 2 2 2 2 2 2 2 2 2 2 2 2 2 2 2 2
left_child=1 2 3 5 -5 6 13 8 9 -7 -10 12 -9 14 16 -15 17 18 22 -19 -21 -22 24 -24 25 29 -26 -28 -29 -1
right_child=-2 -3 -4 4 -6 7 -8 11 10 -11 -12 -13 -14 15 -16 -17 -18 19 -20 20 21 -23 23 -25 26 -27 27 28 -30 -31
leaf_value=-9.3088071508803857e-05 -0.0054256510783595542 0.0048525471719348106 -0.0045565772685799144 0.0076960897860761483 0.0003955933791423749 -0.0010862721431076385 0.0099113386440254914 0.00051710845772134472 -0.012099874279782544 0.0065473264885702433 -0.0015658270503532039 -0.00012490627899095795 0.0098770102448823248 0.0077453964422254844 -0.0097871452006774249 -0.0008317342571102492 0.0060534161071605849 -0.0075823785822018725 0.0047898050437410328 0.0041455722238234348 -0.0093848122491582125 0.00087429411921844584 -0.015552874289122803 -0.00041223723408048577 0.0052756463370645691 -0.012365938998361563 -0.0009718318580168346 0.0064310139351503124 0.00018281485831726544 0.0077098531306828231
leaf_weight=45293378 222910 481276 879604 710802 1293917 12466231 402718 382160 355868 373197 337860 7342080 369375 767368 387092 1213659 396375 411410 1939626 354815 372790 416093 386205 12057653 2154142 422301 5016714 1274812 2023809 417487
leaf_count=45293378 222910 481276 879604 710802 1293917 12466231 402718 382160 355868 373197 337860 7342080 369375 767368 387092 1213659 396375 411410 1939626 354815 372790 416093 386205 12057653 2154142 422301 5016714 1274812 2023809 417487
internal_value=0 0.000120101 -0.000112352 0.000290115 0.0298409 -0.000318514 0.00130819 -0.0060131 -0.0117735 -0.0086439 -0.0696957 0.00361874 0.0511744 0.000785154 0.000133452 0.0249069 0.00065358 0.000326385 0.00100738 -0.0307588 -0.0145481 -0.0397369 -0.000309859 -0.00882139 0.00156137 -0.0013482 0.0143822 0.00444109 0.0259754 -0.000218222
internal_weight=0 1.00701e+08 1.0022e+08 9.93399e+07 2.00472e+06 9.73352e+07 7.57084e+07 2.16268e+07 1.35332e+07 1.28394e+07 693728 8.09362e+06 751535 7.53057e+07 7.33247e+07 1.98103e+06 7.29376e+07 7.25412e+07 7.09861e+07 1.55511e+06 1.1437e+06 788883 6.90465e+07 1.24439e+07 5.66026e+07 4.61332e+07 1.04695e+07 8.31534e+06 3.29862e+06 4.57109e+07
internal_count=100923727 100700817 100219541 99339937 2004719 97335218 75708447 21626771 13533156 12839428 693728 8093615 751535 75305729 73324702 1981027 72937610 72541235 70986127 1555108 1143698 788883 69046501 12443858 56602643 46133166 10469477 8315335 3298621 45710865
shrinkage=0.1


Tree=27
num_leaves=31
num_cat=0
split_feature=1 1 1 1 1 1 1 1 1 1 1 1 1 1 1 1 1 1 1 1 1 1 1 1 1 1 1 1 1 1
split_gain=614.481 3856 3197.13 3128.34 2728.74 1898.48 2120.57 1407.03 1373.57 1081.6 3585.18 2990.58 2535.18 1848.35 1370.63 1064.21 6108.8 3348.89 3314.87 1170.59 4453.75 3291.57 3104.31 2954.88 8477.67 5269.7 6411.75 2308.16 4485.78 2483.32
threshold=7693.5000000000009 8385.5000000000018 8369.5000000000018 9153.5000000000018 8611.5000000000018 10209.500000000002 10053.500000000002 10277.500000000002 8403.5000000000018 12287.500000000002 12543.500000000002 11494.000000000002 12673.500000000002 11061.500000000002 11671.500000000002 32433.500000000004 32879.000000000007 32357.500000000004 32489.500000000004 35833.500000000007 35425.500000000007 35899.500000000007 35847.500000000007 35525.500000000007 35699.500000000007 35729.500000000007 35809.500000000007 34505.500000000007 33991.500000000007 35021.500000000007
decision_type=2 2 2 2 2 2 2 2 2 2 2 2 2 2 2 2 2 2 2 2 2 2 2 2 2 2 2 2 2 2
left_child=-1 2 -2 4 8 6 -5 -7 -3 11 -11 13 -12 -9 -13 17 18 -14 -17 20 27 22 -21 -22 -25 -26 -27 28 -18 -29
right_child=1 3 -4 5 -6 7 -8 9 -10 10 12 14 15 -15 -16 16 19 -19 -20 21 23 -23 -24 24 25 26 -28 29 -30 -31
leaf_value=0.0010123879551523841 -0.0023561629852309409 0.0035043400748638559 -0.012554611863258062 -0.0014370473556602681 0.0066643890886763577 0.0056399388221413209 -0.0089602463800033377 -0.0018751262302528745 -0.0043241055307733497 0.0095255685594270445 -0.0079664619572932267 -0.0093976732794594509 0.00055344290943139273 0.0048762616379731732 -0.0029212538797907511 -0.0024400447395796698 0.0028256632518372628 0.010215614977654778 -0.015334532507387351 0.00038771425616894749 -0.0097408484981872101 3.608968376982681e-05 0.012408226863088862 0.010148746615499438 -0.015514667874592492 0.0077888186997587486 -0.010329644949931757 0.0061238477234428785 -0.005568275683876486 -0.00095292238020388577
leaf_weight=5659168 1285283 438335 404017 2519702 1306532 443096 440112 800228 458641 398616 395656 404947 16738718 822094 1692808 402746 1260071 366572 394811 439072 789568 57713921 420690 409775 421686 375024 407588 1162964 1286841 864445
leaf_count=5659168 1285283 438335 404017 2519702 1306532 443096 440112 800228 458641 398616 395656 404947 16738718 822094 1692808 402746 1260071 366572 394811 439072 789568 57713921 420690 409775 421686 375024 407588 1162964 1286841 864445
internal_value=0 -0.000601407 -0.0479525 0.000253415 0.0374861 -0.000644484 -0.0255572 0.000189531 -0.00498494 -9.35962e-05 0.000643227 -0.0167805 0.000193448 0.0154607 -0.0417145 0.000572054 -0.00124111 0.00760506 -0.0882314 -0.000182708 -0.012426 0.00127585 0.0626947 -0.047278 -0.0227552 -0.0650301 -0.0164736 0.00588747 -0.0141542 0.0310646
internal_weight=0 9.52646e+07 1.6893e+06 9.35753e+07 2.20351e+06 9.13718e+07 2.95981e+06 8.84119e+07 896976 8.79688e+07 8.42488e+07 3.72008e+06 8.38501e+07 1.62232e+06 2.09776e+06 8.34545e+07 6.63492e+07 1.71053e+07 797557 6.55516e+07 6.97796e+06 5.85737e+07 859762 2.40364e+06 1.61407e+06 1.2043e+06 782612 4.57432e+06 2.54691e+06 2.02741e+06
internal_count=100923727 95264559 1689300 93575259 2203508 91371751 2959814 88411937 896976 87968841 84248764 3720077 83850148 1622322 2097755 83454492 66349202 17105290 797557 65551645 6977962 58573683 859762 2403641 1614073 1204298 782612 4574321 2546912 2027409
shrinkage=0.1


Tree=28
num_leaves=31
num_cat=0
split_feature=1 1 1 1 1 1 1 1 1 1 1 1 1 1 1 1 1 1 1 1 1 1 1 1 1 1 1 1 1 1
split_gain=541.56 2992.4 554.619 2047.88 1399.67 1802.29 1997.12 1899.06 1280.04 2679.1 1400.01 1515.78 1598.59 1009.43 4584.25 2110.44 1439.25 1736.61 1594.39 1122.92 2210.11 1848.99 1805.15 5103.38 2184.88 4059.67 3746.04 3787.73 4940.28 2887.09
threshold=1013.5000000000001 1025.5000000000002 81085.500000000015 80949.500000000015 87285.500000000015 84962.000000000015 81693.500000000015 82425.500000000015 81487.500000000015 81453.500000000015 81249.500000000015 81159.500000000015 81207.500000000015 80860.000000000015 80694.000000000015 80891.500000000015 80185.500000000015 80247.500000000015 75227.000000000015 58421.500000000007 58077.500000000007 57897.500000000007 57379.500000000007 57201.500000000007 56904.000000000007 57047.500000000007 56195.500000000007 54515.500000000007 54671.000000000007 54985.500000000007
decision_type=2 2 2 2 2 2 2 2 2 2 2 2 2 2 2 2 2 2 2 2 2 2 2 2 2 2 2 2 2 2
left_child=-1 -2 3 13 5 6 8 -8 9 10 11 -4 -13 14 16 -15 18 -18 19 20 21 22 23 24 26 -26 27 -3 -29 -30
right_child=1 2 4 -5 -6 -7 7 -9 -10 -11 -12 12 -14 15 -16 -17 17 -19 -20 -21 -22 -23 -24 -25 25 -27 -28 28 29 -31
leaf_value=-0.0033881723433127273 0.0082505328391295398 0.00010916701128212197 0.0046135854443572193 -0.0077068423546021994 -0.0011296703015472749 0.0054609988246709165 -0.0084820729410593609 -8.9567053108064961e-05 0.008307787898459932 -0.006319081717585712 0.0064978905111436674 -0.0060929509415771415 0.0032874733707615408 0.0097415063143027406 -0.0080874122971974268 -0.0016664697200766882 0.0088856999045542045 0.0011974143950270264 -0.001194512420721619 0.00092954935591124882 -0.0034161381247007766 0.0070560719082016542 -0.0047458697819835784 0.011223522762008482 -0.012456688511510647 0.0018481574842847551 0.005551284727018109 -0.014001196095915004 0.0015884656748236326 -0.0047401397755181107
leaf_weight=469559 439360 55693724 647657 351522 2552026 1036483 365236 1029933 318960 366189 727626 417680 321522 315053 710735 334168 369375 1435799 11242112 12953171 1938532 370462 801120 404760 394078 399528 1202681 386205 1282585 1645886
leaf_count=469559 439360 55693724 647657 351522 2552026 1036483 365236 1029933 318960 366189 727626 417680 321522 315053 710735 334168 369375 1435799 11242112 12953171 1938532 370462 801120 404760 394078 399528 1202681 386205 1282585 1645886
internal_value=0 0.000158375 -0.000203371 -0.000887453 0.00790293 0.0172693 0.00804284 -0.0228661 0.023446 0.0157786 0.0294547 0.0108166 -0.0201286 -0.000595993 -0.000875603 0.0386958 -0.00024748 0.0277059 -0.000816277 0.000798636 -0.000907222 0.00012287 -0.000296585 0.000318671 -0.000423884 -0.0525515 0.000263178 -0.000862894 -0.0337038 -0.0196839
internal_weight=0 1.00454e+08 1.00015e+08 9.22315e+07 7.78331e+06 5.23129e+06 4.1948e+06 1.39517e+06 2.79963e+06 2.48067e+06 2.11448e+06 1.38686e+06 739202 9.188e+07 9.12308e+07 649221 9.052e+07 1.80517e+06 8.87148e+07 7.74727e+07 6.45196e+07 6.2581e+07 6.22106e+07 6.14094e+07 6.10047e+07 793606 6.02111e+07 5.90084e+07 3.31468e+06 2.92847e+06
internal_count=100923727 100454168 100014808 92231496 7783312 5231286 4194803 1395169 2799634 2480674 2114485 1386859 739202 91879974 91230753 649221 90520018 1805174 88714844 77472732 64519561 62581029 62210567 61409447 61004687 793606 60211081 59008400 3314676 2928471
shrinkage=0.1


Tree=29
num_leaves=31
num_cat=0
split_feature=1 1 1 1 1 1 1 1 1 1 1 1 1 1 1 1 1 1 1 1 1 1 1 1 1 1 1 1 1 1
split_gain=509.103 964.558 1406.15 1208.07 1735.9 639.93 3073.13 985.72 1206.06 962.955 2589.96 2366.05 3104.19 2309.9 2068.97 2134.77 2822.65 1554.46 3617.19 1471.09 1594.45 1429.37 1229.7 4137.61 1176.51 880.471 3091.83 2801.42 1117.66 1328.95
threshold=130750.50000000001 120106.00000000001 94511.500000000015 84962.000000000015 85385.500000000015 69445.500000000015 69293.500000000015 70743.500000000015 70755.500000000015 78071.000000000015 77545.500000000015 79029.500000000015 79356.000000000015 77369.500000000015 77265.500000000015 76623.500000000015 76719.500000000015 79568.000000000015 79653.500000000015 78701.500000000015 78935.500000000015 76201.500000000015 79772.000000000015 79881.500000000015 76407.500000000015 66613.500000000015 65809.500000000015 68919.500000000015 64681.500000000007 60007.500000000007
decision_type=2 2 2 2 2 2 2 2 2 2 2 2 2 2 2 2 2 2 2 2 2 2 2 2 2 2 2 2 2 2
left_child=1 2 3 5 -5 6 25 -7 -9 10 13 19 -13 14 15 21 -17 -14 -19 -11 -21 -10 -20 -24 -23 26 28 -27 29 -1
right_child=-2 -3 -4 4 -6 7 -8 8 9 11 -12 12 17 -15 -16 16 -18 18 22 20 -22 24 23 -25 -26 27 -28 -29 -30 -31
