tree
version=v3
num_class=1
num_tree_per_iteration=1
label_index=0
max_feature_idx=5
objective=regression
feature_names=SourceElementKey Year Month Day Hour DayOfWeek
feature_infos=[1001:136322] [2012:2019] [1:12] [1:31] [6:21] [0:5]
tree_sizes=3290 3370 3352 3348 3360 3368 3385 3361 3347 3379 3369 3343 3376 3359 3386 3362 3354 3328 3337 3380 3392 3373 3339 3308 3374 3341 3358 3364 3355 3376 3348 3317 3351 3337 3370 3342 3356 3332 3370 3374 3353 3311 3319 3323 3356 3338 3288 3322 3320 3325 3348 3319 3366 3343 3325 3367 3343 3320 3357 3376 3376 3321 3366 3238 3255 3318 3305 3304 3258 3277 3324 3398 3288 3264 3339 3357 3345 3315 3298 3256 3344 3305 3332 3268 3318 3270 3369 3300 3184 3296 3129 3346 3343 3255 3377 3247 3304 3308 3273 3340

Tree=0
num_leaves=31
num_cat=0
split_feature=4 4 4 4 4 1 5 1 4 0 0 0 0 0 0 0 0 0 5 1 0 0 0 1 0 5 0 0 0 0
split_gain=708146 67319.8 43780.5 34848.2 51091.9 22200.3 20839 10723.5 9927.9 9274.72 23153 15450.8 29087.2 11692.7 11414 10212.4 10033 9234.28 9123.58 8839.43 8630.47 29892 17487.3 7828.65 6882.93 6685.12 5808.5 5699.89 10234.1 23648.4
threshold=9.5000000000000018 17.500000000000004 8.5000000000000018 10.500000000000002 14.500000000000002 2012.5000000000002 4.5000000000000009 2013.5000000000002 18.500000000000004 81207.500000000015 75227.000000000015 58421.500000000007 58077.500000000007 87285.500000000015 80001.500000000015 80247.500000000015 84962.000000000015 79772.000000000015 4.5000000000000009 2013.5000000000002 35833.500000000007 35425.500000000007 53189.500000000007 2013.5000000000002 80185.500000000015 1.5000000000000002 55639.500000000007 32433.500000000004 13099.500000000002 11494.000000000002
decision_type=2 2 2 2 2 2 2 2 2 2 2 2 2 2 2 2 2 2 2 2 2 2 2 2 2 2 2 2 2 2
left_child=2 3 18 19 5 -5 -6 -4 25 10 11 12 20 16 17 24 -11 -12 23 -2 21 27 -22 -1 -16 -3 -24 28 29 -7
right_child=1 8 7 4 6 9 -8 -9 -10 13 14 -13 -14 -15 15 -17 -18 -19 -20 -21 22 -23 26 -25 -26 -27 -28 -29 -30 -31
leaf_value=0.42086807828587997 0.43923027959835875 0.45256459762667067 0.42871117474005016 0.44699485252719096 0.44605889439263047 0.45581840001228818 0.45355654227128339 0.43629668058866844 0.46522357824749505 0.46107047426032666 0.44576991437562719 0.46045368792660518 0.43287973905013633 0.45118691496986563 0.45755722533189724 0.45122610418381237 0.48082802780609085 0.42581178922474533 0.41788047355235697 0.4461176371006178 0.46170703348458431 0.43426014873242963 0.44743591128153604 0.4279907000843583 0.49183365197531992 0.45962922228224712 0.45634996785565374 0.44895620723403701 0.45837489836555162 0.44158500987777877
leaf_weight=2106687 2543641 1973213 2544132 5152356 21551988 4709512 4477128 6967814 2173705 1016018 3341596 4117124 646766 862990 123805 1380246 344053 249109 1636934 6968644 3904732 803586 1602351 5768747 111208 4170498 1344233 1829030 4949898 1551983
leaf_count=2106687 2543641 1973213 2544132 5152356 21551988 4709512 4477128 6967814 2173705 1016018 3341596 4117124 646766 862990 123805 1380246 344053 249109 1636934 6968644 3904732 803586 1602351 5768747 111208 4170498 1344233 1829030 4949898 1551983
internal_value=0 0.0403719 -0.1738 0.0307327 0.039118 0.0624771 0.00497962 -0.125828 0.125647 0.0720389 0.0675174 0.0799428 0.0691227 0.134409 0.00675246 0.0765657 0.192179 -0.0246526 -0.221771 -0.0257465 0.075649 0.061283 0.104678 -0.207652 0.269262 0.105097 0.0465195 0.0728179 0.0812623 0.0543993
internal_weight=0 8.18994e+07 1.90243e+07 7.3582e+07 6.40697e+07 3.80406e+07 2.60291e+07 9.51195e+06 8.31742e+06 3.28882e+07 3.06652e+07 2.54592e+07 2.13421e+07 2.22306e+06 5.20596e+06 1.61526e+06 1.36007e+06 3.5907e+06 9.51237e+06 9.51228e+06 2.06953e+07 1.3844e+07 6.85132e+06 7.87543e+06 235013 6.14371e+06 2.94658e+06 1.30404e+07 1.12114e+07 6.2615e+06
internal_count=100923727 81899413 19024314 73581997 64069712 38040596 26029116 9511946 8317416 32888240 30665179 25459215 21342091 2223061 5205964 1615259 1360071 3590705 9512368 9512285 20695325 13844009 6851316 7875434 235013 6143711 2946584 13040423 11211393 6261495
shrinkage=1


Tree=1
num_leaves=31
num_cat=0
split_feature=4 4 4 1 4 4 5 1 5 1 0 0 0 0 0 0 0 0 0 0 0 0 0 0 0 0 4 0 0 0
split_gain=573599 54529.1 35462.2 30022.1 22086 39283.2 15305.6 8814.43 8809.62 7834.44 7648.88 21356.5 12515.1 23560.6 8315.16 6990.68 25602.3 14164.7 7538.81 11491.5 11747.4 8289.65 19155.2 6532.5 12721 7479.77 6459.75 6364.23 6150.24 5847.94
threshold=9.5000000000000018 17.500000000000004 8.5000000000000018 2012.5000000000002 10.500000000000002 14.500000000000002 4.5000000000000009 2014.5000000000002 2.5000000000000004 2014.5000000000002 81085.500000000015 75227.000000000015 58421.500000000007 58077.500000000007 94511.500000000015 35833.500000000007 35699.500000000007 53189.500000000007 32433.500000000004 35525.500000000007 35425.500000000007 13099.500000000002 11494.000000000002 80001.500000000015 80694.000000000015 79772.000000000015 10.500000000000002 12125.500000000002 34505.500000000007 94511.500000000015
decision_type=2 2 2 2 2 2 2 2 2 2 2 2 2 2 2 2 2 2 2 2 2 2 2 2 2 2 2 2 2 2
left_child=2 3 9 26 -5 10 29 -4 -3 -1 11 12 13 15 -12 16 18 -17 21 20 28 22 -6 25 -25 -13 -2 -24 -20 -7
right_child=1 8 7 4 5 6 -8 -9 -10 -11 14 23 -14 -15 -16 17 -18 -19 19 -21 -22 -23 27 24 -26 -27 -28 -29 -30 -31
leaf_value=-0.023499291540831194 -0.0089670854912548819 0.0079939811321973232 -0.015079284313080522 -0.0012751775625646597 0.0080710532967641288 0.00010350867817271414 0.0067769378453553832 -0.0088565230964933774 0.014504058872716828 -0.017632758386077165 0.014645803904515498 -0.00097258297869214311 0.01224281299363964 -0.012573741184375896 0.0008119948669551365 0.013370823674967895 -0.019431316528425547 0.0041867510709310291 -0.0025181403638273037 0.028273024512072781 -0.020819446729098037 0.010371902322767371 -0.013138717335755135 0.015115705439933442 -0.0052366120888496992 -0.018934895553759306 -0.0013740349467114129 0.0001429647248362722 0.0095143871725752952 -0.014194459101050064
leaf_weight=3772566 1288605 4083051 3772451 8223680 4709512 18418091 3887953 5739495 4234365 5739802 2039130 3341596 4117124 646766 552149 3904732 399515 2946584 1158189 144012 260059 4949898 570464 699665 547376 249109 8584857 981519 670841 290571
leaf_count=3772566 1288605 4083051 3772451 8223680 4709512 18418091 3887953 5739495 4234365 5739802 2039130 3341596 4117124 646766 552149 3904732 399515 2946584 1158189 144012 260059 4949898 570464 699665 547376 249109 8584857 981519 670841 290571
internal_value=0 0.0363347 -0.15642 0.0276594 0.0356113 0.0427795 0.0106787 -0.113245 0.113082 -0.199594 0.064835 0.060375 0.0719485 0.0622104 0.116981 0.0680841 0.0551547 0.0942098 0.0625678 0.00950933 -0.00932524 0.0731361 0.0489594 -0.000531855 0.0618226 -0.0221874 -0.0236502 -0.04739 0.0189508 -0.00118558
internal_weight=0 8.18994e+07 1.90243e+07 7.3582e+07 6.37085e+07 5.54849e+07 2.25966e+07 9.51195e+06 8.31742e+06 9.51237e+06 3.28882e+07 3.0297e+07 2.54592e+07 2.13421e+07 2.59128e+06 2.06953e+07 1.3844e+07 6.85132e+06 1.34445e+07 2.2331e+06 2.08909e+06 1.12114e+07 6.2615e+06 4.83775e+06 1.24704e+06 3.5907e+06 9.87346e+06 1.55198e+06 1.82903e+06 1.87087e+07
internal_count=100923727 81899413 19024314 73581997 63708535 55484855 22596615 9511946 8317416 9512368 32888240 30296961 25459215 21342091 2591279 20695325 13844009 6851316 13444494 2233101 2089089 11211393 6261495 4837746 1247041 3590705 9873462 1551983 1829030 18708662
shrinkage=0.1


Tree=2
num_leaves=31
num_cat=0
split_feature=4 4 4 1 4 4 5 1 4 1 5 4 0 1 4 5 0 0 0 0 0 0 0 0 5 2 0 0 0 0
split_gain=464615 44168.6 28724.4 24317.9 17889.7 33633.9 16368.2 8851.2 8040.89 7430.67 7391.23 6740.76 5841.84 5421.39 5113.16 4615.46 4153.13 8550.3 6639.38 10888.9 4073 4150.41 4061.69 5105.03 3790.37 3729.42 3674.75 12050 7216.97 3926.79
threshold=9.5000000000000018 17.500000000000004 8.5000000000000018 2012.5000000000002 10.500000000000002 13.500000000000002 4.5000000000000009 2017.5000000000002 18.500000000000004 2013.5000000000002 4.5000000000000009 11.500000000000002 120106.00000000001 2013.5000000000002 10.500000000000002 1.5000000000000002 81207.500000000015 75227.000000000015 58421.500000000007 58077.500000000007 80001.500000000015 80247.500000000015 87285.500000000015 84671.500000000015 1.5000000000000002 5.5000000000000009 35833.500000000007 35699.500000000007 54005.500000000007 31893.500000000004
decision_type=2 2 2 2 2 2 2 2 2 2 2 2 2 2 2 2 2 2 2 2 2 2 2 2 2 2 2 2 2 2
left_child=2 3 10 12 -5 11 7 24 15 -4 13 -6 14 -1 -2 -3 17 18 19 26 -19 -22 23 -18 -7 -16 27 29 -28 -13
right_child=1 8 9 4 5 6 -8 -9 -10 -11 -12 16 -14 -15 25 -17 22 20 -20 -21 21 -23 -24 -25 -26 -27 28 -29 -30 -31
leaf_value=-0.021034306281377212 -0.0081765388820752762 0.0043432331411819942 -0.014817520073394078 -0.0011476596209374754 0.0042638695667609142 -7.9697829323980982e-05 0.0067038455644249989 -0.002572344287021292 0.015404658979771602 -0.0085031433542938455 -0.024077606435757383 0.0086229888214514796 0.034380961629884875 -0.015107076496858397 -0.0038795105355509704 0.010213281943056859 0.012560293780757743 -0.00053126817817450358 0.01361023113211165 -0.010662068674306635 0.025382424558627284 0.0050597047430063352 0.006083316266104445 0.031151604614308999 0.0028197157100573241 0.00035790540579619585 0.014175370676969926 -0.017555838271005007 0.0046742553889380541 0.0027192746936879676
leaf_weight=2106687 1283223 1973213 2544132 8223680 8219809 7380761 5300976 6549600 2173705 6967814 1636934 5291793 43633 5768747 3559370 4170498 463207 1795769 2058851 323376 117616 690180 431367 216842 11587340 4987236 2155302 199775 1270895 1431396
leaf_count=2106687 1283223 1973213 2544132 8223680 8219809 7380762 5300975 6549600 2173705 6967814 1636934 5291793 43633 5768747 3559370 4170498 463207 1795769 2058851 323376 117616 690180 431367 216842 11587340 4987236 2155302 199775 1270895 1431396
internal_value=0 0.0327012 -0.140778 0.0248935 0.0320502 0.0385015 0.016475 0.00597113 0.101774 -0.10192 -0.179635 0.0660221 -0.0212852 -0.166926 -0.0229058 0.0832796 0.077709 0.0734309 0.084109 0.074079 0.021215 0.0801872 0.136737 0.184884 0.0169151 -0.0140683 0.0797252 0.0664689 0.106511 0.0736606
internal_weight=0 8.18994e+07 1.90243e+07 7.3582e+07 6.37085e+07 5.54849e+07 3.08187e+07 2.55177e+07 8.31742e+06 9.51195e+06 9.51237e+06 2.46662e+07 9.87346e+06 7.87543e+06 9.82983e+06 6.14371e+06 1.64464e+07 1.5335e+07 1.27314e+07 1.06725e+07 2.60356e+06 807796 1.11142e+06 680049 1.89681e+07 8.54661e+06 1.03492e+07 6.92296e+06 3.4262e+06 6.72319e+06
internal_count=100923727 81899413 19024314 73581997 63708535 55484855 30818677 25517702 8317416 9511946 9512368 24666178 9873462 7875434 9829829 6143711 16446369 15334953 12731388 10672537 2603565 807796 1111416 680049 18968102 8546606 10349161 6922964 3426197 6723189
shrinkage=0.1


Tree=3
num_leaves=31
num_cat=0
split_feature=4 4 4 1 4 4 5 5 4 1 5 0 0 0 0 0 0 0 0 0 0 0 0 0 0 0 0 0 0 0
split_gain=376338 35776.5 23266.8 19697.5 15262.6 26371.7 10075.7 6637.95 6428.1 6095.21 5986.9 5603.64 13805.8 9011.45 17103.9 7456.94 7374.23 6515.74 6842.52 6059.11 5575.54 5246.48 5035.16 18566.6 10366.3 5849.55 15176.9 4843.85 5626.68 4731.89
threshold=9.5000000000000018 17.500000000000004 8.5000000000000018 2012.5000000000002 14.500000000000002 10.500000000000002 4.5000000000000009 1.0000000180025095e-35 18.500000000000004 2014.5000000000002 4.5000000000000009 81207.500000000015 75227.000000000015 58421.500000000007 58077.500000000007 87285.500000000015 84962.000000000015 80001.500000000015 80247.500000000015 79772.000000000015 80185.500000000015 81453.500000000015 35833.500000000007 35699.500000000007 53189.500000000007 35525.500000000007 35425.500000000007 55639.500000000007 56683.500000000007 120106.00000000001
decision_type=2 2 2 2 2 2 2 2 2 2 2 2 2 2 2 2 2 2 2 2 2 2 2 2 2 2 2 2 2 2
left_child=2 3 10 29 5 -5 -6 -3 -9 -4 -1 12 13 14 22 16 21 19 20 -14 -19 -13 23 25 -24 26 -7 -26 -29 -2
right_child=1 7 9 4 6 11 -8 8 -10 -11 -12 15 17 -15 -16 -17 -18 18 -20 -21 -22 -23 24 -25 27 -27 -28 28 -30 -31
leaf_value=-0.015023354873402846 -0.0020615190279022659 0.0024792878017184687 -0.012295201550654304 -0.0010328935052998907 -0.0001658509514202162 0.0053746258400968003 0.0054288595703248163 0.0085588201717865259 0.01542841426485466 -0.0071205568363215885 -0.021669845126292289 0.020546096293589177 -0.00099640881780966944 0.010190001128919272 -0.010933497983268287 0.0028756846369752502 0.02741359306730335 0.0067046263945629379 0.002843858460276199 -0.017163158364894925 0.037554408941769805 0.005347722653521729 0.011176907242575085 -0.016760859937615884 -0.000393457711812162 0.025160439731061301 -0.01902278080077105 0.017151532118191946 0.0032960732991892173 0.030942864795773281
leaf_weight=7875434 9829829 1261768 3772451 8223680 18708662 13040423 3887953 5211508 1844140 5739495 1636934 342765 3341596 4117124 646766 862990 344053 123805 1380246 249109 111208 673253 3904732 399515 1602351 144012 260059 431803 912430 43633
leaf_count=7875434 9829829 1261768 3772451 8223680 18708662 13040423 3887953 5211508 1844140 5739495 1636934 342765 3341596 4117124 646766 862990 344053 123805 1380246 249109 111208 673253 3904732 399515 1602351 144012 260059 431803 912430 43633
internal_value=0 0.0294311 -0.1267 0.0224041 0.0288452 0.0403202 0.0079677 0.0915967 0.103543 -0.0917283 -0.161671 0.052985 0.0494705 0.0590653 0.050802 0.101465 0.1476 0.00254813 0.0552954 -0.0211799 0.213027 0.104751 0.0558065 0.0448335 0.077979 0.0511464 0.0489759 0.0332014 0.0774681 -0.0191567
internal_weight=0 8.18994e+07 1.90243e+07 7.3582e+07 6.37085e+07 4.11119e+07 2.25966e+07 8.31742e+06 7.05565e+06 9.51195e+06 9.51237e+06 3.28882e+07 3.06652e+07 2.54592e+07 2.13421e+07 2.22306e+06 1.36007e+06 5.20596e+06 1.61526e+06 3.5907e+06 235013 1.01602e+06 2.06953e+07 1.3844e+07 6.85132e+06 1.34445e+07 1.33005e+07 2.94658e+06 1.34423e+06 9.87346e+06
internal_count=100923727 81899413 19024314 73581997 63708535 41111920 22596615 8317416 7055648 9511946 9512368 32888240 30665179 25459215 21342091 2223061 1360071 5205964 1615259 3590705 235013 1016018 20695325 13844009 6851316 13444494 13300482 2946584 1344233 9873462
shrinkage=0.1


Tree=4
num_leaves=31
num_cat=0
split_feature=4 4 4 1 4 4 5 5 1 1 1 0 0 0 0 4 0 0 0 0 0 0 0 0 0 0 0 0 4 0
split_gain=304834 28979 18846.1 15955 12362.7 21361.1 8707.74 5908.85 5577.22 5533 5149.83 4720.74 9618.89 4840.11 12765.1 4248.33 3831.04 8150.51 5792.6 7315.6 4980.09 4693.1 8830.47 3823.16 4884.94 3764.52 6040.1 3735.51 3615.92 3430.01
threshold=9.5000000000000018 17.500000000000004 8.5000000000000018 2012.5000000000002 14.500000000000002 10.500000000000002 3.5000000000000004 2.5000000000000004 2014.5000000000002 2017.5000000000002 2013.5000000000002 81085.500000000015 75227.000000000015 58421.500000000007 58077.500000000007 10.500000000000002 94511.500000000015 84671.500000000015 75227.000000000015 78071.000000000015 87285.500000000015 58421.500000000007 58077.500000000007 76429.500000000015 76719.500000000015 78071.000000000015 78935.500000000015 120106.00000000001 18.500000000000004 77545.500000000015
decision_type=2 2 2 2 2 2 2 2 2 2 2 2 2 2 2 2 2 2 2 2 2 2 2 2 2 2 2 2 2 2
left_child=2 3 8 15 5 -5 16 -3 -1 11 -4 12 13 14 -7 -2 17 18 21 -20 -19 22 -6 -14 -25 29 -27 -17 -9 -26
right_child=1 7 10 4 6 9 -8 28 -10 -11 -12 -13 23 -15 -16 27 -18 20 19 -21 -22 -23 -24 24 25 26 -28 -29 -30 -31
leaf_value=-0.017537123550524381 -0.0070781300997328715 0.0055293982094649632 -0.012106247816134074 -0.00092960429869822869 -0.00024426805163106586 0.0058270566838826915 0.0034445389946698201 0.0091219925498492501 -0.012587339580168201 0.0025387288016357062 -0.006849552229955683 0.010322615275867416 -0.0063255572770791121 0.0096577307698900161 -0.010445169062720826 -0.0010599987887334815 -0.013467803873080811 0.024686750444379204 -0.011506993048509946 -0.00090160745000741199 0.000234485603824089 0.0046585708150640431 -0.018025547451579218 0.018697371655127484 0.00045711883623607746 0.020323093669700507 0.0015833570499038337 0.030260107065542382 0.015771502608145346 -0.01241574199345763
leaf_weight=3772566 1288605 4083051 2544132 8223680 9372437 15509458 7711069 3126966 5739802 8314160 6967814 1891598 686741 3066995 497558 8546606 231206 203938 1058334 1687551 140793 1903417 287870 164673 544450 191520 1687140 38251 1107399 333947
leaf_count=3772566 1288605 4083051 2544132 8223680 9372437 15509458 7711069 3126966 5739802 8314160 6967814 1891598 686741 3066995 497558 8546606 231206 203938 1058334 1687551 140793 1903417 287870 164673 544450 191520 1687140 38251 1107399 333947
internal_value=0 0.026488 -0.11403 0.0201637 0.0259607 0.0362882 0.00717093 0.082437 -0.145504 0.0476865 -0.0825555 0.055231 0.0512285 0.0601854 0.0532125 -0.017241 -0.00695789 -0.00494281 -0.00860327 -0.0498919 0.147001 0.001201 -0.00774137 0.00388318 0.0196639 0.00967083 0.0349378 -0.00920448 0.10861 -0.0443686
internal_weight=0 8.18994e+07 1.90243e+07 7.3582e+07 6.37085e+07 4.11119e+07 2.25966e+07 8.31742e+06 9.51237e+06 3.28882e+07 9.51195e+06 2.45741e+07 2.26825e+07 1.9074e+07 1.6007e+07 9.87346e+06 1.48855e+07 1.46543e+07 1.43096e+07 2.74588e+06 344731 1.15637e+07 9.66031e+06 3.60847e+06 2.92173e+06 2.75706e+06 1.87866e+06 8.58486e+06 4.23436e+06 878397
internal_count=100923727 81899413 19024314 73581997 63708535 41111920 22596615 8317416 9512368 32888240 9511946 24574080 22682482 19074011 16007016 9873462 14885546 14654340 14309609 2745885 344731 11563724 9660307 3608471 2921730 2757057 1878660 8584857 4234365 878397
shrinkage=0.1


Tree=5
num_leaves=31
num_cat=0
split_feature=4 4 4 1 1 4 4 4 0 4 5 5 5 4 5 1 5 4 1 0 0 0 0 0 0 0 0 0 0 0
split_gain=246915 23473 15265.3 13196.2 11425.8 7053.61 6864.97 12982.5 5840.68 5253.5 5105.73 4902.23 4850.16 4555.65 4409.31 4214.09 3882.54 3803.07 3745.85 3292.72 5718.62 4772.79 3953.05 6038.95 3220.81 6842.89 2995.15 3850.98 7172.34 6383.58
threshold=9.5000000000000018 17.500000000000004 8.5000000000000018 2013.5000000000002 2017.5000000000002 10.500000000000002 10.500000000000002 13.500000000000002 120106.00000000001 13.500000000000002 2.5000000000000004 1.0000000180025095e-35 4.5000000000000009 18.500000000000004 4.5000000000000009 2014.5000000000002 2.5000000000000004 11.500000000000002 2013.5000000000002 81207.500000000015 75227.000000000015 94511.500000000015 80001.500000000015 80694.000000000015 58421.500000000007 58077.500000000007 4433.5000000000009 35833.500000000007 32433.500000000004 14677.500000000002
decision_type=2 2 2 2 2 2 2 2 2 2 2 2 2 2 2 2 2 2 2 2 2 2 2 2 2 2 2 2 2 2
left_child=2 3 12 5 6 -2 -5 17 16 -6 -9 -3 18 -13 -11 -4 -7 -8 -1 20 24 -21 -22 -24 25 26 -12 28 29 -28
right_child=1 11 15 4 9 8 7 10 -10 14 19 13 -14 -15 -16 -17 -18 -19 -20 21 22 -23 23 -25 -26 -27 27 -29 -30 -31
leaf_value=-0.015674827217039507 -0.0053263619728878284 0.0016784186552476793 -0.010026215839128124 7.3208328000960507e-05 0.0021527523241508871 -0.0013536585422010358 0.0040278462989767156 0.00061822065184781254 0.027469270156100286 -0.0025222784809140995 0.012557318056056791 0.0069344384790988832 -0.018048214685847754 0.012717598603101704 0.0037435810258711691 -0.0057235450243497505 0.0016809351329240007 0.0074440056059193495 -0.010747952948966572 0.015731580285789502 -0.0058387222818053787 -0.0054962777675310716 0.018270268904849837 -0.0047838291348257017 0.0093885885731965768 -0.015192114491329685 0.00029699030821055469 0.0072132074567550679 -0.0071772661206633351 0.01022051234969037
leaf_weight=2106687 2543641 1261768 3772451 4889707 8314220 8266910 4887825 9021372 78877 6549600 406331 5211508 1636934 1844140 1355508 5739495 8604406 9777951 5768747 478434 989061 136030 203113 257886 1178915 186312 1743093 1954861 725906 1032038
leaf_count=2106687 2543641 1261768 3772451 4889707 8314220 8266910 4887825 9021372 78877 6549600 406331 5211508 1636934 1844140 1355508 5739495 8604406 9777951 5768747 478434 989061 136030 203113 257886 1178915 186312 1743093 1954861 725906 1032038
internal_value=0 0.0238392 -0.102627 0.0181474 0.026187 -0.00415967 0.0356989 0.0408834 0.00320915 0.00397858 0.023128 0.0741933 -0.130954 0.0844599 -0.0144786 -0.0742999 0.0019399 0.0630546 -0.120659 0.0395804 0.0345711 0.110322 -0.0227412 0.0537365 0.0460698 0.03675 0.0427463 0.0365777 0.0167254 0.0398743
internal_weight=0 8.18994e+07 1.90243e+07 7.3582e+07 5.40882e+07 1.94938e+07 3.78688e+07 3.29791e+07 1.69502e+07 1.62193e+07 1.83134e+07 8.31742e+06 9.51237e+06 7.05565e+06 7.90511e+06 9.51195e+06 1.68713e+07 1.46658e+07 7.87543e+06 9.29198e+06 8.67752e+06 614464 1.45006e+06 460999 7.22746e+06 6.04854e+06 5.86223e+06 5.4559e+06 3.50104e+06 2.77513e+06
internal_count=100923727 81899413 19024314 73581997 54088163 19493834 37868835 32979128 16950193 16219328 18313352 8317416 9512368 7055648 7905108 9511946 16871316 14665776 7875434 9291980 8677516 614464 1450060 460999 7227456 6048541 5862229 5455898 3501037 2775131
shrinkage=0.1


Tree=6
num_leaves=31
num_cat=0
split_feature=4 4 4 1 5 0 0 0 0 0 0 0 0 0 0 0 0 0 0 0 0 0 0 0 0 0 0 0 0 0
split_gain=200001 19013.1 12364.9 11267.2 9050.73 8097.2 10343.9 17284.2 20518.9 22935.1 15855.2 15769.8 13756.1 39075.1 13683 16204.5 10517.9 17344.9 20286.9 18722.2 16638.4 15677.8 11599.1 14117.7 12849.6 10128.1 10068.7 10048.9 8957.25 8931.07
threshold=9.5000000000000018 17.500000000000004 8.5000000000000018 2012.5000000000002 1.0000000180025095e-35 4433.5000000000009 13099.500000000002 31491.500000000004 35833.500000000007 46409.500000000007 35699.500000000007 11494.000000000002 8611.5000000000018 9127.5000000000018 35525.500000000007 35425.500000000007 81207.500000000015 75227.000000000015 58421.500000000007 58077.500000000007 87285.500000000015 84962.000000000015 80001.500000000015 80694.000000000015 80860.000000000015 12125.500000000002 79772.000000000015 80891.500000000015 11131.500000000002 8244.0000000000018
decision_type=2 2 2 2 2 2 2 2 2 2 2 2 2 2 2 2 2 2 2 2 2 2 2 2 2 2 2 2 2 2
left_child=2 3 -1 -2 -5 -6 11 -8 10 -10 14 12 29 -14 15 -9 17 18 19 -11 21 -18 26 -24 -25 -13 -19 -26 -15 -7
right_child=1 -3 -4 4 5 6 7 8 9 16 -12 25 13 28 -16 -17 20 22 -20 -21 -22 -23 23 24 27 -27 -28 -29 -30 -31
leaf_value=-0.011785826787193482 -0.0015100341942965718 0.0066774007197823301 -0.0066869914060167131 -0.00069646995865891887 0.0083798555292605315 0.0017375864469177549 0.0076517073261714282 -0.00082328496888852776 0.0097533359732246312 0.0017852021057159482 -0.018082525729347359 -0.015777686757439673 0.03231186061419291 -1.066174658253463e-05 0.022381942817131222 -0.021167839359487076 0.0074787688249009629 -0.0037214289267810813 0.0073164280579359614 -0.012525581871654055 -0.0015580806564270578 0.026678313860663772 0.011424820329107268 -0.019084344418788805 0.024777527577301336 -0.0026418886887355961 -0.020297438385630473 -0.0018400016036351702 0.020632881885981603 -0.011484529003048902
leaf_weight=9512368 9873462 8317416 9511946 9674300 2338887 1104741 6676129 4441773 4483007 6795137 649451 930232 483609 2675818 229260 429350 1677296 5468418 6816554 1056284 1394550 569786 1158115 382877 166907 1590656 392768 944222 228105 950303
leaf_count=9512368 9873462 8317416 9511946 9674299 2338888 1104741 6676129 4441773 4483007 6795137 649451 930232 483609 2675818 229260 429350 1677296 5468418 6816554 1056284 1394550 569786 1158115 382877 166907 1590656 392768 944222 228105 950303
internal_value=0 0.0214553 -0.0923647 0.0163326 0.0212041 0.0262474 0.0236436 0.0296798 0.0212414 0.0313262 -0.0336665 -0.00950491 0.0207807 0.0599382 -0.0149282 -0.0261649 0.0202607 0.0124121 0.0332513 -0.00140087 0.0702219 0.123471 -0.0234927 0.0313804 -0.0328565 -0.0748912 -0.0483222 0.0215832 0.016109 -0.0437665
internal_weight=0 8.18994e+07 1.90243e+07 7.3582e+07 6.37085e+07 5.40342e+07 5.16953e+07 4.37319e+07 3.70558e+07 3.13059e+07 5.74983e+06 7.96346e+06 5.44258e+06 3.38753e+06 5.10038e+06 4.87112e+06 2.68229e+07 2.31813e+07 1.4668e+07 7.85142e+06 3.64163e+06 2.24708e+06 8.51331e+06 2.65212e+06 1.49401e+06 2.52089e+06 5.86119e+06 1.11113e+06 2.90392e+06 2.05504e+06
internal_count=100923727 81899413 19024314 73581997 63708535 54034236 51695348 43731884 37055755 31305921 5749834 7963464 5442576 3387532 5100383 4871123 26822914 23181282 14667975 7851421 3641632 2247082 8513307 2652121 1494006 2520888 5861186 1111129 2903923 2055044
shrinkage=0.1


Tree=7
num_leaves=31
num_cat=0
split_feature=4 4 4 4 5 4 4 5 1 0 0 0 0 0 0 0 0 0 0 1 0 0 0 1 0 0 0 1 0 0
split_gain=162001 15400.6 10669 19233.2 10627.2 10015.6 6826.52 4377.71 4307.45 4031.93 13045.8 7768.98 7095.72 5892.37 5968.04 5430.23 10343.9 4706.24 7831.62 3977.57 3861.36 4237.44 3790.48 3569.79 3544.68 7804.07 4095.16 3470.88 3060.65 3188.29
threshold=9.5000000000000018 17.500000000000004 10.500000000000002 13.500000000000002 4.5000000000000009 8.5000000000000018 11.500000000000002 2.5000000000000004 2013.5000000000002 75227.000000000015 80001.500000000015 80247.500000000015 80185.500000000015 79772.000000000015 78071.000000000015 58421.500000000007 58077.500000000007 94511.500000000015 81085.500000000015 2014.5000000000002 60007.500000000007 59963.500000000007 63125.500000000007 2013.5000000000002 80001.500000000015 74033.500000000015 80247.500000000015 2013.5000000000002 58685.500000000007 5123.5000000000009
decision_type=2 2 2 2 2 2 2 2 2 2 2 2 2 2 2 2 2 2 2 2 2 2 2 2 2 2 2 2 2 2
left_child=5 2 27 6 9 19 8 -3 -4 15 13 12 -12 14 -11 16 -5 18 -13 -1 21 -17 -22 -7 25 28 -26 -2 29 -6
right_child=1 7 3 4 24 23 -8 -9 -10 10 11 17 -14 -15 -16 20 -18 -19 -20 -21 22 -23 -24 -25 26 -27 -28 -29 -30 -31
leaf_value=-0.01312953076207604 -0.004816850548650011 0.003673348221206778 -0.0018442353627035975 -5.5017297511496726e-05 0.013879741543640895 -0.009224302528427793 0.0049612211162051341 0.0082624859478805223 0.0029653343978907763 -0.0089596772924663542 0.0023329774117552804 -0.005476197138885623 0.038518733354414435 -0.023707880645898662 0.00086166851686138963 0.0060737036471104162 -0.01376921704121005 -0.0089125393517478658 0.005868057861084866 -0.0089494358724459717 -0.0090429052810379572 0.027237957070551377 0.0026932857615750714 -0.0048476939251865369 0.040004349755312911 -0.0066812257277387285 0.0088504259339530125 -0.00050106384638178773 0.011375012278906683 0.0030057771460195166
leaf_weight=3772566 2543641 4083051 2541527 18524841 290098 2544132 19022833 4234365 6965832 2102042 110783 917546 106080 202241 876787 1507841 566803 457556 1807099 5739802 324098 100934 1823801 6967814 45069 683516 661304 6968644 607817 3823264
leaf_count=3772566 2543641 4083051 2541527 18524842 290097 2544132 19022833 4234365 6965832 2102042 110783 917546 106080 202241 876787 1507841 566803 457556 1807099 5739802 324098 100934 1823801 6967814 45069 683516 661304 6968644 607817 3823264
internal_value=0 0.0193097 0.0146994 0.0193391 0.00381535 -0.0831282 0.0386767 0.0600966 0.0167963 -0.00406469 -0.0258761 0.017199 0.200335 -0.0719029 -0.0606887 0.0022168 -0.00462172 0.00471847 0.0204779 -0.106072 0.0369706 0.0740154 0.00922404 -0.0601829 0.0417625 0.0330556 0.108382 -0.0165513 0.0475142 0.0377267
internal_weight=0 8.18994e+07 7.3582e+07 6.40697e+07 3.55395e+07 1.90243e+07 2.85302e+07 8.31742e+06 9.50736e+06 2.94285e+07 6.58013e+06 3.39906e+06 216863 3.18107e+06 2.97883e+06 2.28483e+07 1.90916e+07 3.1822e+06 2.72464e+06 9.51237e+06 3.75667e+06 1.60878e+06 2.1479e+06 9.51195e+06 6.11107e+06 5.4047e+06 706373 9.51228e+06 4.72118e+06 4.11336e+06
internal_count=100923727 81899413 73581997 64069712 35539520 19024314 28530192 8317416 9507359 29428453 6580134 3399064 216863 3181070 2978829 22848319 19091645 3182201 2724645 9512368 3756674 1608775 2147899 9511946 6111067 5404694 706373 9512285 4721178 4113361
shrinkage=0.1


Tree=8
num_leaves=31
num_cat=0
split_feature=4 4 4 4 4 5 1 1 0 4 5 5 0 0 0 0 0 0 0 0 0 0 0 0 0 0 0 0 0 0
split_gain=131221 12474.5 8759.84 15580.6 8112.62 6678.92 4752.52 5231.66 4022.86 3944.19 3929.21 3563.2 2960.76 3242.77 14961.7 4720.51 4768.51 7886.1 7519.75 7303.34 4820.28 3778.03 3978.94 3233.14 4740.65 4944.81 4618.87 4929.3 4337.28 4188.6
threshold=9.5000000000000018 17.500000000000004 14.500000000000002 10.500000000000002 8.5000000000000018 2.5000000000000004 2013.5000000000002 2017.5000000000002 120106.00000000001 18.500000000000004 4.5000000000000009 4.5000000000000009 4433.5000000000009 8611.5000000000018 9127.5000000000018 12859.000000000002 31893.500000000004 35833.500000000007 42339.500000000007 37137.500000000007 37821.500000000007 11494.000000000002 11061.500000000002 81207.500000000015 87285.500000000015 84962.000000000015 75227.000000000015 58421.500000000007 58077.500000000007 78071.000000000015
decision_type=2 2 2 2 2 2 2 2 2 2 2 2 2 2 2 2 2 2 2 2 2 2 2 2 2 2 2 2 2 2
left_child=4 2 3 -2 10 -4 8 -8 -5 -3 -1 -6 -7 -14 -15 21 -17 -18 19 -19 -21 22 -16 26 25 -25 27 28 -20 -28
right_child=1 9 5 6 11 12 7 -9 -10 -11 -12 -13 13 14 15 16 17 18 23 20 -22 -23 -24 24 -26 -27 29 -29 -30 -31
leaf_value=-0.0086199316271039703 -0.0014896174768689399 0.0041133975293192225 -0.0017824414315717445 0.0010525219804296269 -0.0045340786255162338 0.0084173425189299246 0.0046040565058670059 0.0016094026498789428 0.030969899339087101 0.0090696927017843484 -0.014004417832706629 -0.0096618045007888995 -0.0066641755177071276 0.037218118044901036 -0.0036900642696539119 0.0062451131754389733 -0.0065159005153201935 0.0044070077675660247 0.00054497782351740139 0.040445723056901618 0.013404027599589405 -0.012416135999903389 0.017199267767211038 0.0067568500887424778 -0.0029190481229605281 0.02868956904045375 -0.0086812895850088469 0.006110429664093496 -0.013369589868696921 0.0003412029319677601
leaf_weight=7875434 9512285 6143711 12782910 10127251 7875121 578578 19554039 8314160 45146 2173705 1636934 1636825 515729 115716 609578 1925946 1277173 564526 1939417 110443 163508 430619 107223 410703 330473 137110 945202 1701714 253270 1129278
leaf_count=7875434 9512285 6143711 12782910 10127251 7875121 578578 19554039 8314160 45146 2173705 1636934 1636825 515729 115716 609578 1925946 1277173 564526 1939417 110443 163508 430619 107223 410703 330473 137110 945202 1701714 253270 1129278
internal_value=0 0.0173788 0.0132294 0.0213018 -0.0748154 -0.00151816 0.0303534 0.0371064 0.011853 0.0540869 -0.0954652 -0.0541646 0.0142178 0.0110226 0.0143187 0.0108782 0.0173069 0.00760624 0.0196981 0.109084 0.243059 -0.0501285 -0.00565324 0.00875221 0.0654003 0.122463 0.000416774 0.0207196 -0.0106225 -0.0376974
internal_weight=0 8.18994e+07 7.3582e+07 4.75529e+07 1.90243e+07 2.60291e+07 3.80406e+07 2.78682e+07 1.01724e+07 8.31742e+06 9.51237e+06 9.51195e+06 1.32462e+07 1.26676e+07 1.21519e+07 1.20362e+07 1.08888e+07 8.96282e+06 7.68564e+06 838477 273951 1.14742e+06 716801 6.84717e+06 878286 547813 5.96888e+06 3.8944e+06 2.19269e+06 2.07448e+06
internal_count=100923727 81899413 73581997 47552881 19024314 26029116 38040596 27868199 10172397 8317416 9512368 9511946 13246206 12667628 12151899 12036183 10888763 8962817 7685644 838477 273951 1147420 716801 6847167 878286 547813 5968881 3894401 2192687 2074480
shrinkage=0.1


Tree=9
num_leaves=31
num_cat=0
split_feature=4 5 4 4 4 4 5 4 1 4 1 1 1 0 0 0 0 1 5 0 0 0 0 0 0 0 0 0 0 0
split_gain=106289 10786.3 10753.5 6858.29 10790 6571.22 6011.14 4932.68 3222.36 3020.48 2932.91 2777.27 3976.57 2692.79 5731.65 3385.83 2719.63 2636.19 2606.52 2530.24 4501.72 3627.04 5564.85 2487.07 3137.31 6054.12 3849.88 5035.9 4570.76 4474.29
threshold=9.5000000000000018 1.0000000180025095e-35 17.500000000000004 10.500000000000002 13.500000000000002 8.5000000000000018 4.5000000000000009 11.500000000000002 2014.5000000000002 18.500000000000004 2012.5000000000002 2017.5000000000002 2012.5000000000002 80001.500000000015 73177.500000000015 80247.500000000015 80185.500000000015 2013.5000000000002 4.5000000000000009 81207.500000000015 75227.000000000015 58421.500000000007 58077.500000000007 1279.5000000000002 13099.500000000002 11494.000000000002 30697.500000000004 35833.500000000007 35425.500000000007 53189.500000000007
decision_type=2 2 2 2 2 2 2 2 2 2 2 2 2 2 2 2 2 2 2 2 2 2 2 2 2 2 2 2 2 2
left_child=5 -2 3 -3 7 8 11 17 -1 -4 -7 12 -6 14 -8 16 -15 -5 -12 20 21 22 23 -9 25 -25 -26 28 -28 -29
right_child=1 2 9 4 6 10 13 19 -10 -11 18 -13 -14 15 -16 -17 -18 -19 -20 -21 -22 -23 -24 24 26 -27 27 29 -30 -31
leaf_value=-0.010862111523319132 -0.0011484468672141651 -0.0010892523361752582 0.0045192264600691862 -0.0014044353418318422 -0.0025764586932509473 -0.0093121531104953768 0.0040770525577739931 0.013048436072859208 -0.0070997182547292877 0.0092282181104113535 -0.0033683121480610001 -0.0019485558877213663 0.0012983443491032551 0.011764449001061338 -0.0055838106555704432 0.0075722059224293536 0.060902009528537908 0.0026807605276451241 -0.0080849045054671009 0.0093028146186041449 0.00046606493468390501 0.0089405637360059978 -0.0087208855890440508 0.0044734228018047271 0.0095672567982820166 -0.0060542211437286681 0.0025959548722728149 0.0097117925621195596 -0.009426202414121199 0.0023457984951509425
leaf_weight=3772566 12434003 8068385 5211508 2156126 3194830 1287870 4698242 346682 5739802 1844140 6808881 5348600 15489790 22932 706453 661304 22137 5907647 1415195 1075714 2564187 2024535 317457 1962047 1776873 757001 1549797 1911260 397321 1450442
leaf_count=3772566 12434002 8068386 5211508 2156126 3194831 1287870 4698241 346682 5739802 1844140 6808881 5348600 15489790 22932 706453 661304 22137 5907647 1415195 1075714 2564187 2024535 317457 1962047 1776873 757001 1549797 1911260 397321 1450442
internal_value=0 0.0156409 0.0204962 0.0163128 0.0203521 -0.0673338 0.00772732 0.0360798 -0.0859187 0.0575002 -0.0487482 0.00060653 0.00635803 0.0357315 0.0281427 0.0937961 0.358998 0.0158844 -0.0417994 0.0461739 0.0428267 0.05066 0.0431671 0.0472443 0.044301 0.0154246 0.055382 0.0418967 0.00142762 0.0653366
internal_weight=0 8.18994e+07 6.94654e+07 6.24098e+07 5.43414e+07 1.90243e+07 3.01443e+07 2.41971e+07 9.51237e+06 7.05565e+06 9.51195e+06 2.40332e+07 1.86846e+07 6.11107e+06 5.4047e+06 706373 45069 8.06377e+06 8.22408e+06 1.61333e+07 1.50576e+07 1.24934e+07 1.04689e+07 1.01514e+07 9.80474e+06 2.71905e+06 7.08569e+06 5.30882e+06 1.94712e+06 3.3617e+06
internal_count=100923727 81899413 69465411 62409763 54341377 19024314 30144288 24197089 9512368 7055648 9511946 24033221 18684621 6111067 5404694 706373 45069 8063773 8224076 16133316 15057602 12493415 10468880 10151423 9804741 2719048 7085693 5308820 1947118 3361702
shrinkage=0.1


Tree=10
num_leaves=31
num_cat=0
split_feature=4 0 0 0 0 0 0 0 0 0 0 0 0 0 0 0 0 0 0 0 0 0 0 0 0 0 0 0 0 0
split_gain=86094.1 9477.65 34546.6 17871.2 17534.9 29345.2 16510.8 12767 11563.3 10881.6 15617.7 20774.6 11709.8 9640.21 16890.9 13855.3 20028 7574.26 16694.7 20939.8 12613.1 22808.9 20185.1 28710.7 28121.6 34296.6 21228.9 19852.2 13615.8 20255.6
threshold=9.5000000000000018 75227.000000000015 80001.500000000015 80247.500000000015 58421.500000000007 58077.500000000007 80185.500000000015 79772.000000000015 78071.000000000015 81085.500000000015 87285.500000000015 84671.500000000015 80949.500000000015 60007.500000000007 59963.500000000007 66613.500000000015 68919.500000000015 1279.5000000000002 1013.5000000000001 1025.5000000000002 13099.500000000002 11494.000000000002 31491.500000000004 35833.500000000007 42339.500000000007 37137.500000000007 35699.500000000007 37821.500000000007 35525.500000000007 35425.500000000007
decision_type=2 2 2 2 2 2 2 2 2 2 2 2 2 2 2 2 2 2 2 2 2 2 2 2 2 2 2 2 2 2
left_child=-1 4 7 6 5 17 -4 8 -3 12 11 -11 -5 14 -6 -15 -17 18 -2 -20 21 -19 -22 26 25 -25 28 -27 29 -24
right_child=1 2 3 9 13 -7 -8 -9 -10 10 -12 -13 -14 15 -16 16 -18 20 19 -21 22 -23 23 24 -26 27 -28 -29 -30 -31
leaf_value=-0.006060045244213547 -0.010603825294556519 -0.0065554354682910466 0.0038391095124443095 -0.00063538175180756658 0.0075404518441325096 -0.012250178938004265 0.036557433130614526 -0.019863893659352778 0.001675078870175165 0.0040499359401608868 -0.002462952258061488 0.020111224693898103 -0.021926320841604566 -0.0039635342895578234 0.031775170671751667 0.022779385635778689 0.0033933906443245456 0.0013167344826062542 0.033748467620927411 0.0059283986431383625 0.0061654894781089358 -0.0078707715954970392 -0.0012978556735494587 0.0036771261873814543 0.00060683581064755561 0.033463267271857694 -0.017750745808209348 0.011767048667443712 0.017936220880438138 -0.019953443612813457
leaf_weight=19024314 381430 5806218 311489 2267968 4218907 1564234 305515 550655 2417784 3159876 2064082 1080772 291525 1906401 308630 628530 3503366 10036398 361577 1074772 10220508 3697686 6634479 3465587 11977769 729458 969466 999733 326626 637972
leaf_count=19024314 381430 5806218 311489 2267968 4218907 1564234 305515 550655 2417784 3159876 2064082 1080772 291525 1906401 308630 628530 3503366 10036398 361577 1074772 10220508 3697686 6634479 3465587 11977769 729458 969466 999733 326626 637972
internal_value=0 0.0140768 -0.00600884 0.0358401 0.0198383 0.0124325 0.200399 -0.0512276 -0.0413574 0.0243858 0.0467097 0.0814332 -0.0306041 0.0570414 0.0919247 0.0308857 0.0634232 0.0165299 0.0799312 0.129316 0.0142108 -0.0115686 0.0240561 0.00912753 0.0327184 0.0941664 -0.0381519 0.209196 -0.0203734 -0.0293441
internal_weight=0 8.18994e+07 1.82559e+07 9.48123e+06 6.36435e+07 5.30777e+07 617004 8.77466e+06 8.224e+06 8.86422e+06 6.30473e+06 4.24065e+06 2.55949e+06 1.05658e+07 4.52754e+06 6.0383e+06 4.1319e+06 5.15135e+07 1.81778e+06 1.43635e+06 4.96957e+07 1.37341e+07 3.59616e+07 2.57411e+07 1.71725e+07 5.19478e+06 8.56854e+06 1.72919e+06 7.59908e+06 7.27245e+06
internal_count=100923727 81899413 18255884 9481227 63643529 53077695 617004 8774657 8224002 8864223 6304730 4240648 2559493 10565834 4527537 6038297 4131896 51513461 1817779 1436349 49695682 13734084 35961598 25741090 17172547 5194778 8568543 1729191 7599077 7272451
shrinkage=0.1


Tree=11
num_leaves=31
num_cat=0
split_feature=4 5 4 4 4 5 0 2 0 0 0 0 0 4 4 1 0 0 0 0 0 0 0 0 0 0 0 0 0 0
split_gain=69736.2 9159.95 7701 5672.1 5983.71 5554.15 5176.58 3844.36 3050.85 2745.18 5381.46 3196.26 5634.5 2672.49 2663.82 2537.68 2501.98 3165.56 3959.68 4572.88 4192.8 3499.22 2939.62 2641.33 4094.83 2472.02 2420.85 5676.68 3639.86 3242.6
threshold=9.5000000000000018 1.5000000000000002 17.500000000000004 10.500000000000002 14.500000000000002 4.5000000000000009 59483.500000000007 2.5000000000000004 59013.500000000007 81085.500000000015 75227.000000000015 58421.500000000007 58077.500000000007 8.5000000000000018 16.500000000000004 2018.5000000000002 78071.000000000015 80694.000000000015 80185.500000000015 80247.500000000015 79029.500000000015 80787.500000000015 77545.500000000015 76429.500000000015 76719.500000000015 80949.500000000015 75227.000000000015 80001.500000000015 80247.500000000015 80185.500000000015
decision_type=2 2 2 2 2 2 2 2 2 2 2 2 2 2 2 2 2 2 2 2 2 2 2 2 2 2 2 2 2 2
left_child=5 7 3 -3 9 6 8 15 13 10 11 12 -5 -1 -6 -2 22 18 20 -20 -18 -19 23 -12 -25 -23 -9 -28 29 -29
right_child=1 2 -4 4 14 -7 -8 26 -10 -11 16 -13 -14 -15 -16 -17 17 21 19 -21 -22 25 -24 24 -26 -27 27 28 -30 -31
leaf_value=-0.0052286409023079815 -0.0021504058833671977 -0.0011670392225151809 0.0054945816521956865 0.0031041936113997814 -0.00015550149318940322 -0.009201862971001654 -0.0074000917334289462 0.00080586030327769445 0.011557391335647789 0.0065239316512650932 -0.0057721396775313252 0.0062108908379054717 -0.0075949145358916491 -0.0020802938595153755 0.0026101015186723014 -0.0096918405077557491 0.010432134267572783 -0.02372790408461041 0.032264378418862975 0.0067924302296508733 -0.0033951231332990171 0.0034674221683292992 -0.011365685144767211 0.015456415973606214 -0.0015115663746260747 -0.016480073115039681 -0.0052189689230886897 0.0020609715450291685 0.00056261508264667578 0.029903049016227312
leaf_weight=5393990 3562439 6456660 5647493 16244205 12897054 3273759 4832314 17279109 133466 2014848 715903 3240646 507602 5390785 4771204 510088 306800 87340 87224 367148 768887 260012 370600 188885 575740 81631 2382498 84679 2408052 82666
leaf_count=5393990 3562439 6456660 5647493 16244205 12897054 3273759 4832314 17279109 133466 2014848 715903 3240646 507602 5390785 4771204 510088 306800 87340 87224 367148 768887 260012 370600 188885 575740 81631 2382498 84679 2408052 82666
internal_value=0 0.0126691 0.0199447 0.0159867 0.0200932 -0.0545404 -0.0467505 -0.00270348 -0.0346898 0.0297972 0.0267971 0.0333612 0.0278 -0.0365494 0.00591333 -0.0309498 -0.00764569 0.0172638 0.0385486 0.116822 0.00548592 -0.0586529 -0.0340074 -0.0140698 0.0268003 -0.0129876 0.0024696 -0.017009 0.0155366 0.158146
internal_weight=0 8.18994e+07 5.55899e+07 4.99424e+07 4.34857e+07 1.90243e+07 1.57506e+07 2.63095e+07 1.09182e+07 2.58175e+07 2.38026e+07 1.99925e+07 1.67518e+07 1.07848e+07 1.76683e+07 4.07253e+06 3.81017e+06 1.95904e+06 1.53006e+06 454372 1.07569e+06 428983 1.85113e+06 1.48053e+06 764625 341643 2.2237e+07 4.9579e+06 2.5754e+06 167345
internal_count=100923727 81899413 55589882 49942389 43485729 19024314 15750555 26309531 10918241 25817471 23802623 19992453 16751807 10784775 17668258 4072527 3810170 1959042 1530059 454372 1075687 428983 1851128 1480528 764625 341643 22237004 4957895 2575397 167345
shrinkage=0.1


Tree=12
num_leaves=31
num_cat=0
split_feature=4 5 4 1 1 0 0 0 0 0 0 0 0 0 0 0 0 0 0 0 0 0 0 0 0 0 0 0 0 0
split_gain=56486.3 7707.28 6828.74 5912.29 5266.65 4876.63 7575.37 33595.1 13094.7 8638.95 14194.6 13892.6 10375.4 7746.82 10702.6 7234.37 9585.14 7228.86 8841.41 6980.09 11776.6 7592.56 8823.63 7573.8 7932.65 7001.09 6973 6394.05 6216.48 6019.98
threshold=9.5000000000000018 1.0000000180025095e-35 17.500000000000004 2012.5000000000002 2013.5000000000002 4433.5000000000009 8611.5000000000018 9153.5000000000018 12859.000000000002 31893.500000000004 35833.500000000007 53189.500000000007 35809.500000000007 11494.000000000002 10209.500000000002 55639.500000000007 56683.500000000007 8244.0000000000018 8385.5000000000018 58421.500000000007 60007.500000000007 80001.500000000015 75227.000000000015 94511.500000000015 84671.500000000015 63125.500000000007 8369.5000000000018 3033.5000000000005 87285.500000000015 80247.500000000015
decision_type=2 2 2 2 2 2 2 2 2 2 2 2 2 2 2 2 2 2 2 2 2 2 2 2 2 2 2 2 2 2
left_child=4 -2 3 -3 -1 27 17 -8 13 -10 12 -12 -11 14 -9 -13 -17 -7 26 -18 -21 22 25 24 29 -22 -19 -5 -26 -23
right_child=1 2 -4 5 -6 6 7 8 9 10 11 15 -14 -15 -16 16 19 18 -20 20 21 23 -24 -25 28 -27 -28 -29 -30 -31
leaf_value=-0.00766242961093987 -0.0011526992381230238 -0.001254907370849065 0.0044994338885449049 0.0043758618796481763 -0.0039033399256563567 0.00094965909085251577 0.023239986915087898 -0.005806187536321129 0.0048626993337418586 -0.0026511389329372647 0.0061372856263834218 -0.0040280971241885748 -0.024645911441083149 -0.0088852074348066187 0.0069967606078057748 0.013168142296754452 -0.0037654588662131444 -0.0089168079606642674 -0.0017586008995237161 0.0076282284276494349 -0.0074894569893654006 0.01454907719987881 -0.003450888136250141 -0.0051330125342508737 0.017864270006203688 0.0044742006584887256 -0.033762591725972922 0.022234555334407359 0.0034588435696014637 0.0015488129513419101
leaf_weight=5087689 12434003 8375526 7055648 2117438 13936625 1104741 710069 1548469 7842706 5075942 6484266 2622414 223931 1804272 1128994 685326 2542422 230877 498265 2943463 574303 393224 5861186 883141 723179 3298788 221161 221450 511409 3782800
leaf_count=5087689 12434002 8375527 7055648 2117438 13936625 1104741 710069 1548469 7842706 5075942 6484266 2622414 223931 1804272 1128994 685326 2542422 230877 498265 2943463 574303 393224 5861186 883141 723179 3298788 221161 221450 511409 3782800
internal_value=0 0.0114022 0.0155064 0.0121727 -0.0490864 0.0160047 0.013984 0.016447 0.0133131 0.0185078 0.0120548 0.0201571 -0.0358047 -0.0382056 -0.00407625 0.00939009 0.0152578 -0.0455113 -0.109459 0.0115491 0.018143 0.00746604 -0.0100347 0.0345337 0.0485487 0.0270023 -0.210727 0.0606675 0.11897 0.0277295
internal_weight=0 8.18994e+07 6.94654e+07 6.24098e+07 1.90243e+07 5.40342e+07 5.16953e+07 4.96403e+07 4.89302e+07 4.44485e+07 3.66058e+07 3.13059e+07 5.29987e+06 4.48174e+06 2.67746e+06 2.48217e+07 2.21992e+07 2.05504e+06 950303 2.15139e+07 1.89715e+07 1.6028e+07 9.73428e+06 6.29375e+06 5.41061e+06 3.87309e+06 452038 2.33889e+06 1.23459e+06 4.17602e+06
internal_count=100923727 81899413 69465411 62409763 19024314 54034236 51695348 49640304 48930235 44448500 36605794 31305921 5299873 4481735 2677463 24821655 22199241 2055044 950303 21513915 18971493 16028030 9734277 6293753 5410612 3873091 452038 2338888 1234588 4176024
shrinkage=0.1


Tree=13
num_leaves=31
num_cat=0
split_feature=4 4 5 4 0 0 0 0 0 0 0 0 0 0 0 0 0 0 0 0 0 0 0 0 0 0 0 0 0 0
split_gain=45870 9688.78 7680.73 6427.65 4707.13 7014.29 11225.5 5834.05 9113.77 9010.7 12015.9 8124.64 20473.6 7336.66 6258.13 6967.74 23906.6 6277.38 5860.04 6242.28 7348.4 5776.09 5470.16 11861.1 6078.39 5414.05 5379.98 8244.55 5077.35 5022.14
threshold=10.500000000000002 8.5000000000000018 2.5000000000000004 13.500000000000002 4433.5000000000009 1013.5000000000001 1025.5000000000002 13099.500000000002 30697.500000000004 35833.500000000007 46409.500000000007 37137.500000000007 37821.500000000007 35809.500000000007 11494.000000000002 8611.5000000000018 9127.5000000000018 11061.500000000002 81207.500000000015 87285.500000000015 84671.500000000015 12125.500000000002 74033.500000000015 58421.500000000007 58077.500000000007 3033.5000000000005 8369.5000000000018 8385.5000000000018 37183.000000000007 36109.500000000007
decision_type=2 2 2 2 2 2 2 2 2 2 2 2 2 2 2 2 2 2 2 2 2 2 2 2 2 2 2 2 2 2
left_child=1 -1 3 -2 5 -4 -7 14 -9 13 11 29 28 -10 15 26 -17 -18 22 20 -20 -16 23 24 -12 -8 -6 -28 -13 -11
right_child=2 -3 4 -5 7 6 25 8 9 10 18 12 -14 -15 21 16 17 -19 19 -21 -22 -23 -24 -25 -26 -27 27 -29 -30 -31
leaf_value=-0.0060012607033996914 0.0019569850039065895 -0.0020925118808311828 -0.011471872933468887 -0.00079454578239934585 0.00014489509686895958 0.034530788064581951 0.0044186963753587776 0.0069981979484677872 -0.0014512722365330624 0.0091905695326215207 0.00062265969764724793 0.023538308364295477 0.0076649450662984652 -0.024099951874154008 -0.01375569659137779 0.030177107139795226 -0.0016706611492911163 0.014129281135079958 0.0055321655699382055 -0.00012956271025883748 0.020408546130647673 -0.0015155659371565702 -0.0013138666844923989 0.0062307794351017312 -0.0093805447108293669 0.024994875988946438 -0.03259762886837686 -0.0039638998330959905 0.048210920153616388 -0.002137693089616379
leaf_weight=9512368 14013973 19024231 171597 21538041 951717 164157 1129997 4159069 4134646 764859 4583389 171326 1245851 148150 611538 318466 1697314 295192 1041074 925346 487547 1043201 5887884 4627846 700256 144195 146650 319930 162537 801380
leaf_count=9512368 14013973 19024231 171597 21538041 951717 164157 1129997 4159069 4134646 764859 4583389 171326 1245851 148150 611538 318466 1697314 295192 1041074 925346 487547 1043201 5887884 4627846 700256 144195 146650 319930 162537 801380
internal_value=0 -0.0339545 0.0133856 0.00290059 0.0235054 0.0763826 0.0991812 0.0210887 0.0265551 0.0195224 0.0279021 0.0849808 0.135583 -0.0223473 -0.00920929 0.013501 0.0473636 0.00670118 0.0180646 0.0635283 0.102769 -0.0603912 0.0110032 0.0253445 -0.00703092 0.0674722 -0.0416747 -0.129637 0.355499 0.0339436
internal_weight=0 2.85366e+07 7.23871e+07 3.5552e+07 3.68351e+07 1.60995e+06 1.43835e+06 3.52252e+07 2.98412e+07 2.56821e+07 2.13993e+07 3.14595e+06 1.57971e+06 4.2828e+06 5.38401e+06 3.72927e+06 2.31097e+06 1.99251e+06 1.82533e+07 2.45397e+06 1.52862e+06 1.65474e+06 1.57994e+07 9.91149e+06 5.28364e+06 1.27419e+06 1.4183e+06 466580 333863 1.56624e+06
internal_count=100923727 28536599 72387128 35552014 36835114 1609946 1438349 35225168 29841160 25682091 21399295 3145953 1579714 4282796 5384008 3729269 2310972 1992506 18253342 2453967 1528621 1654739 15799375 9911491 5283645 1274192 1418297 466580 333863 1566239
shrinkage=0.1


Tree=14
num_leaves=31
num_cat=0
split_feature=4 1 4 1 5 0 2 0 0 0 0 0 0 0 0 0 0 0 0 0 0 0 0 0 0 0 0 0 0 0
split_gain=37755.2 6140.25 5352.81 6994.39 4499.3 4194.33 3592.53 3586.33 9355.67 9433.99 3741.31 7842.91 6874.52 7051.32 5735.3 5439.83 9848.87 6388.74 5487.53 11860.3 9862.21 8333.08 12352.4 7565.53 7073.8 6820.54 11143.7 5406.01 9605.7 5082.64
threshold=9.5000000000000018 2012.5000000000002 18.500000000000004 2017.5000000000002 4.5000000000000009 59483.500000000007 5.5000000000000009 1220.0000000000002 1013.5000000000001 1025.5000000000002 81085.500000000015 75227.000000000015 76429.500000000015 76719.500000000015 90535.500000000015 13099.500000000002 11494.000000000002 11131.500000000002 31893.500000000004 35833.500000000007 35425.500000000007 42339.500000000007 37137.500000000007 37821.500000000007 34505.500000000007 58421.500000000007 58077.500000000007 12287.500000000002 12543.500000000002 60007.500000000007
decision_type=2 2 2 2 2 2 2 2 2 2 2 2 2 2 2 2 2 2 2 2 2 2 2 2 2 2 2 2 2 2
left_child=4 6 3 7 5 -1 -2 8 -3 -10 11 15 -13 -14 -12 16 17 -9 -17 20 24 22 -21 -24 -20 26 -23 -18 -29 -27
right_child=1 2 -4 -5 -6 -7 -8 10 9 -11 14 12 13 -15 -16 18 27 -19 19 21 -22 25 23 -25 -26 29 -28 28 -30 -31
leaf_value=-0.0022263210139415895 -0.0034571155844759409 -0.0086999492691727989 0.0063751455117861374 -0.00059161068998523768 -0.0073862823969085296 -0.0057648723865916952 0.00024903426905677125 0.0011705800214960884 0.030398008076836611 0.0056254257995119739 0.0066503483462765972 -0.0078453823955054649 0.013879047669847955 -0.00097150354295721182 -0.0024481892510426107 0.0050563174755768941 -0.010994057253800076 0.018711095281679122 -0.0026044189785775621 0.0033612647427181427 -0.010155079966812256 0.0014968657350217063 0.027424038078552537 0.0098424366042111563 0.0070564901751244968 0.0076560244198849263 -0.0096459448565129058 0.01898647443177811 -0.0050687207358835508 0.0020289975773404799
leaf_weight=10918241 4480712 252101 1995449 17721420 3273759 4832314 6283094 6266524 229219 466776 3021797 1432181 338620 5731962 898898 6799346 1081869 214766 2729051 2169903 1254313 7610853 399556 631701 1049325 2830517 1017505 195890 1087967 3708098
leaf_count=10918241 4480712 252101 1995449 17721420 3273759 4832314 6283094 6266524 229219 466776 3021797 1432181 338620 5731962 898898 6799346 1081869 214766 2729051 2169903 1254313 7610853 399556 631701 1049325 2830517 1017505 195890 1087967 3708098
internal_value=0 0.00932193 0.0126901 0.0112164 -0.0401308 -0.0331196 -0.0129375 0.0171211 0.0780548 0.13784 0.0159765 0.0134778 -0.0161339 -0.00143133 0.0456433 0.0191675 -0.00263987 0.0175181 0.0255559 0.0182898 -0.0247198 0.030074 0.0764365 0.166544 0.000785944 0.0202887 0.00182842 -0.0578658 -0.013984 0.0446489
internal_weight=0 8.18994e+07 7.11356e+07 6.91402e+07 1.90243e+07 1.57506e+07 1.07638e+07 5.14187e+07 948096 695995 5.04706e+07 4.65499e+07 7.50276e+06 6.07058e+06 3.9207e+06 3.90472e+07 8.84702e+06 6.48129e+06 3.02002e+07 2.34008e+07 5.03269e+06 1.83681e+07 3.20116e+06 1.03126e+06 3.77838e+06 1.5167e+07 8.62836e+06 2.36573e+06 1.28386e+06 6.53862e+06
internal_count=100923727 81899413 71135607 69140158 19024314 15750555 10763806 51418738 948096 695995 50470642 46549947 7502763 6070582 3920695 39047184 8847016 6481290 30200168 23400822 5032689 18368133 3201160 1031257 3778376 15166973 8628358 2365726 1283857 6538615
shrinkage=0.1


Tree=15
num_leaves=31
num_cat=0
split_feature=4 1 5 4 4 0 0 0 0 0 0 0 0 0 0 0 0 0 0 0 0 0 4 0 0 0 0 0 0 0
split_gain=31503.2 6853.37 6224.2 5338 4162.71 3584.3 5148.18 7853.59 4662.82 20202.1 6058.1 6948.59 9527.94 8809.38 6110.07 14962.3 4909.91 5877.15 11244.1 5074.62 6730.01 6136.48 4753.88 4693.63 8392.82 7902.97 6824.01 5001.62 8469.35 4810.73
threshold=10.500000000000002 2014.5000000000002 2.5000000000000004 13.500000000000002 8.5000000000000018 4433.5000000000009 1013.5000000000001 1025.5000000000002 8611.5000000000018 9127.5000000000018 13099.500000000002 31893.500000000004 35833.500000000007 46409.500000000007 37137.500000000007 37821.500000000007 35809.500000000007 35729.500000000007 35699.500000000007 35525.500000000007 35425.500000000007 34749.000000000007 16.500000000000004 80001.500000000015 80247.500000000015 79772.000000000015 80185.500000000015 75227.000000000015 58421.500000000007 79653.500000000015
decision_type=2 2 2 2 2 2 2 2 2 2 2 2 2 2 2 2 2 2 2 2 2 2 2 2 2 2 2 2 2 2
left_child=1 -1 3 -2 -3 6 -4 -8 -7 -10 -11 -12 16 14 -14 22 17 18 19 20 21 -13 -16 25 26 27 -25 28 -15 -29
right_child=2 4 5 -5 -6 8 7 -9 9 10 11 12 13 23 15 -17 -18 -19 -20 -21 -22 -23 -24 24 -26 -27 -28 29 -30 -31
leaf_value=-0.0047254365822968917 0.0016845168416841094 -0.0037563601940955142 -0.0097374354540325503 -0.00082296461386217401 -0.00045808248703141125 -0.003807752658855234 0.029174472398528994 0.0059353854892577511 0.027112592291125115 -0.00204053952832523 0.0057173245504825373 -0.0038697054880016666 0.0028560511053925485 -0.00061851939058378113 0.02203186213872959 0.0066321752921072626 -0.02102777622120806 0.0181369059107843 -0.029860928923375871 0.016284221180394215 -0.017423526079209269 0.0076544538342236262 0.047344311351786711 0.0056435311709096278 0.0032809996982940074 -0.017186318469410121 0.036877506074386522 -0.0032318502164352687 0.0051939777327986644 0.010052115170453579
leaf_weight=11317513 14013973 5739802 171597 21538041 11479284 1418297 164157 1274192 318466 3647245 4905424 2076888 1566239 5283645 222563 1245851 148150 133477 151643 145117 286890 594276 111300 140463 3985446 243627 139340 3394479 4769917 296425
leaf_count=11317513 14013973 5739802 171597 21538041 11479284 1418297 164157 1274192 318466 3647245 4905424 2076888 1566239 5283645 222563 1245851 148150 133477 151643 145117 286890 594276 111300 140463 3985446 243627 139340 3394479 4769917 296425
internal_value=0 -0.0281391 0.0110931 0.0016544 -0.0155753 0.0202029 0.0663445 0.0858763 0.018094 0.0204506 0.0180668 0.0227689 0.0160008 0.0239472 0.0728201 0.116702 -0.0320837 -0.0242923 -0.0327263 -0.0197334 -0.0286902 -0.0130583 0.304703 0.015524 0.0445636 0.00666925 0.211978 0.00983382 0.0213922 -0.0216498
internal_weight=0 2.85366e+07 7.23871e+07 3.5552e+07 1.72191e+07 3.68351e+07 1.60995e+06 1.43835e+06 3.52252e+07 3.38069e+07 3.34884e+07 2.98412e+07 2.49357e+07 2.13993e+07 3.14595e+06 1.57971e+06 3.53644e+06 3.38829e+06 3.25481e+06 3.10317e+06 2.95805e+06 2.67116e+06 333863 1.82533e+07 4.26525e+06 1.39881e+07 279803 1.37445e+07 1.00536e+07 3.6909e+06
internal_count=100923727 28536599 72387128 35552014 17219086 36835114 1609946 1438349 35225168 33806871 33488405 29841160 24935736 21399295 3145953 1579714 3536441 3388291 3254814 3103171 2958054 2671164 333863 18253342 4265249 13988093 279803 13744466 10053562 3690904
shrinkage=0.1


Tree=16
num_leaves=31
num_cat=0
split_feature=4 4 5 4 1 0 0 0 0 0 0 0 0 0 0 0 0 0 0 0 0 0 0 0 0 4 0 0 0 0
split_gain=25517.6 6015.71 5084.73 3751.5 3661.76 3360.48 6384.96 6073.88 6883.64 5436.56 4685.24 7293.84 6596.48 5069.19 7378.71 8658.41 6810.73 5511.57 4245.21 7871.58 4056.66 3322.4 4190.38 3609.1 5033.99 3231.83 3200.39 5454.91 22440.6 6493.03
threshold=10.500000000000002 8.5000000000000018 1.5000000000000002 18.500000000000004 2013.5000000000002 81207.500000000015 75227.000000000015 87285.500000000015 84671.500000000015 81453.500000000015 76429.500000000015 76987.500000000015 78071.000000000015 80694.000000000015 80185.500000000015 80247.500000000015 80787.500000000015 79029.500000000015 58421.500000000007 58077.500000000007 81159.500000000015 81085.500000000015 80949.500000000015 80860.000000000015 80891.500000000015 13.500000000000002 4433.5000000000009 8611.5000000000018 9127.5000000000018 12859.000000000002
decision_type=2 2 2 2 2 2 2 2 2 2 2 2 2 2 2 2 2 2 2 2 2 2 2 2 2 2 2 2 2 2
left_child=1 -1 25 5 -3 6 18 8 9 -7 -8 -12 -13 14 17 -16 -15 -14 19 26 21 22 23 -18 -25 -2 -4 -28 -29 -30
right_child=2 4 3 -5 -6 7 10 -9 -10 -11 11 12 13 16 15 -17 20 -19 -20 -21 -22 -23 -24 24 -26 -27 27 28 29 -31
leaf_value=-0.0045858158399468213 0.0012416192755820635 -0.0038020122632417899 0.0053266692439553637 0.0065384266433352158 -0.00066758247980388489 0.012142628134306797 -0.006883916474621745 -0.0010264064814077226 0.016559768037593365 -0.0010446205380392091 0.011163708653635246 -0.0068369807033460683 0.008580543055395266 -0.023496733831099178 0.030792271248126529 0.0058315939602101765 -0.0095739378428813665 -0.0035126043331366128 0.0041444709441517055 -0.0078849501983686617 -0.014568615722657857 0.0098470479766767094 -0.016777532637177749 0.021515268496762205 -0.004225246437101606 -0.0011708254978556574 -0.0039964967741975693 0.024624760537280171 -0.0023780840812751168 0.0019509565957630415
leaf_weight=9512368 9166165 5087773 2075141 1476995 13936458 500622 1316253 1204826 634802 832456 508233 1576129 515857 162763 174413 683896 177174 1398833 6107724 913558 199953 297884 163076 148908 155124 14087741 1846322 417538 4129718 21515024
leaf_count=9512368 9166165 5087773 2075141 1476995 13936458 500622 1316253 1204826 634802 832456 508233 1576129 515857 162763 174413 683896 177174 1398833 6107724 913558 199953 297884 163076 148908 155124 14087741 1846322 417538 4129718 21515024
internal_value=0 -0.0253252 0.00998375 0.0157496 -0.0150584 0.0142113 0.0119687 0.0456544 0.0798902 0.039077 -0.0146817 -0.00311364 -0.0134285 0.00780674 0.0319927 0.109037 -0.0435907 -0.00254461 0.0173545 0.0125924 -0.0163176 0.0111379 -0.0292404 0.0177077 0.0838188 -0.00219894 0.0153785 0.0125614 0.0162825 0.0125383
internal_weight=0 2.85366e+07 7.23871e+07 4.91332e+07 1.90242e+07 4.76562e+07 4.44835e+07 3.17271e+06 1.96788e+06 1.33308e+06 7.4785e+06 6.16224e+06 5.65401e+06 4.07788e+06 2.773e+06 858309 1.30488e+06 1.91469e+06 3.7005e+07 3.08973e+07 1.14212e+06 942166 644282 481206 304032 2.32539e+07 2.99837e+07 2.79086e+07 2.60623e+07 2.56447e+07
internal_count=100923727 28536599 72387128 49133222 19024231 47656227 44483521 3172706 1967880 1333078 7478496 6162243 5654010 4077881 2772999 858309 1304882 1914690 37005025 30897301 1142119 942166 644282 481206 304032 23253906 29983743 27908602 26062280 25644742
shrinkage=0.1


Tree=17
num_leaves=31
num_cat=0
split_feature=4 2 0 0 0 0 0 0 0 0 0 0 0 0 0 0 0 4 0 0 0 0 0 0 0 0 0 0 0 0
split_gain=20995.4 4919.69 3986.03 8502.94 10322.9 3980.99 10808.9 12336.2 15754.2 15583.8 10403.1 10045.4 9974.48 11092.8 9751.31 15242.1 9125.55 9688.87 8105.54 7976.56 7518.02 6148.21 5914.23 5135.01 13887 7172.54 4797.78 4758.61 30882.9 10901.8
threshold=9.5000000000000018 2.5000000000000004 1279.5000000000002 1013.5000000000001 1025.5000000000002 13099.500000000002 31893.500000000004 35833.500000000007 42339.500000000007 37137.500000000007 11494.000000000002 35699.500000000007 35525.500000000007 35425.500000000007 35729.500000000007 35809.500000000007 37821.500000000007 16.500000000000004 11131.500000000002 34505.500000000007 12125.500000000002 36109.500000000007 37183.000000000007 13140.000000000002 13197.500000000002 13123.000000000002 34297.500000000007 8611.5000000000018 9127.5000000000018 8244.0000000000018
decision_type=2 2 2 2 2 2 2 2 2 2 2 2 2 2 2 2 2 2 2 2 2 2 2 2 2 2 2 2 2 2
left_child=-1 -2 3 -3 -5 10 23 11 9 21 18 12 13 19 -13 -16 17 -11 27 26 -12 -9 -19 25 -25 -7 -8 29 -29 -4
right_child=1 2 5 4 -6 6 7 8 -10 16 20 14 -14 -15 15 -17 -18 22 -20 -21 -22 -23 -24 24 -26 -27 -28 28 -30 -31
leaf_value=-0.0029926178384815701 -0.0010538963071059651 -0.008419564498787219 0.0013620481591084855 0.025952269634601233 0.0045803518134971818 0.0011603342338432398 -0.0022375405657858471 0.0074815904396098509 0.00062337062707082044 0.016537496597347913 -0.012169964167437286 -0.028740289510037965 0.016781090694559821 -0.016527394870714241 0.012125504782002678 -0.021968184683459291 0.0086961652853816702 0.026880124653795828 0.017937688243047253 0.0051793618639785419 -0.0019556540689783454 -0.0017348645766099931 0.062881667017185186 -0.018455925388523472 0.0045633785172940226 0.024656238827192704 -0.012281056097646272 0.023867687897951417 -0.00074041887097026646 -0.010041316568364145
leaf_weight=19024314 13442251 318476 2916757 302060 897590 237197 3058564 1416990 35412000 427109 1142446 283340 272646 532798 250434 275251 835232 95719 275114 1361328 1951427 1479579 87200 270608 8310003 287281 563213 599339 3420931 1176530
leaf_count=19024314 13442251 318476 2916757 302060 897590 237197 3058564 1416990 35412000 427109 1142446 283340 272646 532798 250434 275251 835232 95719 275114 1361328 1951427 1479579 87200 270608 8310003 287281 563213 599339 3420931 1176530
internal_value=0 0.00695152 0.0103859 0.0610555 0.0996159 0.0092368 0.0127459 0.00655828 0.0132043 0.0700565 -0.00771098 -0.0334874 -0.0188997 -0.0281286 -0.137862 -0.057261 0.154871 0.24785 0.0105686 -0.0134649 -0.057274 0.0277379 0.440426 0.0442454 0.0383742 0.140301 -0.0379938 0.00484469 0.0292814 -0.0191561
internal_weight=0 8.18994e+07 6.84572e+07 1.51813e+06 1.19965e+06 6.6939e+07 5.54565e+07 4.63514e+07 3.97538e+07 4.34183e+06 1.14825e+07 6.59757e+06 5.78855e+06 5.5159e+06 809025 525685 1.44526e+06 610028 8.38867e+06 4.9831e+06 3.09387e+06 2.89657e+06 182919 9.10509e+06 8.58061e+06 524478 3.62178e+06 8.11356e+06 4.02027e+06 4.09329e+06
internal_count=100923727 81899413 68457162 1518126 1199650 66939036 55456492 46351403 39753829 4341829 11482544 6597574 5788549 5515903 809025 525685 1445260 610028 8388671 4983105 3093873 2896569 182919 9105089 8580611 524478 3621777 8113557 4020270 4093287
shrinkage=0.1


Tree=18
num_leaves=31
num_cat=0
split_feature=4 5 4 5 0 4 4 1 2 0 1 1 0 4 0 0 0 0 0 0 0 0 0 0 0 0 0 0 0 0
split_gain=17543 5417.38 4731.09 6927.36 4621.64 4609.44 4572.72 3011.48 2671.89 2533.64 2285.56 2138.84 2130.52 2128.2 1827.19 8490.11 4140.31 4045.28 4287.83 3647.59 3451.04 3361.1 3433.36 17282.1 7901.59 5863 7696.69 3129.81 2668.23 2544.87
threshold=10.500000000000002 4.5000000000000009 13.500000000000002 4.5000000000000009 75227.000000000015 11.500000000000002 17.500000000000004 2012.5000000000002 5.5000000000000009 76623.500000000015 2013.5000000000002 2016.5000000000002 76719.500000000015 17.500000000000004 70755.500000000015 59013.500000000007 60007.500000000007 81207.500000000015 90535.500000000015 80949.500000000015 66613.500000000015 54985.500000000007 36813.500000000007 37821.500000000007 37183.000000000007 32029.500000000004 14019.500000000002 79653.500000000015 9591.5000000000018 58451.500000000007
decision_type=2 2 2 2 2 2 2 2 2 2 2 2 2 2 2 2 2 2 2 2 2 2 2 2 2 2 2 2 2 2
left_child=1 4 5 6 7 10 8 -1 -4 -6 -2 -10 -11 -5 15 21 -17 19 -19 27 -18 22 25 24 -24 26 28 -16 -8 -23
right_child=2 -3 3 13 9 -7 14 -9 11 12 -12 -13 -14 -15 17 16 20 18 -20 -21 -22 29 23 -25 -26 -27 -28 -29 -30 -31
leaf_value=-0.0039530962205846284 -0.0025346941366031711 -0.0051221924023693195 -0.0020272167736059537 0.0021208799849683994 -0.0094855273839389628 0.0027287407302239142 0.0026803223556697946 -0.00020871425565605536 0.00069354123864451484 0.012364195845112778 0.00096872993277399692 -0.0017141456137029854 -0.0034857351866569388 0.0064056700432783336 -0.0068995366109123567 0.026207593491757955 -0.0021981968566453874 0.012212234311071874 -0.01019887588414263 -0.025228599824935749 0.015111821973610036 -0.011095065924440775 0.021077973048812693 0.0011144520619278352 0.065986232496055466 -0.0067818220416680942 0.011096259681208812 0.0048053755420706615 -0.0058036801362914428 0.0020415193806314412
leaf_weight=2485486 2541527 4910146 12781990 6111068 742006 19022833 858038 15815456 11126373 86437 6965832 5520089 4497068 1430537 656041 181760 185838 349094 113007 78318 302894 355680 121784 779898 57763 781589 810089 350493 652677 251916
leaf_count=2485486 2541527 4910146 12781991 6111067 742006 19022833 858038 15815456 11126373 86437 6965832 5520089 4497068 1430537 656041 181760 185838 349094 113007 78318 302894 355680 121784 779898 57763 781589 810089 350493 652677 251916
internal_value=0 -0.0209984 0.00827801 0.00175748 -0.0147172 0.0183015 -0.00396984 -0.00717246 -0.00939822 -0.0406443 0.000321873 -0.00104865 -0.0318683 0.0293364 0.0192262 0.0279933 0.13322 -0.0110366 0.0673159 -0.0444114 0.0852977 0.0128836 0.0232602 0.0755404 0.355256 0.00709211 0.03232 -0.0282368 -0.00985037 -0.0564849
internal_weight=0 2.85366e+07 7.23871e+07 4.38569e+07 2.36265e+07 2.85302e+07 3.63153e+07 1.83009e+07 2.94285e+07 5.32551e+06 9.50736e+06 1.66465e+07 4.5835e+06 7.5416e+06 6.88688e+06 5.33993e+06 670492 1.54695e+06 462101 1.08485e+06 488732 4.66943e+06 4.06184e+06 959445 179547 3.10239e+06 2.3208e+06 1.00653e+06 1.51072e+06 607596
internal_count=100923727 28536599 72387128 43856936 23626453 28530192 36315332 18300942 29428453 5325511 9507359 16646462 4583505 7541604 6886879 5339926 670492 1546953 462101 1084852 488732 4669434 4061838 959445 179547 3102393 2320804 1006534 1510715 607596
shrinkage=0.1


Tree=19
num_leaves=31
num_cat=0
split_feature=4 5 1 0 0 0 0 0 0 0 0 0 0 0 0 0 0 0 1 0 0 0 0 0 0 0 0 0 0 0
split_gain=14458.1 4566.44 3449.38 5143.25 11201.9 6189.75 4811.27 4746 11240.4 4871.57 6010.15 11656.7 5736.21 4802.47 4786.61 4517.42 8770.72 4362.27 3308.04 3044.79 7229.61 13264.6 10303.1 8809.05 8223.34 5966.65 12103.8 10743.3 9843.65 9414.25
threshold=9.5000000000000018 1.0000000180025095e-35 2013.5000000000002 94511.500000000015 84962.000000000015 87253.500000000015 120106.00000000001 69445.500000000015 66613.500000000015 80001.500000000015 80694.000000000015 80860.000000000015 79772.000000000015 80891.500000000015 68919.500000000015 81207.500000000015 81453.500000000015 69293.500000000015 2014.5000000000002 5123.5000000000009 8385.5000000000018 8369.5000000000018 9153.5000000000018 12859.000000000002 8611.5000000000018 30697.500000000004 35833.500000000007 54005.500000000007 14677.500000000002 56195.500000000007
decision_type=2 2 2 2 2 2 2 2 2 2 2 2 2 2 2 2 2 2 2 2 2 2 2 2 2 2 2 2 2 2
left_child=18 -2 6 4 7 -6 -3 8 19 12 -11 -12 -9 -13 -10 -15 -17 -16 -1 -4 21 -21 24 -24 -22 28 -27 -28 -25 -29
right_child=1 2 3 -5 5 -7 -8 9 14 10 11 13 -14 15 17 16 -18 -19 -20 20 22 -23 23 25 -26 26 27 29 -30 -31
leaf_value=-0.0041099082854299277 -0.0011880653824311567 -0.00041223492589312821 0.0048235129426419335 -0.006473541008129963 0.021954293584344343 0.0059085930341650598 0.022971154879079969 -0.0015860583396442925 0.020321625307295796 0.0083874396631157845 -0.016707493024689424 0.019215769285265978 -0.01469073011498266 -0.0047526831125713001 0.0027372176276485309 0.014524384045795358 -0.0010190369131357817 0.019422787886309079 -0.0014143280678622645 -0.001616076303724772 0.00054323920372371525 -0.028832315310757431 -0.0030974619889103687 -8.0904731283619892e-05 0.018138864674354199 -0.0028369945690805971 0.005412582288132994 -0.0057345313133874525 0.0078034844474370764 0.0019445659936296704
leaf_weight=7545017 12434003 17938956 2475383 835179 376078 666440 88426 6436134 389511 1108357 375587 154620 352304 872624 627824 544362 1089820 208795 11479297 1072803 447392 214958 4239174 2752606 653684 5973018 6893318 2079808 3728317 6869932
leaf_count=7545017 12434002 17938957 2475383 835179 376078 666440 88426 6436134 389511 1108357 375587 154620 352304 872624 627824 544362 1089820 208795 11479297 1072803 447392 214958 4239174 2752606 653684 5973018 6893318 2079808 3728317 6869932
internal_value=0 0.00576864 0.00892779 0.0130995 0.0143841 0.116969 -0.00297537 0.0122262 0.0174326 -0.00616687 0.0208448 -0.00215779 -0.0226616 0.0211157 0.111647 0.0105658 0.0415863 0.0690144 -0.0248339 0.0143439 0.0119418 -0.0615912 0.0147569 0.0115373 0.109894 0.017906 0.00999151 0.0244542 0.0445479 0.0016004
internal_weight=0 8.18994e+07 6.94654e+07 5.1438e+07 5.06028e+07 1.04252e+06 1.80274e+07 4.95603e+07 3.86265e+07 1.09338e+07 4.14537e+06 3.03701e+06 6.78844e+06 2.66143e+06 1.22613e+06 2.50681e+06 1.63418e+06 836619 1.90243e+07 3.74004e+07 3.4925e+07 1.28776e+06 3.36372e+07 3.25362e+07 1.10108e+06 2.8297e+07 2.18161e+07 1.58431e+07 6.48092e+06 8.94974e+06
internal_count=100923727 81899413 69465411 51438028 50602849 1042518 18027383 49560331 38626523 10933808 4145370 3037013 6788438 2661426 1226130 2506806 1634182 836619 19024314 37400393 34925010 1287761 33637249 32536173 1101076 28296999 21816076 15843058 6480923 8949740
shrinkage=0.1


Tree=20
num_leaves=31
num_cat=0
split_feature=4 5 1 1 0 0 0 4 4 5 4 2 0 0 2 0 0 0 0 0 0 0 0 0 0 0 0 0 0 0
split_gain=12068 4421.63 3965.11 4139.68 3753.73 4623.59 5553.6 3196.05 3058.75 3706.73 2982.42 2705.86 2594.8 2606.53 2558.81 2434 4781.64 3012.97 2535.21 4052.8 3435.37 3341.21 3315.09 4366.73 5593.5 10853 3653.69 5733.25 3373.63 3804.6
threshold=10.500000000000002 4.5000000000000009 2018.5000000000002 2012.5000000000002 59483.500000000007 58421.500000000007 58077.500000000007 19.500000000000004 13.500000000000002 4.5000000000000009 11.500000000000002 1.5000000000000002 58451.500000000007 59013.500000000007 2.5000000000000004 94511.500000000015 84671.500000000015 87285.500000000015 75227.000000000015 76429.500000000015 76987.500000000015 78071.000000000015 58544.000000000007 54357.000000000007 36813.500000000007 42339.500000000007 32433.500000000004 14677.500000000002 11494.000000000002 11869.500000000002
decision_type=2 2 2 2 2 2 2 2 2 2 2 2 2 2 2 2 2 2 2 2 2 2 2 2 2 2 2 2 2 2
left_child=1 4 3 11 5 6 -1 14 10 15 -5 -2 -7 -14 -4 16 18 -18 22 -20 -21 -22 23 24 26 -26 27 28 -10 -30
right_child=2 -3 7 8 -6 12 -8 -9 9 -11 -12 -13 13 -15 -16 -17 17 -19 19 20 21 -23 -24 -25 25 -27 -28 -29 29 -31
leaf_value=-0.00043683362998547971 -0.0068127997088634241 -0.0044721097124101388 -0.0055076167764828579 0.00051987246786958108 -0.0030686164708674953 0.02168451984712123 -0.011536432584726281 0.016033953069140763 0.00078176393435991105 0.0029366434914317005 0.0029811366569030013 -0.00052092299550935762 0.0017866650752991727 0.014641084525657135 -0.00082515487421933552 -0.0074220799014556209 0.014426590224932818 0.00055970880335407642 -0.0085707192489548941 0.0098299878807940628 -0.0068000831732599187 5.6544707920260951e-05 0.003431278048346021 -0.0035516407938655445 0.014774969060202207 0.00093396738359367609 -0.0031571928969833969 0.0041954162893284505 -0.013588581907699399 -0.0022913217849715342
leaf_weight=14870843 741544 4910146 1527152 7383790 7249665 97044 464867 100586 4125480 5882000 14774154 8733657 743831 200203 4949327 415241 384419 264497 775179 287970 913984 3195238 3392991 2874546 776654 2093852 3159153 3237817 348852 2049045
leaf_count=14870843 741544 4910146 1527152 7383790 7249665 97044 464867 100586 4125481 5881999 14774154 8733657 743831 200203 4949327 415241 384419 264497 775179 287970 913984 3195238 3392991 2874546 776654 2093852 3159153 3237817 348852 2049045
internal_value=0 -0.0174161 0.00686581 0.00920555 -0.0117415 -0.00335504 -0.00773293 -0.0165456 0.0124582 0.00652514 0.0216096 -0.0101334 0.0611339 0.0451273 -0.0192928 0.00177685 0.00290876 0.0877447 0.000887098 -0.0190388 -0.0072859 -0.0146852 0.00555944 0.000332666 0.00685858 0.0467884 -0.00201259 0.00755411 -0.00952003 -0.0393488
internal_weight=0 2.85366e+07 7.23871e+07 6.58101e+07 2.36265e+07 1.63768e+07 1.53357e+07 6.57706e+06 5.63349e+07 3.41769e+07 2.21579e+07 9.4752e+06 1.04108e+06 944034 6.47648e+06 2.82949e+07 2.78797e+07 648916 2.72308e+07 5.17237e+06 4.39719e+06 4.10922e+06 2.20584e+07 1.86654e+07 1.57909e+07 2.87051e+06 1.29203e+07 9.76119e+06 6.52338e+06 2.3979e+06
internal_count=100923727 28536599 72387128 65810063 23626453 16376788 15335710 6577065 56334862 34176918 22157944 9475201 1041078 944034 6476479 28294919 27879678 648916 27230762 5172371 4397192 4109222 22058391 18665400 15790854 2870506 12920348 9761195 6523378 2397897
shrinkage=0.1


Tree=21
num_leaves=31
num_cat=0
split_feature=4 1 0 0 0 0 0 0 0 0 0 0 0 0 0 0 0 0 0 0 0 0 0 0 0 0 0 0 0 0
split_gain=10724.8 4419.67 4294.99 9361.55 5346.99 8019 6487.94 13721.8 6140.25 10556.6 10396.8 8105.61 7506.84 8398.74 5632.99 10009.1 9472.1 9916.53 5286.06 5075.38 6783.42 4740.59 4597.61 4063.22 5943.29 3761.85 13638.7 3772.52 11261.4 11746.5
threshold=8.5000000000000018 2012.5000000000002 94511.500000000015 84671.500000000015 75227.000000000015 76429.500000000015 58421.500000000007 58077.500000000007 77125.500000000015 78071.000000000015 79029.500000000015 80001.500000000015 80247.500000000015 80185.500000000015 60007.500000000007 59963.500000000007 66613.500000000015 68919.500000000015 87285.500000000015 79772.000000000015 79653.500000000015 76201.500000000015 117905.50000000001 78701.500000000015 78935.500000000015 1013.5000000000001 1025.5000000000002 14677.500000000002 31491.500000000004 35833.500000000007
decision_type=2 2 2 2 2 2 2 2 2 2 2 2 2 2 2 2 2 2 2 2 2 2 2 2 2 2 2 2 2 2
left_child=-1 -2 3 4 6 21 7 25 -7 -10 23 19 13 -13 15 -8 -16 -18 -5 20 -12 -6 -4 -11 -25 -3 -27 -28 -29 -30
right_child=1 2 22 18 5 8 14 -9 9 10 11 12 -14 -15 16 -17 17 -19 -20 -21 -22 -23 -24 24 -26 26 27 28 29 -31
leaf_value=-0.0031956134052054407 -0.0014517749373952485 -0.0092954965567189646 -0.012938454120608324 0.012295865220284049 -0.003808882761412283 0.0067471636839608303 0.0046425113436977137 -0.0088440172818503981 -0.0069924109256348267 0.0020926164061945696 -0.0087369268119026258 0.00035171200690612173 0.00019661130273451868 0.024039170866901244 -0.004742959518731737 0.023446435453075478 0.015745880508936116 0.0018255422887745833 0.0013292431954205234 -0.014189606350055518 0.004896096618304392 -0.014096433076817181 -0.00051064552849041473 0.027535314535513472 0.0063088797882282837 0.020560084419219127 -0.00047125258339181133 0.0050098371796825185 -0.0026890574055090967 0.0019150235834212118
leaf_weight=9512368 12051676 368841 475781 1070439 1545814 1150987 4082929 1531335 2284409 306729 854845 304933 5561898 294005 1834867 304162 603870 3354778 745727 545364 636900 630679 795192 255181 273058 348288 17611164 6655486 8313635 16618387
leaf_count=9512368 12051676 368841 475781 1070439 1545814 1150987 4082929 1531335 2284409 306729 854845 304933 5561898 294005 1834867 304162 603870 3354778 745727 545364 636900 630679 795192 255181 273058 348288 17611164 6655486 8313635 16618387
internal_value=0 0.00332539 0.00603508 0.00697362 0.00528406 -0.0118917 0.0093656 0.00480133 -0.00211501 -0.00919207 0.00616697 -0.00466029 0.0134209 0.119793 0.0324309 0.0594621 0.0119617 0.0394901 0.0779291 -0.0593434 -0.0291631 -0.0678989 -0.0516292 0.112472 0.165629 0.00766183 0.00841085 0.0070149 0.0135534 0.00379783
internal_weight=0 9.14114e+07 7.93597e+07 7.80887e+07 7.62725e+07 1.46448e+07 6.16277e+07 5.14471e+07 1.24683e+07 1.13173e+07 9.03291e+06 8.19794e+06 6.16084e+06 598938 1.01806e+07 4.38709e+06 5.79352e+06 3.95865e+06 1.81617e+06 2.03711e+06 1.49174e+06 2.17649e+06 1.27097e+06 834968 528239 4.99158e+07 4.9547e+07 4.91987e+07 3.15875e+07 2.4932e+07
internal_count=100923727 91411359 79359683 78088710 76272544 14644802 61627742 51447136 12468309 11317322 9032913 8197945 6160836 598938 10180606 4387091 5793515 3958648 1816166 2037109 1491745 2176493 1270973 834968 528239 49915801 49546960 49198672 31587508 24932022
shrinkage=0.1


Tree=22
num_leaves=31
num_cat=0
split_feature=4 1 5 2 5 4 0 0 0 0 0 5 0 0 0 0 0 0 0 0 5 0 0 0 0 0 0 0 0 0
split_gain=8703.04 3860.52 3438.92 3150.89 2366.75 2205.76 1853.58 2908.61 5618.28 6411.63 2565.43 2271.34 2205.99 5287.58 3127.7 6324.99 3800.66 3620.11 3222.55 3122.98 2659.26 2636.41 2930.5 2396.28 3553.04 2874.06 2132.53 2154.43 5175.25 6607.18
threshold=10.500000000000002 2013.5000000000002 2.5000000000000004 2.5000000000000004 4.5000000000000009 13.500000000000002 81207.500000000015 69445.500000000015 66613.500000000015 68919.500000000015 94511.500000000015 4.5000000000000009 78701.500000000015 78935.500000000015 80694.000000000015 80001.500000000015 80787.500000000015 79772.000000000015 79679.500000000015 77545.500000000015 4.5000000000000009 77369.500000000015 77265.500000000015 76429.500000000015 76987.500000000015 76201.500000000015 65809.500000000015 58685.500000000007 60007.500000000007 59963.500000000007
decision_type=2 2 2 2 2 2 2 2 2 2 2 2 2 2 2 2 2 2 2 2 2 2 2 2 2 2 2 2 2 2
left_child=1 -1 3 -2 -3 -5 7 8 26 11 -8 -10 19 -14 15 17 -16 18 -15 21 -17 22 23 25 -25 -9 27 -4 29 -29
right_child=2 4 6 5 -6 -7 10 12 9 -11 -12 -13 13 14 16 20 -18 -19 -20 -21 -22 -23 -24 24 -26 -27 -28 28 -30 -31
leaf_value=-0.0034040845779883516 -0.0022704889437238306 -0.0002909976651670448 0.0010842852098979327 0.0013587363379481477 -0.0031092782492833796 -0.00040046560034297696 0.0056967872619745324 -0.0012929222074949248 0.015345001745330001 0.0034870107851881112 -0.0019532329954675305 0.034225022357155334 0.021859609230350133 -0.0019368859401516611 -0.020452285864169036 0.0053760214306583605 -0.0018070944603453952 -0.012971626357458061 0.014729911262993037 -0.0085840642293945457 0.017528917904045999 0.013058977062999961 -0.016253049888617289 0.010502619402850431 -0.0027171336958779473 -0.01209554449776986 -0.010924091781954658 0.0059267026076856057 -0.0020533753282360465 0.028996274953796017
leaf_weight=7631330 5711026 17305704 24759273 11768508 3599565 18072480 1882542 1706521 188663 596775 571425 96217 119297 677775 124799 532695 881802 243627 139967 672476 271986 126797 131599 388451 426562 287823 142748 1006141 717531 141622
leaf_count=7631330 5711026 17305704 24759273 11768508 3599565 18072480 1882542 1706521 188663 596775 571425 96217 119297 677775 124799 532695 881802 243627 139967 672476 271986 126797 131599 388451 426562 287823 142748 1006141 717531 141622
internal_value=0 -0.01479 0.00583055 -0.00118529 -0.00776262 0.00293318 0.012602 0.0107068 0.0152454 0.0937898 0.0391542 0.217216 -0.00793312 0.0123062 0.00373928 0.027974 -0.0411874 -0.0227189 0.0091585 -0.0241233 0.0948376 -0.0105944 -0.0166814 -0.0098494 0.0358366 -0.0285195 0.0126583 0.0133119 0.0460852 0.0877325
internal_weight=0 2.85366e+07 7.23871e+07 3.5552e+07 2.09053e+07 2.9841e+07 3.68351e+07 3.43811e+07 2.7649e+07 881655 2.45397e+06 284880 6.73218e+06 2.99195e+06 2.87265e+06 1.86605e+06 1.0066e+06 1.06137e+06 817742 3.74023e+06 804681 3.06775e+06 2.94096e+06 2.80936e+06 815013 1.99434e+06 2.67673e+07 2.66246e+07 1.86529e+06 1.14776e+06
internal_count=100923727 28536599 72387128 35552014 20905269 29840988 36835114 34381147 27648970 881655 2453967 284880 6732177 2991948 2872651 1866050 1006601 1061369 817742 3740229 804681 3067753 2940956 2809357 815013 1994344 26767315 26624567 1865294 1147763
shrinkage=0.1


Tree=23
num_leaves=31
num_cat=0
split_feature=4 5 4 1 1 0 2 0 0 0 0 0 0 1 0 0 0 0 0 0 0 0 0 0 0 0 0 0 0 0
split_gain=7816.63 3556.3 3197.82 3244.78 4243.29 3405.65 2241.6 2221.15 1888.38 1616.22 1933.4 2071.02 6769.91 2598.65 2563.14 15350.2 6715.48 3242.49 2078.62 5890.41 3560.56 2303.79 3102.21 2248.62 2136.28 2197.91 2082.4 3034.6 4104.78 2078.71
threshold=8.5000000000000018 1.0000000180025095e-35 17.500000000000004 2013.5000000000002 2017.5000000000002 120106.00000000001 5.5000000000000009 1025.5000000000002 81693.500000000015 1013.5000000000001 4433.5000000000009 14019.500000000002 24411.500000000004 2014.5000000000002 36813.500000000007 37821.500000000007 37183.000000000007 31893.500000000004 58451.500000000007 69445.500000000015 58181.500000000007 81207.500000000015 80949.500000000015 90535.500000000015 79653.500000000015 77545.500000000015 59483.500000000007 60007.500000000007 66613.500000000015 80694.000000000015
decision_type=2 2 2 2 2 2 2 2 2 2 2 2 2 2 2 2 2 2 2 2 2 2 2 2 2 2 2 2 2 2
left_child=7 -2 3 5 -5 6 -3 -1 -9 -4 -11 13 -13 -12 17 16 -16 -14 20 26 -17 22 24 -23 25 -21 -20 -28 -29 -26
right_child=1 2 9 4 -6 -7 -8 8 -10 10 11 12 14 -15 15 18 -18 -19 19 21 -22 23 -24 -25 29 -27 27 28 -30 -31
leaf_value=0.013568858561611805 -0.0011903563834388554 -0.0021590208719883871 -0.019466420353621307 0.0013444275709554544 -0.00063151445261414236 0.019076625771947488 6.2806042841050445e-05 -0.0025491582896965139 -0.009085494241617597 0.010343837078343909 0.0054042781720351398 0.015574533884582298 0.0057473054976791759 -0.0046033875216310097 0.018455256483433578 -2.8341580153276092e-06 0.059381087205752928 -0.0053270846847651362 0.0033891484808702094 -0.00066768753866048973 -0.022092050848822795 0.010034816272312216 -0.021099949621329064 -0.0059972854382576782 0.010136781692348048 -0.013036723433304635 0.025383062215444552 -0.0014003228231427047 0.018881655014806056 -0.0071731717641643662
leaf_weight=82901 13878452 7866330 33104 36264818 15518941 85937 10741233 8964546 464921 314551 379317 405753 386167 821195 124570 1085191 59124 838367 280230 581472 78233 357949 80307 115784 265314 190801 164177 190253 209851 93938
leaf_count=82901 13878451 7866331 33104 36264818 15518941 85937 10741233 8964546 464921 314551 379317 405753 386167 821195 124570 1085191 59124 838367 280230 581472 78233 357949 80307 115784 265314 190801 164177 190253 209851 93938
internal_value=0 0.00283895 0.00547787 0.00344585 0.00752263 -0.00784742 -0.00876469 -0.0272815 -0.0287143 0.0257752 0.0268144 0.0232213 0.0314249 -0.0144134 0.0215374 0.034134 0.316277 -0.0183468 0.0201018 0.0361886 -0.014882 0.00203507 -0.02108 0.0611645 -0.00760093 -0.0372363 0.104356 0.13935 0.0923739 0.0561054
internal_weight=0 9.14114e+07 7.75329e+07 7.04773e+07 5.17838e+07 1.86935e+07 1.86076e+07 9.51237e+06 9.42947e+06 7.05565e+06 7.02254e+06 6.70799e+06 5.50748e+06 1.20051e+06 5.10173e+06 3.87719e+06 183694 1.22453e+06 3.6935e+06 2.53008e+06 1.16342e+06 1.68556e+06 1.21183e+06 473733 1.13152e+06 772273 844511 564281 400104 359252
internal_count=100923727 91411359 77532908 70477260 51783759 18693501 18607564 9512368 9429467 7055648 7022544 6707993 5507481 1200512 5101728 3877194 183694 1224534 3693500 2530076 1163424 1685565 1211832 473733 1131525 772273 844511 564281 400104 359252
shrinkage=0.1


Tree=24
num_leaves=31
num_cat=0
split_feature=4 2 1 1 0 0 4 4 4 1 0 3 2 3 5 0 0 4 1 0 5 0 1 5 1 0 0 0 0 0
split_gain=6331.47 3326.27 2687.27 2902.3 2579.47 12543.5 2666.25 3096.3 4941.21 2758.49 1799.13 1728.06 2508.32 2141.92 1667.51 1610.06 1761.44 1580.69 1551.96 1768.12 1516.81 1507.53 1484.54 1429.11 1372.35 1448.2 2705.9 5856.43 5063.52 4029.91
threshold=8.5000000000000018 2.5000000000000004 2018.5000000000002 2013.5000000000002 1013.5000000000001 1025.5000000000002 17.500000000000004 14.500000000000002 11.500000000000002 2014.5000000000002 1025.5000000000002 13.500000000000002 1.5000000000000002 7.5000000000000009 4.5000000000000009 60007.500000000007 58815.500000000007 7.5000000000000009 2016.5000000000002 120106.00000000001 1.0000000180025095e-35 81693.500000000015 2013.5000000000002 4.5000000000000009 2014.5000000000002 4433.5000000000009 14019.500000000002 28957.500000000004 35833.500000000007 42339.500000000007
decision_type=2 2 2 2 2 2 2 2 2 2 2 2 2 2 2 2 2 2 2 2 2 2 2 2 2 2 2 2 2 2
left_child=10 2 3 -2 -3 -6 7 8 9 14 -1 12 -4 20 15 16 -7 -12 19 22 -14 23 -10 -19 -8 -26 -27 -28 -29 -30
right_child=1 4 11 -5 5 6 24 -9 18 -11 17 -13 13 -15 -16 -17 -18 21 -20 -21 -22 -23 -24 -25 25 26 27 28 29 -31
leaf_value=0.012211972289078225 -0.0029261095585523134 -0.0079796961119600052 -0.0022385594735258537 0.00036166194446195346 0.019878963493979225 -0.00038865505631611075 0.0044406355493801673 -0.00070364749694109446 0.0010985286660522696 0.00060037680478876093 0.038689120965377799 -0.0019505364173073227 -0.024492523276537344 -0.020726270447389325 -0.0045156583450432696 -0.0032055329831265677 0.0098227722186051327 -0.0017606826699568924 0.000641495356672732 0.017743426729761449 -0.0032831516386097014 -0.0081769446108081508 0.0030900670453211055 -0.0051072748002581134 0.0101956841233649 -0.0042138154586449988 0.013326714374350493 -0.0085449961641657409 0.011905034106170907 0.00090347415839036661
leaf_weight=82901 3778174 355154 402317 9279427 334693 5312517 2163367 21555134 6336159 14211929 9270 1094716 40437 202536 1628661 2321588 174473 7413979 8094586 74250 202965 464921 9145363 1541297 179923 803835 418626 495775 386109 2418645
leaf_count=82901 3778174 355154 402317 9279427 334693 5312517 2163367 21555134 6336159 14211929 9270 1094716 40437 202536 1628661 2321588 174473 7413979 8094586 74250 202965 464921 9145363 1541297 179923 803835 418626 495775 386109 2418645
internal_value=0 0.00255505 -0.0110595 -0.00589644 0.00522778 0.00562482 0.00477102 0.00289716 0.00742407 -0.00279706 -0.0245534 -0.0457571 -0.0796364 -0.131287 -0.0160506 -0.00997986 -0.000639564 -0.0258429 0.0176447 0.0234882 -0.0680672 -0.0262491 0.0227499 -0.0233667 0.0235619 0.0139734 0.0104734 0.0218446 0.00771218 0.0241797
internal_weight=0 9.14114e+07 1.50006e+07 1.30576e+07 7.64108e+07 7.60556e+07 7.57209e+07 6.88547e+07 4.72995e+07 2.36492e+07 9.51237e+06 1.94297e+06 848255 445938 9.43724e+06 7.80858e+06 5.48699e+06 9.42947e+06 2.36504e+07 1.55558e+07 243402 9.4202e+06 1.54815e+07 8.95528e+06 6.86628e+06 4.70291e+06 4.52299e+06 3.71916e+06 3.30053e+06 2.80475e+06
internal_count=100923727 91411359 15000572 13057601 76410787 76055633 75720940 68854660 47299526 23649168 9512368 1942971 848255 445938 9437239 7808578 5486990 9429467 23650358 15555772 243402 9420197 15481522 8955276 6866280 4702913 4522990 3719155 3300529 2804754
shrinkage=0.1


Tree=25
num_leaves=31
num_cat=0
split_feature=4 5 0 0 0 0 0 0 0 0 0 0 0 0 0 0 0 0 0 0 0 0 0 0 0 0 0 1 0 5
split_gain=5234.44 2782.53 2233.35 5301 5336.56 2161.63 7390.14 4519.85 5493.93 4029.38 4496.37 4397.23 8654.28 4469.87 4258.27 4948.84 4159.35 4026.99 4921.23 3878.08 3835.29 3652.71 3390.93 8693.37 6113.08 8916.88 3309.53 4172.61 5735.95 2886.1
threshold=9.5000000000000018 1.0000000180025095e-35 1279.5000000000002 1013.5000000000001 1025.5000000000002 81085.500000000015 80949.500000000015 87285.500000000015 84671.500000000015 75227.000000000015 78071.000000000015 58421.500000000007 58181.500000000007 58197.500000000007 77545.500000000015 76429.500000000015 76719.500000000015 79029.500000000015 79356.000000000015 76623.500000000015 81693.500000000015 82425.500000000015 60007.500000000007 59963.500000000007 66613.500000000015 68919.500000000015 77369.500000000015 2013.5000000000002 77265.500000000015 4.5000000000000009
decision_type=2 2 2 2 2 2 2 2 2 2 2 2 2 2 2 2 2 2 2 2 2 2 2 2 2 2 2 2 2 2
left_child=-1 -2 3 -3 -5 6 9 8 20 11 14 12 -4 -14 15 -11 19 -12 -19 -17 -7 -22 23 -13 -24 -26 27 -18 -29 -10
right_child=1 2 5 4 -6 7 -8 -9 29 10 17 22 13 -15 -16 16 26 18 -20 -21 21 -23 24 -25 25 -27 -28 28 -30 -31
leaf_value=-0.0014942541099950252 -0.0010306137519086227 -0.0070155935527296855 0.00056598849892627173 0.018794919974390548 0.0035418881342146797 0.004576611949453393 -0.016913497725891954 -0.0017285984639277118 0.0083177096338123077 -0.0057629701449919118 0.0074540963655263795 0.0037378482150436376 -0.019461423099695355 -0.0046843418955029598 -0.009429614756472738 0.00039344732585720911 -0.012548659230618313 -0.013602461199079513 0.00037732654599184889 0.018089126542484308 -0.013693119652778918 0.0010166080342788515 -0.0039922541778600502 0.02262106910895359 0.01534863583764039 0.0013037755550109184 0.0096119605337505933 0.0038330458911277399 -0.016623628904533057 0.022268547925287221
leaf_weight=19024314 12434003 323770 42437451 306519 911408 1912490 247178 1750936 730730 1904350 746517 3578657 280356 758549 993522 246028 350445 268956 3949843 249379 250823 516306 1617165 261625 533148 2971452 237492 777885 166386 186044
leaf_count=19024314 12434002 323771 42437451 306519 911408 1912490 247178 1750936 730730 1904350 746517 3578657 280356 758549 993522 246028 350445 268956 3949843 249379 250823 516306 1617165 261625 533148 2971452 237492 777885 166386 186044
internal_value=0 0.00347098 0.00593703 0.0435732 0.0738066 0.00508278 0.0034337 0.024381 0.0446669 0.00411805 -0.0143952 0.00760997 0.00345238 -0.0867204 -0.0358026 -0.0210225 0.0133592 0.0068405 -0.0051391 0.0930113 0.0218055 -0.0379293 0.0277791 0.050243 0.0109358 0.0344039 -0.0123947 -0.0322996 0.00228462 0.111488
internal_weight=0 8.18994e+07 6.94654e+07 1.5417e+06 1.21793e+06 6.79237e+07 6.25764e+07 5.34733e+06 3.59639e+06 6.23292e+07 9.8908e+06 5.24384e+07 4.34764e+07 1.0389e+06 4.92549e+06 3.93196e+06 2.02762e+06 4.96532e+06 4.2188e+06 495407 2.67962e+06 767129 8.96205e+06 3.84028e+06 5.12176e+06 3.5046e+06 1.53221e+06 1.29472e+06 944271 916774
internal_count=100923727 81899413 69465411 1541698 1217927 67923713 62576384 5347329 3596393 62329206 9890803 52438403 43476356 1038905 4925487 3931965 2027615 4965316 4218799 495407 2679619 767129 8962047 3840282 5121765 3504600 1532208 1294716 944271 916774
shrinkage=0.1


Tree=26
num_leaves=31
num_cat=0
split_feature=4 2 1 1 0 0 0 0 0 0 0 0 0 0 0 0 0 0 0 0 0 0 0 0 0 0 0 0 0 1
split_gain=4458.37 2708.51 2187.56 2325.37 2134.51 6494.32 7802.2 7718.72 7242.12 6335.28 4395.11 5504.07 5056.54 5600.75 4779.22 6467.19 5758.94 3944.97 10205.4 6627.65 3729.85 9493.88 4672.11 6198.26 5649.83 3287.79 5035.33 4833.24 4271.84 2866.75
threshold=8.5000000000000018 2.5000000000000004 2018.5000000000002 2013.5000000000002 69445.500000000015 80001.500000000015 80247.500000000015 80185.500000000015 79772.000000000015 69293.500000000015 81085.500000000015 80949.500000000015 87285.500000000015 84962.000000000015 81159.500000000015 81207.500000000015 81453.500000000015 80860.000000000015 80694.000000000015 80891.500000000015 58421.500000000007 58077.500000000007 60007.500000000007 63125.500000000007 59963.500000000007 78071.000000000015 79029.500000000015 79356.000000000015 77545.500000000015 2014.5000000000002
decision_type=2 2 2 2 2 2 2 2 2 2 2 2 2 2 2 2 2 2 2 2 2 2 2 2 2 2 2 2 2 2
left_child=-1 2 3 -2 9 8 7 -7 25 20 11 17 13 14 -12 -16 -17 18 -8 -19 21 -3 24 -24 -22 28 -27 -28 -6 -9
right_child=1 4 -4 -5 5 6 10 29 -10 -11 12 -13 -14 -15 15 16 -18 19 -20 -21 22 -23 23 -25 -26 26 27 -29 -30 -31
leaf_value=-0.002060379989850343 -0.0026396853374068482 0.00061063405138756443 -0.0041447094888595855 0.00030321753933488615 -0.0015810043367116282 0.0013655347651644143 0.0020427682090678793 0.037206187436051773 -0.01367607198619521 0.015136236291918521 0.011552182539768484 -0.016370653484776471 -0.0019791981704959114 0.011821565750381081 -0.012666002300033397 0.0094517511227996745 -0.00096301110204906597 0.018738324631928743 -0.014793397374700798 -0.0045735263990320614 0.0039815763646285319 -0.0075700754580265471 -0.0073146713797106067 0.0025414370655761297 0.018589941441116063 0.0079656463437683435 -0.01305006246251845 0.001184451476056933 -0.0083435881039196063 0.016533600972083239
leaf_weight=9512368 3778174 48058511 1942971 9279427 6356259 289985 1085975 110037 519757 304928 482526 268474 1938961 784208 317222 799316 1581304 236390 538591 251932 3930323 1461755 867871 2409547 283869 831680 302196 1132322 1095011 171837
leaf_count=9512368 3778174 48058511 1942971 9279427 6356259 289985 1085975 110037 519757 304928 482526 268474 1938961 784208 317222 799316 1581304 236390 538591 251932 3930323 1461755 867871 2409547 283869 831680 302196 1132322 1095011 171837
internal_value=0 0.00214405 -0.0101413 -0.00548302 0.00455586 -0.00460139 0.0152263 0.128198 -0.0217554 0.00760642 0.0074285 -0.0288363 0.0220569 0.0425241 0.0238602 0.00746592 0.0253385 -0.011699 -0.0353891 0.0671142 0.00683754 0.00369153 0.0276329 -0.000684927 0.049656 -0.0156041 0.0177494 -0.018142 -0.0257481 0.246037
internal_weight=0 9.14114e+07 1.50006e+07 1.30576e+07 7.64108e+07 1.9094e+07 8.85676e+06 571859 1.02372e+07 5.73168e+07 8.2849e+06 2.38136e+06 5.90354e+06 3.96458e+06 3.18037e+06 2.69784e+06 2.38062e+06 2.11289e+06 1.62457e+06 488322 5.70119e+07 4.95203e+07 7.49161e+06 3.27742e+06 4.21419e+06 9.71747e+06 2.2662e+06 1.43452e+06 7.45127e+06 281874
internal_count=100923727 91411359 15000572 13057601 76410787 19093983 8856758 571859 10237225 57316804 8284899 2381362 5903537 3964576 3180368 2697842 2380620 2112888 1624566 488322 57011876 49520266 7491610 3277418 4214192 9717468 2266198 1434518 7451270 281874
shrinkage=0.1


Tree=27
num_leaves=31
num_cat=0
split_feature=4 4 5 5 4 0 0 4 1 1 0 1 4 0 0 0 0 1 0 0 0 1 0 0 0 0 0 0 0 0
split_gain=3953.59 3001.79 3914.22 2780.02 2705.45 2547.22 3308.58 2289.02 2051.86 1969.72 1624 1508.81 1469.36 1385.92 4229.8 1964.94 1445.6 1368.54 1330.57 1661.85 1222.09 1195.18 1175.04 1948.93 1271.18 1157.27 3508.27 2766.08 2025.23 3399.19
threshold=10.500000000000002 13.500000000000002 4.5000000000000009 4.5000000000000009 11.500000000000002 59483.500000000007 59013.500000000007 17.500000000000004 2017.5000000000002 2012.5000000000002 63125.500000000007 2014.5000000000002 16.500000000000004 24829.500000000004 31491.500000000004 27400.000000000004 23781.500000000004 2014.5000000000002 75227.000000000015 76623.500000000015 28957.500000000004 2015.5000000000002 32029.500000000004 32215.500000000004 32123.500000000004 58421.500000000007 58077.500000000007 58451.500000000007 55639.500000000007 56683.500000000007
decision_type=2 2 2 2 2 2 2 2 2 2 2 2 2 2 2 2 2 2 2 2 2 2 2 2 2 2 2 2 2 2
left_child=3 4 7 5 17 6 13 8 9 -3 -7 -12 -4 16 15 -15 -1 -2 -13 -20 -17 -5 -16 24 -24 26 28 -27 -25 -30
right_child=1 2 12 21 -6 10 -8 -9 -10 -11 11 18 -14 14 22 20 -18 -19 19 -21 -22 -23 23 25 -26 27 -28 -29 29 -31
leaf_value=-0.00068142597956078257 -0.0016663136153651855 -0.0025376906714572071 0.00092240006276687447 -0.0046488313708930732 0.0018798195713124726 -0.0076922948470741067 0.012920525408383064 0.0010842369631374237 -0.0025016239734466472 -7.2916134942210947e-05 -0.0035544232688994831 0.0030112707198502162 0.0038488371109092478 0.0012322361589388838 -0.0063270448182103037 0.021532982760597646 -0.0060177381141760244 0.00078637450990182546 -0.0070885793776681973 -0.00051916800998989148 0.0090824095125602421 -0.0015248991522310671 0.0020018682826961199 -0.00042188558414718493 0.018360771657142276 0.019492938453369468 -0.0087116081437150494 0.001542442868587012 0.013143767045752467 0.00044406204286108762
leaf_weight=6040353 3769438 3910750 4901990 2573063 19022833 485789 200203 6886879 6549600 18968102 2672361 854228 2639615 296523 274042 97642 554229 5737921 446709 2790578 409326 2337083 93216 6039373 96856 97044 464867 743831 309737 659546
leaf_count=6040353 3769438 3910751 4901989 2573063 19022833 485789 200203 6886879 6549600 18968102 2672361 854228 2639615 296523 274042 97642 554229 5737921 446709 2790578 409326 2337083 93216 6039373 96856 97044 464867 743831 309737 659546
internal_value=0 0.00392979 -0.0012641 -0.00996848 0.0119139 -0.00546891 0.0014395 -0.00556927 -0.00940994 -0.00494227 -0.0210748 -0.0170637 0.0194667 -0.000141739 0.00753702 0.0769838 -0.0112991 -0.00186057 -0.00499326 -0.0142567 0.114804 -0.0316193 0.00118061 0.00325743 0.10338 0.00096858 -0.00298878 0.0361408 0.00259118 0.0450229
internal_weight=0 7.23871e+07 4.38569e+07 2.85366e+07 2.85302e+07 2.36265e+07 1.63768e+07 3.63153e+07 2.94285e+07 2.28789e+07 7.24966e+06 6.76388e+06 7.5416e+06 1.61766e+07 9.582e+06 803491 6.59458e+06 9.50736e+06 4.09152e+06 3.23729e+06 506968 4.91015e+06 8.77851e+06 8.50447e+06 190072 8.3144e+06 7.47352e+06 840875 7.00866e+06 969283
internal_count=100923727 72387128 43856936 28536599 28530192 23626453 16376788 36315332 29428453 22878853 7249665 6763876 7541604 16176585 9582003 803491 6594582 9507359 4091515 3237287 506968 4910146 8778512 8504470 190072 8314398 7473523 840875 7008656 969283
shrinkage=0.1


Tree=28
num_leaves=31
num_cat=0
split_feature=1 0 0 0 0 0 0 0 0 0 0 0 0 0 0 0 0 0 1 0 0 4 0 0 0 0 0 0 0 0
split_gain=3269.04 3443.09 4782.13 5340.48 4194.09 2975.75 5611.31 3743.24 6180.38 8272.55 5800.81 4417.56 6024.22 3605.59 3349.23 5024.63 3273.37 8185.26 3142.13 3110.26 4309.38 3088.02 3011.51 11375.2 7010.78 5500.99 5623.49 4575.07 2897.85 5690.1
threshold=2012.5000000000002 94511.500000000015 84962.000000000015 87253.500000000015 117905.50000000001 75227.000000000015 76429.500000000015 77125.500000000015 78071.000000000015 79029.500000000015 80001.500000000015 80247.500000000015 80185.500000000015 76201.500000000015 78701.500000000015 78935.500000000015 58421.500000000007 58077.500000000007 2017.5000000000002 79772.000000000015 79356.000000000015 17.500000000000004 80860.000000000015 80694.000000000015 80891.500000000015 81085.500000000015 81693.500000000015 82425.500000000015 81487.500000000015 81453.500000000015
decision_type=2 2 2 2 2 2 2 2 2 2 2 2 2 2 2 2 2 2 2 2 2 2 2 2 2 2 2 2 2 2
left_child=-1 2 5 -4 -3 16 13 -8 -9 14 19 12 -12 -7 -10 18 17 -2 -16 20 -11 -18 23 -13 -24 -26 28 -28 29 -27
right_child=1 4 3 -5 -6 6 7 8 9 10 11 22 -14 -15 15 -17 21 -19 -20 -21 -22 -23 24 -25 25 26 27 -29 -30 -31
leaf_value=-0.00145832055159751 0.00038901466000380923 -0.01171721355070255 0.012908881356290392 0.0013673232180204116 -0.00043955249751702975 -0.0030016151478233621 0.0049241774930045591 -0.0051970291577952054 0.0013988125596731717 -0.01266483653657698 -0.00071872263665250695 0.0022184258446072873 0.018427281258085133 -0.011536455088868166 0.029163206009469197 0.0049381989871498909 0.0014968712680555631 -0.0066696176362797373 0.0043468404729289194 -0.011101544969144218 -9.206679436735073e-05 0.0070428458130415358 0.017033247893656466 -0.01433540160062597 -0.0084626587959926638 0.0055693198921150846 -0.013847904916222779 1.2149427904331572e-05 0.014220841961804915 -0.0089122654691291808
leaf_weight=13339682 55096249 529204 622786 1125353 874991 1706889 1272476 2522616 338856 344969 335996 1234057 321678 697140 219431 304821 10094861 1693315 66478 607597 1299821 1114857 270729 625519 597130 1834263 322624 909681 281233 318425
leaf_count=13339682 55096249 529204 622786 1125353 874991 1706889 1272476 2522616 338856 344969 335996 1234057 321678 697140 219431 304821 10094861 1693315 66478 607597 1299821 1114857 270729 625519 597130 1834263 322624 909681 281233 318425
internal_value=0 0.00222113 0.00302146 0.0547908 -0.0468981 0.00194959 -0.0101271 -0.00247731 -0.00763658 0.00329214 -0.00569514 0.00841729 0.0864587 -0.0547662 0.0932409 0.138702 0.00486799 0.00178545 0.23393 -0.0498756 -0.0272901 0.0204844 0.000389682 -0.033499 0.0142886 0.00437955 0.0188763 -0.0361649 0.0467438 0.0342721
internal_weight=0 8.7584e+07 8.61798e+07 1.74814e+06 1.4042e+06 8.44317e+07 1.64324e+07 1.40284e+07 1.27559e+07 1.02333e+07 9.30372e+06 7.05134e+06 657674 2.40403e+06 929586 590730 6.79993e+07 5.67896e+07 285909 2.25239e+06 1.64479e+06 1.12097e+07 6.39366e+06 1.85958e+06 4.53408e+06 4.26336e+06 3.66623e+06 1.2323e+06 2.43392e+06 2.15269e+06
internal_count=100923727 87584045 86179850 1748139 1404195 84431711 16432429 14028400 12755924 10233308 9303722 7051335 657674 2404029 929586 590730 67999282 56789564 285909 2252387 1644790 11209718 6393661 1859576 4534085 4263356 3666226 1232305 2433921 2152688
shrinkage=0.1


Tree=29
num_leaves=31
num_cat=0
split_feature=4 5 0 0 4 1 1 0 2 4 0 0 1 4 4 2 1 0 0 0 0 0 0 0 0 0 0 0 0 0
split_gain=3208.91 2355.37 2136.13 8356.62 1859.3 1779.55 2616.01 3164.08 1747.78 1552.23 1539.06 1526.7 1515.64 1951.52 1933.4 1342.09 1311.62 1214.61 5194.88 3233.78 5487.44 5971.58 7924.94 4438.22 7192.81 4054.34 4245 3767.62 3698.02 3153.84
threshold=8.5000000000000018 1.0000000180025095e-35 1013.5000000000001 1025.5000000000002 18.500000000000004 2017.5000000000002 2013.5000000000002 120106.00000000001 1.5000000000000002 16.500000000000004 130750.50000000001 1220.0000000000002 2017.5000000000002 19.500000000000004 19.500000000000004 5.5000000000000009 2014.5000000000002 14677.500000000002 31491.500000000004 35833.500000000007 35699.500000000007 35729.500000000007 35809.500000000007 35525.500000000007 35425.500000000007 42339.500000000007 37137.500000000007 36424.000000000007 37821.500000000007 11494.000000000002
decision_type=2 2 2 2 2 2 2 2 2 2 2 2 2 2 2 2 2 2 2 2 2 2 2 2 2 2 2 2 2 2
left_child=11 15 -3 -4 5 6 7 8 -5 -10 -7 -1 13 -6 -14 -2 -13 29 -19 20 23 -22 -23 24 -20 26 27 -21 -28 -8
right_child=1 2 3 4 12 10 17 -9 9 -11 -12 16 14 -15 -16 -17 -18 18 19 25 21 22 -24 -25 -26 -27 28 -29 -30 -31
