tree
version=v2
num_class=1
num_tree_per_iteration=1
label_index=0
max_feature_idx=11
objective=regression
average_output
feature_names=SourceElementKey Month DayOfWeek latitude longitude IsWeekend paidparkingarea Hour Day PRCP SNOW TAVG
feature_infos=26:27:28:35:36:41:42:2:3:4:5:6:7:8:9:10:11:12:13:14:15:16:17:18:19:20:29:30:31:32:33:34:37:38:39:40:43:44:45:46:47:48:49:50:51:52:53:54:60:61:62:63:64:65:66:67:68:69:70:71:72:73:74:75:76:77:78:79:80:81:82:83:84:85:86:87:88:89:90:91:92:93:94:95:96:97:98:99:0:1:21:22:23:24:25:55:56:57:58:59 [1:6] 2:1:4:5:3:0 [47.557435929999997:47.67537128] [-122.38484953:-122.28608789] [0:1] 2:10:4:13:6:1:7:12:9:3:0:11:5:8 1:0:2:3:4:5:6:7:8:9:10:11:12:13 [1:31] [0:0.81999999999999995] [0:2.6000000000000001] [26:74.5]
tree_sizes=3378 3464 3362 3094 3389 3461 3419 3440 3084 3516 3076 3352 3415 3371 3402 3371 3401 3398 3348 3105 3468 3098 3099 3341 3371 3406 3525 3419 3416 3414 3411 3213 3365 3113 3120 3520 3419 3419 3416 3519 3414 3397 3443 3393 3397 3406 3400 3420 3405 3458 3398 3419 3491 3377 3381 3121 3363 3430 3385 3473 3087 3465 3102 3446 3372 3087 3502 3375 3390 3392 3382 3398 3391 3495 3360 3516 3085 3467 3428 3080 3418 3392 3405 3393 3425 3406 3228 3410 3119 3406 3408 3409 3404 3400 3415 3436 3456 3445 3436 3547 3466 3537 3393 3411 3121 3414 3209 3103 3418 3410 3421 3416 3512 3401 3416 3488 3403 3419 3419 3363 3352 3376 3421 3430 3376 3083 3345 3076 3345 3360 3410 3411 3410 3467 3432 3453 3495 3412 3418 3384 3167 3167 3458 3399 3405 3379 3091 3397 3424 3498 3100 3435 3396 3140 3435 3101 3423 3373 3412 3331 3377 3377 3531 3414 3377 3351 3405 3370 3380 3511 3418 3406 3381 3418 3481 3388 3412 3115 3412 3397 3087 3436 3106 3460 3405 3421 3109 3363 3097 3414 3431 3459 3468 3485 3424 3432 3426 3371 3425 3467 3350 3321 3121 3302 3121 3386 3400 3121 3519 3401 3399 3395 3398 3453 3384 3428 3497 3382 3497 3374 3478 3474 3097 3431 3386 3104 3382 3102 3390 3099 3392 3421 3413 3391 3403 3078 3490 3415 3483 3437 3373 3502 3054 3331 3400 3389 3105 3421 3507 3486 3401 3421 3425 3421 3548 3432 3431 3435 3500 3431 3499 3092 3365 3460 3242 3098 3435 3107 3092 3436 3453 3108 3526 3394 3108 3424 3399 3401 3503 3350 3385 3358 3534 3412 3372 3434 3497 3376 3430 3415 3406 3380 3468 3083 3116 3484 3422 3515 3416 3411 3404 3446 3500 3340 3365 3449 3131 3377 3438 3108 3358 3371 3483 3371 3359 3407 3370 3471 3417 3417 3409 3430 3430 3111 3432 3477 3480 3374 3362 3445 3097 3367 3351 3453 3107 3217 3361 3499 3499 3357 3405 3104 3382 3410 3396 3120 3427 3365 3434 3442 3390 3383 3430 3068 3490 3543 3468 3474 3423 3077 3524 3344 3377 3367 3392 3114 3399 3467 3411 3470 3365 3376 3376 3372 3487 3464 3450 3396 3468 3465 3431 3516 3434 3434 3516 3396 3503 3088 3218 3467 3416 3412 3461 3455 3110 3364 3386 3368 3380 3377 3165 3454 3449 3401 3425 3405 3400 3396 3101 3392 3444 3435 3391 3498 3392 3423 3425 3402 3423 3083 3149 3372 3081 3095 3387 3382 3431 3376 3437 3382 3453 3454 3454 3447 3403 3353 3506 3389 3406 3510 3089 3388 3106 3394 3394 3158 3158 3412 3412 3365 3445 3488 3084 3474 3459 3417 3397 3404 3100 3213 3365 3393 3395 3418 3517 3576 3360 3513 3524 3469 3514 3398 3398 3094 3397 3463 3469 3378 3469 3528 3365 3237 3344 3577 3530 3435 3512 3429 3448 3520 3368 3117 3394 3401 3491 3418 3115 3567 3471 3458 3403 3087 3403 3375 3120 3505 3370 3385 3400 3385 3490 3430 3503 3393 3089 3389 3399 3477 3484 3392 3376 3391 3434 3405 3078 3378 3479 3530 3406 3418 3400 3391 3361 3394 3480 3401 3417 3401 3388 3416 3432 3372 3403 3489 3403 3445 3505 3128 3389 3118 3394 3356 3357 3393 3450 3129 3109 3413 3422 3416 3401 3380 3402 3400 3419 3440 3440 3441 3117 3490 3396 3398 3373 3346 3424 3098 3369 3476 3476 3098 3403 3381 3369 3475 3096 3473 3384 3496 3392 3475 3363 3359 3202 3384 3491 3424 3394 3482 3436 3383 3356 3363 3377 3400 3377 3446 3380 3458 3425 3387 3410 3405 3526 3532 3101 3496 3387 3386 3399 3101 3452 3419 3401 3457 3416 3344 3384 3343 3445 3431 3377 3430 3391 3392 3396 3093 3390 3529 3394 3394 3373 3115 3077 3368 3368 3086 3112 3425 3421 3428 3381 3374 3376 3136 3381 3437 3393 3511 3496 3442 3413 3536 3390 3089 3488 3349 3510 3385 3366 3366 3500 3082 3437 3447 3474 3392 3381 3422 3422 3444 3497 3373 3123 3123 3393 3467 3439 3102 3380 3380 3453 3422 3436 3464 3453 3379 3381 3520 3370 3390 3390 3389 3410 3402 3410 3479 3383 3358 3377 3373 3353 3385 3385 3505 3385 3469 3095 3476 3378 3391 3360 3138 3087 3525 3361 3510 3410 3474 3422 3499 3393 3373 3435 3419 3419 3346 3348 3350 3358 3406 3504 3564 3146 3564 3493 3365 3119 3365 3368 3364 3515 3510 3533 3479 3098 3409 3084 3392 3435 3513 3136 3104 3102 3503 3366 3404 3408 3464 3408 3411 3463 3465 3087 3438 3464 3388 3386 3382 3383 3463 3087 3380 3427 3397 3380 3370 3448 3482 3379 3122 3401 3525 3377 3336 3526 3357 3343 3418 3344 3355 3369 3092 3485 3144 3376 3445 3498 3472 3453 3467 3058 3399 3493 3403 3389 3351 3408 3228 3354 3401 3396 3369 3361 3374 3476 3480 3393 3407 3445 3359 3093 3388 3389 3367 3093 3402 3397 3086 3084 3412 3370 3075 3536 3355 3094 3406 3487 3361 3409 3415 3428 3376 3414 3427 3427 3441 3409 3494 3519 3391 3445 3399 3399 3426 3370 3408 3423 3417 3408 3398 3115 3228 3477 3488 3409 3078 3364 3396 3364 3384 3395 3375 3381 3506 3441 3081 3389 3357 3081 3155 3485 3391 3122 3435 3482 3509 3400 3424 3396 3514 3127 3378 3381 3378 3358 3403 3489 3386 3417 3405 3486 3453 3422 3474 3451 3403 3418 3547 3512 3403 3487 3341 3396 3077 3378 3403 3223 3432 3431 3431 3166 3443 3520 3123 3524 3415 3459 3398 3456 3513 3405 3423 3405 3525 3105 3493 3469 3463 3093 3480 3430 3407 3396 3506 3375 3422 3432 3497 3441 3432 3085 3428 3428 3221 3385 3123 3408 3411 3490 3418 3397 3374 3370 3359 3537 3401 3089 3387 3104 3089 3506 3392 3521 3431 3104 3468 3465 3351 3522 3352 3392 3400 3383 3406 3477 3389 3399 3340 3395 3391

Tree=0
num_leaves=40
num_cat=29
split_feature=10 2 5 7 0 0 7 0 0 7 0 7 0 0 7 0 0 11 11 11 7 2 3 0 0 2 7 0 0 7 11 11 8 11 7 7 7 0 0
split_gain=29.2703 18.7605 9.21665 32.7795 22.0365 8.87467 7.10964 6.33742 4.60948 3.89923 3.71035 3.20577 3.19353 2.76274 2.73682 1.69373 1.57759 1.41673 1.37871 4.8973 13.8184 30.0591 1.98269 1.28873 1.28199 1.1894 2.46189 1.64744 1.21689 1.20529 1.86115 1.53202 4.11349 1.38958 1.16722 1.15885 1.13182 1.62272 1.01338
threshold=0.55000000000000016 0 1.0000000180025095e-35 1 2 3 4 5 6 7 8 9 10 11 12 13 14 43.250000000000007 57.250000000000007 56.750000000000007 15 16 47.611349465000011 17 18 19 20 21 22 23 37.250000000000007 45.750000000000007 4.5000000000000009 36.250000000000007 24 25 26 27 28
decision_type=2 1 2 1 1 1 1 1 1 1 1 1 1 1 1 1 1 2 2 2 1 1 2 1 1 1 1 1 1 1 2 2 2 2 1 1 1 1 1
left_child=1 6 11 7 17 9 12 -4 -2 -6 -8 24 -1 14 -7 -16 -9 -5 19 25 21 22 -21 -12 -3 26 27 -13 -27 30 -30 32 -32 -31 -15 -10 37 -28 -11
right_child=8 2 3 4 5 13 10 16 35 38 23 18 -14 34 15 -17 -18 -19 -20 20 -22 -23 -24 -25 -26 28 36 -29 29 33 31 -33 -34 -35 -36 -37 -38 -39 -40
leaf_value=-0.010324615602245648 -0.17756947485915389 0.0049624573048536146 -0.19049327447841774 0.23508231074212832 0.018766195725808524 0.015595337774845392 -0.10470068549784134 -0.018297881726719041 -0.043992021007191198 0.089749120069108165 -0.030360117058379647 -0.049139110526104673 -0.11134532965651439 0.03553368094769925 -0.13119329712881514 -0.029264028734419287 -0.08964119985405615 0.14952666138362902 -0.00022452442874999149 0.41306159329523678 0.013706627983496722 0.010805266588100066 0.63957299536185108 -0.010764135189279378 -0.011022015567567019 -0.015266668084047393 0.0043728934888010405 0.0019380634222500815 0.10293494328774491 -0.024513098943301205 -0.24455252453128104 0.043328516469443995 0.006403080101161425 0.0058953806225497448 0.012546105195990816 -0.085297341843433211 0.012448011310405828 0.040757009102986158 0.059564677351874373
leaf_count=427 475 7384 541 236 1767 1768 486 539 1114 2305 4849 922 1307 4081 181 1302 788 1076 16521 59 1675 301 112 11021 15641 3093 1833 1967 285 1647 70 1078 976 17161 4876 2168 17239 3754 2604
internal_value=0 0.00260673 0.00736295 0.0257136 0.0374381 0.0286807 -0.0272978 -0.100708 -0.0869076 0.0579825 -0.020808 0.00294927 -0.0880427 0.0126226 -0.0123274 -0.0438732 -0.062391 0.162315 0.00637164 0.00889361 0.0556604 0.204784 0.529113 -0.018132 -0.0072607 0.00688645 0.0116257 -0.0158449 0.00186777 0.00457104 0.0255846 0.0155091 -0.0117554 0.00186739 0.021682 -0.0728217 0.015108 0.0274825 0.0725244
internal_count=135629 131872 113782 22064 20196 18884 18090 1868 3757 6676 16356 91718 1734 12208 3251 1483 1327 1312 68693 52172 2147 472 171 15870 23025 50025 25715 2889 24310 21217 2409 2124 1046 18808 8957 3282 22826 5587 4909
cat_boundaries=0 1 2 6 10 11 14 18 19 22 23 27 30 31 32 36 37 38 42 46 47 48 51 55 56 57 58 59 63 67
cat_threshold=1 1 67108864 4194312 64 9 404095992 540293008 877002755 2 12289 301996544 662946400 864342029 201334848 1288 4202560 9 1792 67108864 8 64 224 33679361 989664 3426749552 1 24583 196705 1073743268 4032 8193 93716696 3360423944 3222867184 1 12 2 34997120 519046528 827203585 11 31747 3456155751 1229467020 4 24 1 3760064032 4168104144 538447024 67239936 138413464 64 9 1 2784 8641 15360 130527 983041 3224962224 6 268566976 2102672 805437440 2
shrinkage=1


Tree=1
num_leaves=40
num_cat=24
split_feature=10 5 7 0 0 0 0 7 7 0 7 0 11 11 7 1 1 3 1 11 0 0 8 11 7 7 0 0 0 8 0 7 0 0 0 1 8 7 1
split_gain=29.2703 14.1476 32.7795 22.0365 8.87467 6.33742 4.60948 3.89923 3.30198 2.76274 2.73682 2.5102 1.72563 6.53801 13.0865 9.60954 23.4276 1.98269 1.84693 1.77335 1.69373 1.57759 1.57408 1.41673 1.16722 1.15885 1.01338 1.00158 0.998335 0.958463 0.863175 0.864988 0.835915 0.783528 0.775667 0.748634 0.708089 1.71071 0.658717
threshold=0.55000000000000016 1.0000000180025095e-35 0 1 2 3 4 5 6 7 8 9 57.250000000000007 56.750000000000007 10 5.5000000000000009 4.5000000000000009 47.611349465000011 3.5000000000000004 36.250000000000007 11 12 11.500000000000002 43.250000000000007 13 14 15 16 17 5.5000000000000009 18 19 20 21 22 1.5000000000000002 7.5000000000000009 23 1.5000000000000002
decision_type=2 2 1 1 1 1 1 1 1 1 1 1 2 2 1 2 2 2 2 2 1 1 2 2 1 1 1 1 1 2 1 1 1 1 1 2 2 1 2
left_child=1 8 5 23 7 -3 -2 -5 11 10 -6 38 13 18 15 16 -15 -18 19 22 -12 -7 29 -4 -11 36 -9 -27 -20 -10 31 -26 -13 -14 -21 -34 -8 -38 -1
right_child=6 2 3 4 9 21 25 26 12 24 20 32 33 14 -16 -17 17 -19 28 34 -22 -23 -24 -25 30 27 -28 -29 -30 -31 -32 -33 35 -35 -36 -37 37 -39 -40
leaf_value=-0.034724701507586483 -0.17756947485915389 -0.19049327447841774 0.23508231074212832 0.018766195725808524 0.015595337774845392 -0.018297881726719041 -0.08843600431316985 0.089749120069108165 -0.035492523939945557 0.03553368094769925 -0.13119329712881514 0.0080682655449881725 -0.017104512843159086 0.018006184844227995 0.014935392671035483 0.0044567384463656224 0.41306159329523678 0.63957299536185108 -0.024196031737870688 0.0032054936688543615 -0.029264028734419287 -0.08964119985405615 -0.06134507694567258 0.14952666138362902 -0.034458387115076476 -0.05144977960216017 0.059564677351874373 -0.10063785164235615 -0.0013924111157924018 0.012694631801375615 0.022653305893739248 0.011302208237820863 -0.018824566640719582 -0.0015070110997202576 0.0137729821385536 -0.0026544811479898263 0.048431090635697303 -0.055164865439404791 -0.016199497481492825
leaf_count=2349 475 541 236 1767 1768 539 275 2305 612 4081 181 5852 4252 148 1413 153 59 112 2175 10283 1302 788 613 1076 630 690 2604 1478 15891 1268 3088 1158 3491 13233 21488 15920 205 634 10496
internal_value=0 0.00260673 0.0257136 0.0374381 0.0286807 -0.100708 -0.0869076 0.0579825 -0.00203618 0.0126226 -0.0123274 -0.00955656 0.0019619 0.00474821 0.0626088 0.204784 0.307939 0.560056 0.00266399 0.00697781 -0.0438732 -0.062391 -0.0187044 0.162315 0.021682 -0.0728217 0.0725244 -0.0866615 -0.00551761 -0.00435598 0.0111819 -0.00629521 -0.00376513 -0.00667637 0.00899304 -0.0069232 -0.0453562 -0.0313293 -0.0209351
internal_count=135629 131872 22064 20196 18884 1868 3757 6676 109808 12208 3251 38108 71700 54215 1885 472 319 171 52330 34264 1483 1327 2493 1312 8957 3282 4909 2168 18066 1880 4876 1788 25263 17485 31771 19411 1114 839 12845
cat_boundaries=0 1 5 9 12 16 17 18 21 22 26 27 28 32 33 34 38 42 46 49 50 53 57 61 62
cat_threshold=1 67108864 4194312 64 9 404095992 540293008 877002755 2 301996544 662946400 864342029 201334848 1288 4202560 9 1792 12513 24583 196705 1073743268 4032 1947599352 3497011096 536936512 11 12 8193 93716696 3360423944 3222867184 1 2784 8641 268566976 2102672 805437440 2 31572998 7536673 1077546168 4 67108864 40108424 536870976 9 1642072064 134266880 117272 12 8195 49249 1212155276 67240640 943990168 104865859 8 67109368 141295625 2032011459 15 1
shrinkage=1


Tree=2
num_leaves=40
num_cat=28
split_feature=10 2 5 7 0 0 7 0 0 7 0 7 0 0 7 0 0 11 11 11 7 2 3 0 0 2 7 0 0 7 11 11 11 11 11 7 7 7 0
split_gain=29.2703 18.7605 9.21665 32.7795 22.0365 8.87467 7.10964 6.33742 4.60948 3.89923 3.71035 3.20577 3.19353 2.76274 2.73682 1.69373 1.57759 1.41673 1.37871 4.8973 13.8184 30.0591 1.98269 1.28873 1.28199 1.1894 2.46189 1.64744 1.21689 1.20529 1.86115 1.53202 1.5477 3.13699 1.38958 1.16722 1.15885 1.13182 1.62272
threshold=0.55000000000000016 0 1.0000000180025095e-35 1 2 3 4 5 6 7 8 9 10 11 12 13 14 43.250000000000007 57.250000000000007 56.750000000000007 15 16 47.611349465000011 17 18 19 20 21 22 23 37.250000000000007 45.750000000000007 39.750000000000007 40.250000000000007 36.250000000000007 24 25 26 27
decision_type=2 1 2 1 1 1 1 1 1 1 1 1 1 1 1 1 1 2 2 2 1 1 2 1 1 1 1 1 1 1 2 2 2 2 2 1 1 1 1
left_child=1 6 11 7 17 9 12 -4 -2 -6 -8 24 -1 14 -7 -16 -9 -5 19 25 21 22 -21 -12 -3 26 27 -13 -27 30 -30 32 -32 -34 -31 -15 -10 38 -28
right_child=8 2 3 4 5 13 10 16 36 -11 23 18 -14 35 15 -17 -18 -19 -20 20 -22 -23 -24 -25 -26 28 37 -29 29 34 31 -33 33 -35 -36 -37 -38 -39 -40
leaf_value=-0.010324615602245648 -0.17756947485915389 0.0049624573048536146 -0.19049327447841774 0.23508231074212832 0.018766195725808524 0.015595337774845392 -0.10470068549784134 -0.018297881726719041 -0.043992021007191198 0.073888521648328029 -0.030360117058379647 -0.049139110526104673 -0.11134532965651439 0.03553368094769925 -0.13119329712881514 -0.029264028734419287 -0.08964119985405615 0.14952666138362902 -0.00022452442874999149 0.41306159329523678 0.013706627983496722 0.010805266588100066 0.63957299536185108 -0.010764135189279378 -0.011022015567567019 -0.015266668084047393 0.0043728934888010405 0.0019380634222500815 0.10293494328774491 -0.024513098943301205 0.030348269272781718 0.043328516469443995 -0.24455252453128104 -0.018037868680637344 0.0058953806225497448 0.012546105195990816 -0.085297341843433211 0.012448011310405828 0.040757009102986158
leaf_count=427 475 7384 541 236 1767 1768 486 539 1114 4909 4849 922 1307 4081 181 1302 788 1076 16521 59 1675 301 112 11021 15641 3093 1833 1967 285 1647 493 1078 70 483 17161 4876 2168 17239 3754
internal_value=0 0.00260673 0.00736295 0.0257136 0.0374381 0.0286807 -0.0272978 -0.100708 -0.0869076 0.0579825 -0.020808 0.00294927 -0.0880427 0.0126226 -0.0123274 -0.0438732 -0.062391 0.162315 0.00637164 0.00889361 0.0556604 0.204784 0.529113 -0.018132 -0.0072607 0.00688645 0.0116257 -0.0158449 0.00186777 0.00457104 0.0255846 0.0155091 -0.0117554 -0.0480748 0.00186739 0.021682 -0.0728217 0.015108 0.0274825
internal_count=135629 131872 113782 22064 20196 18884 18090 1868 3757 6676 16356 91718 1734 12208 3251 1483 1327 1312 68693 52172 2147 472 171 15870 23025 50025 25715 2889 24310 21217 2409 2124 1046 553 18808 8957 3282 22826 5587
cat_boundaries=0 1 2 6 10 11 14 18 19 22 23 27 30 31 32 36 37 38 42 46 47 48 51 55 56 57 58 59 63
cat_threshold=1 1 67108864 4194312 64 9 404095992 540293008 877002755 2 12289 301996544 662946400 864342029 201334848 1288 4202560 9 1792 67108864 8 64 224 33679361 989664 3426749552 1 24583 196705 1073743268 4032 8193 93716696 3360423944 3222867184 1 12 2 34997120 519046528 827203585 11 31747 3456155751 1229467020 4 24 1 3760064032 4168104144 538447024 67239936 138413464 64 9 1 2784 8641 15360 130527 983041 3224962224 6
shrinkage=1


Tree=3
num_leaves=40
num_cat=21
split_feature=2 11 5 7 6 11 7 8 7 7 7 7 3 4 4 6 7 8 3 11 11 7 2 3 4 3 4 7 7 2 6 4 3 7 7 6 7 3 7
split_gain=27.1452 9.20957 8.62196 32.7795 14.5483 8.28798 7.10964 5.92889 4.34788 3.31756 3.15218 3.13054 2.34127 2.13067 2.04484 1.95969 1.71836 14.0448 1.97466 1.65403 4.68562 13.8184 30.0591 1.98269 1.34173 2.88231 1.09571 1.33511 1.0219 1.38182 1.05443 1.014 1.00123 1.00068 0.978546 0.973134 0.962987 0.943111 0.931697
threshold=0 36.250000000000007 1.0000000180025095e-35 1 2 37.250000000000007 3 7.5000000000000009 4 5 6 7 47.576765045000009 -122.35224032999999 -122.32387042999999 8 9 7.5000000000000009 47.59618222000001 57.250000000000007 56.750000000000007 10 11 47.611349465000011 -122.32387042999999 47.614654300000005 -122.34723282999998 12 13 14 15 -122.33406608499999 47.61587269000001 16 17 18 19 47.596489775000009 20
decision_type=1 2 2 1 1 2 1 2 1 1 1 1 2 2 2 1 1 2 2 2 2 1 1 2 2 2 2 1 1 1 1 2 2 1 1 1 1 2 1
left_child=5 7 10 15 11 -1 35 38 -9 -6 -3 16 -8 36 -10 37 17 -5 -18 20 28 22 23 31 -13 -26 27 -15 29 30 -12 -22 -20 -21 -14 -7 -11 -4 -2
right_child=1 2 3 4 9 6 12 8 14 13 19 24 34 26 -16 -17 18 -19 32 33 21 -23 -24 -25 25 -27 -28 -29 -30 -31 -32 -33 -34 -35 -36 -37 -38 -39 -40
leaf_value=-0.09540980809618009 0.056818454048261073 -0.005375316503645226 -0.25149491198943891 0.77784833913963203 0.048635758965793432 -0.11191665933632028 -0.13690001131321658 0.065245883273131536 -0.061443044286533702 0.064396321400034193 0.01225297797455949 0.036284168823026812 -0.028761878696182568 0.013927825276860381 -0.12905187759310835 -0.04435083407846567 0.26946941250862955 0.054726524465880583 0.094188014958293459 0.014794208274462201 0.59612880236360688 0.013706627983496722 0.010805266588100066 0.63957299536185108 0.13624757015535943 0.051425169718109821 0.014789373392750127 -0.035022694782805688 0.0068027960257858707 0.0056978639151634694 0.0407143236131031 0.31918097326017519 0.16368861664630355 -0.0042514200046314199 -0.012445065738351762 -0.061188384841831561 0.025459686915228333 -0.11540455955944527 -0.0056975361055852077
leaf_count=1898 252 22064 53 37 4248 854 168 232 1991 1023 2238 897 5720 1095 577 516 77 98 1289 3489 20 1675 301 112 652 1039 6597 1119 36936 4791 3191 39 247 13032 10468 880 1778 1299 2637
internal_value=0 0.00600954 0.00803999 0.0257136 0.0374381 -0.0338917 -0.0273129 -0.0332226 -0.0660142 0.0233677 0.0036031 0.0887318 -0.020808 0.0145899 -0.0776956 -0.100708 0.121927 0.234203 0.111145 0.00706985 0.00997268 0.0556604 0.204784 0.529113 0.0659279 0.082766 0.00696496 -0.0122845 0.00789253 0.0167394 0.0276591 0.411697 0.104 -0.00158868 -0.0196019 -0.0880427 0.0386273 -0.121207 -0.00144108
internal_count=135629 115641 109952 22064 20196 19988 18090 5689 2800 15860 87888 4336 16356 11612 2568 1868 1748 135 1613 65824 49303 2147 472 171 2588 1691 8811 2214 47156 10220 5429 59 1536 16521 16188 1734 2801 1352 2889
cat_boundaries=0 1 2 3 4 5 6 7 8 9 10 11 12 13 14 15 16 17 18 19 20 21
cat_threshold=1 1 2616 12289 1 2240 224 12396 5782 4096 12 2 1808 15360 24 1348 1025 3648 8794 42 1
shrinkage=1


Tree=4
num_leaves=40
num_cat=30
split_feature=2 11 5 7 0 0 11 7 0 8 7 7 0 0 0 7 0 7 0 0 11 11 7 2 3 0 11 0 0 7 7 0 0 2 4 0 7 7 0
split_gain=27.1452 9.20957 8.62196 32.7795 22.0365 8.87467 8.28798 7.10964 6.33742 5.92889 4.34788 3.89923 3.71035 3.47833 3.19353 3.15218 2.76274 2.73682 2.16384 1.69373 1.65403 4.68562 13.8184 30.0591 1.98269 1.57759 1.41673 1.28873 1.2154 1.16722 1.0219 1.71453 1.5168 1.58195 1.014 1.01338 1.00068 0.931697 0.863175
threshold=0 36.250000000000007 1.0000000180025095e-35 1 2 3 37.250000000000007 4 5 7.5000000000000009 6 7 8 9 10 11 12 13 14 15 57.250000000000007 56.750000000000007 16 17 47.611349465000011 18 43.250000000000007 19 20 21 22 23 24 25 -122.33406608499999 26 27 28 29
decision_type=1 2 2 1 1 1 2 1 1 2 1 1 1 1 1 1 1 1 1 1 2 2 1 1 2 1 2 1 1 1 1 1 1 1 2 1 1 1 1
left_child=6 9 15 8 26 11 18 14 -4 37 -11 -6 -9 -12 -8 28 17 -7 -1 -19 21 30 23 24 34 -10 -5 -14 -3 -18 32 -32 -17 -34 -23 -13 -22 -2 -31
right_child=1 2 3 4 5 16 7 12 25 10 13 35 27 -15 -16 20 29 19 -20 -21 36 22 -24 -25 -26 -27 -28 -29 -30 38 31 -33 33 -35 -36 -37 -38 -39 -40
leaf_value=-0.19015994093604782 0.056818454048261073 0.0054033487354690751 -0.19049327447841774 0.23508231074212832 0.018766195725808524 0.015595337774845392 -0.010324615602245648 -0.10470068549784134 -0.018297881726719041 0.065245883273131536 -0.1572070625979215 0.089749120069108165 -0.030360117058379647 -0.058899563020463577 -0.11134532965651439 0.0005618804719001708 0.03553368094769925 -0.13119329712881514 -0.081610157196030805 -0.029264028734419287 0.014794208274462201 0.59612880236360688 0.013706627983496722 0.010805266588100066 0.63957299536185108 -0.08964119985405615 0.14952666138362902 -0.010764135189279378 -0.010483469370272586 -0.0049310512244347127 -0.0031306756743283226 0.011474090908467384 0.040882446072417568 0.010450372988470551 0.31918097326017519 0.059564677351874373 -0.0042514200046314199 -0.0056975361055852077 0.022653305893739248
leaf_count=216 252 7095 541 236 1767 1768 427 486 539 232 441 2305 4849 2127 1307 3330 4081 181 1682 1302 3489 20 1675 301 112 788 1076 11021 14969 1788 11814 25122 3642 3248 39 2604 13032 2637 3088
internal_value=0 0.00600954 0.00803999 0.0257136 0.0374381 0.0286807 -0.0338917 -0.0273129 -0.100708 -0.0332226 -0.0660142 0.0579825 -0.020808 -0.0776956 -0.0880427 0.0036031 0.0126226 -0.0123274 -0.096774 -0.0438732 0.00706985 0.00997268 0.0556604 0.204784 0.529113 -0.062391 0.162315 -0.018132 -0.00673947 0.021682 0.00789253 0.00543864 0.0167394 0.0252063 0.411697 0.0725244 -0.00158868 -0.00144108 0.0111819
internal_count=135629 115641 109952 22064 20196 18884 19988 18090 1868 5689 2800 6676 16356 2568 1734 87888 12208 3251 1898 1483 65824 49303 2147 472 171 1327 1312 15870 22064 8957 47156 36936 10220 6890 59 4909 16521 2889 4876
cat_boundaries=0 1 2 6 10 11 14 15 16 19 23 27 28 31 32 36 37 38 39 43 47 51 52 53 57 61 62 66 67 68 71
cat_threshold=1 1 67108864 4194312 64 9 404095992 540293008 877002755 2 12289 301996544 662946400 864342029 1 1792 67108864 8 64 201334848 1434 4202562 9 33679361 989664 3426749552 1 224 24583 196705 1073743268 4032 67117056 1424 4202560 9 8193 12 2 93716696 3360423944 3222867184 1 34997120 519046528 827203585 11 31747 1308672103 1237855628 4 2784 15360 67829760 3363584408 806882499 11 125311 983041 3225094064 4 24 268566976 2102672 805437440 2 1025 1 1642072064 134266880 117272
shrinkage=1


Tree=5
num_leaves=40
num_cat=34
split_feature=10 2 5 7 0 0 7 0 0 7 0 0 0 7 7 0 0 0 0 7 0 7 0 7 7 8 7 7 4 0 0 0 0 10 0 7 7 0 0
split_gain=28.9237 18.7328 10.042 31.8029 23.1236 9.01529 6.724 6.11684 4.9701 4.24284 3.85442 3.64656 2.83928 2.77049 2.55385 1.81428 1.41402 1.38939 1.36708 1.19561 1.18047 1.11207 1.03369 1.00507 0.94646 0.885223 1.75394 0.87803 1.45373 0.876914 0.839247 0.830752 0.795543 0.76523 0.73294 0.643664 0.63147 0.627325 0.611356
threshold=0.55000000000000016 0 1.0000000180025095e-35 1 2 3 4 5 6 7 8 9 10 11 12 13 14 15 16 17 18 19 20 21 22 7.5000000000000009 23 24 -122.31950865499998 25 26 27 28 1.4500000000000002 29 30 31 32 33
decision_type=2 1 2 1 1 1 1 1 1 1 1 1 1 1 1 1 1 1 1 1 1 1 1 1 1 2 1 1 2 1 1 1 1 2 1 1 1 1 1
left_child=1 6 13 7 27 9 11 -4 24 29 -8 -1 14 17 -7 -16 23 -3 -9 -14 -12 25 -13 -15 33 35 -27 -5 -29 -6 -21 -11 -23 -2 -26 -10 37 -22 -25
right_child=8 2 3 4 5 12 10 18 21 31 20 22 19 16 15 -17 -18 -19 -20 30 36 32 -24 38 34 26 -28 28 -30 -31 -32 -33 -34 -35 -36 -37 -38 -39 -40
leaf_value=-0.0050317542137104584 0.083086356882783291 -0.016952499487640348 -0.18697589906118825 0.12089466957965371 0.058469270560141187 0.014042618525490318 -0.093728989458263204 -0.02051646434094688 -0.14194728222452446 0.098502161195357235 -0.0044197307446498428 -0.14870890819960023 0.034998913014779663 0.013178300684582195 -0.13619212955143636 -0.030170999552956733 0.010217437127558678 -0.00028424139236643228 -0.087298154421155072 0.024924633237500396 -0.027155604481453766 -0.049269284994466735 -0.084941111605686029 -0.012328643833829311 -0.2857084094396723 0.04875623856986263 -0.051573864703669127 0.14819391472804005 0.23129246184889563 0.014207790473782841 -0.00070432902717569535 0.067483836239124642 -0.098177836349870651 -0.11566156960538006 -0.15672471173954011 -0.046863568342987875 -0.025269566154362051 0.023643290753996779 0.00074394286077998932
leaf_count=434 26 7342 541 425 598 1526 668 551 136 1507 5285 531 4199 4891 184 1113 46339 15662 752 2558 419 549 759 5022 100 213 832 384 466 1776 2547 2816 1322 76 404 214 9518 551 12393
internal_value=0 0.00235352 0.00712216 0.0263383 0.0378713 0.0289916 -0.0274553 -0.0990351 -0.0853362 0.0584272 -0.0211903 -0.0867348 0.0127014 0.00252212 -0.0150462 -0.0475133 0.00570457 -0.00697392 -0.060804 0.0211276 -0.0180022 -0.0691776 -0.113506 -0.000837676 -0.1685 -0.0467842 -0.032541 0.167724 0.19015 0.0241857 0.0107946 0.0771319 -0.0855364 -0.0604391 -0.188768 -0.0906471 -0.0241477 0.000268996 -0.00439568
internal_count=135629 131757 113592 21943 20099 18824 18165 1844 3872 6697 16441 1724 12127 91649 2823 1297 68645 23004 1303 9304 15773 3266 1290 22306 606 1395 1045 1275 850 2374 5105 4323 1871 102 504 350 10488 970 17415
cat_boundaries=0 1 2 6 10 11 14 18 19 23 27 30 31 32 33 37 41 45 46 50 51 55 56 57 58 59 62 66 70 74 78 79 80 84 88
cat_threshold=1 1 67108864 4194312 64 9 404095992 808728464 809893891 2 12289 436213760 662946400 931450893 201334848 1432 4202562 9 1808 67108864 8 64 1 33646593 1034722 1279266032 1 24581 196705 1073743236 224 4032 8193 196728 2287743384 1008209088 15 3306553848 812654360 805699585 10 75694330 3357278216 3222867184 1 2784 6414351 725111 1073811388 4 451 337119032 544212496 537362433 6 7168 3 1 3586 131072 2359296 809893888 2181661696 2257059846 2410164224 4 131520 2098576 536870912 2 31571974 2293856 1075317944 6 67108864 0 64 1 3 2 2585265584 3262131584 2176319488 2 131072 4194712 268435520 8
shrinkage=1


Tree=6
num_leaves=40
num_cat=31
split_feature=10 2 5 7 0 0 7 0 0 7 0 0 0 7 7 0 0 0 0 7 0 11 7 0 7 11 11 7 2 3 7 8 7 0 0 0 7 0 4
split_gain=28.9237 18.7328 10.042 31.8029 23.1236 9.01529 6.724 6.11684 4.9701 4.24284 3.85442 3.64656 2.83928 2.77049 2.55385 1.81428 1.41402 1.38939 1.36708 1.19561 1.18047 1.13559 1.11207 1.03369 1.00507 1.00039 2.61342 8.12923 20.4306 1.13015 0.94646 0.885223 1.75394 0.876914 0.839247 0.830752 0.804559 0.795543 0.794418
threshold=0.55000000000000016 0 1.0000000180025095e-35 1 2 3 4 5 6 7 8 9 10 11 12 13 14 15 16 17 18 43.250000000000007 19 20 21 57.250000000000007 56.750000000000007 22 23 47.614238655000008 24 7.5000000000000009 25 26 27 28 29 30 -122.34826696499998
decision_type=2 1 2 1 1 1 1 1 1 1 1 1 1 1 1 1 1 1 1 1 1 2 1 1 1 2 2 1 1 2 1 2 1 1 1 1 1 1 2
left_child=1 6 13 7 21 9 11 -4 30 33 -8 -1 14 17 -7 -16 24 -3 -9 -14 -12 -5 31 -13 -15 26 -18 28 29 -28 -2 -10 -33 -6 -21 -11 -27 -24 -31
right_child=8 2 3 4 5 12 10 18 22 35 20 23 19 16 15 -17 25 -19 -20 34 -22 -23 37 -25 -26 36 27 -29 -30 38 -32 32 -34 -35 -36 -37 -38 -39 -40
leaf_value=-0.0050317542137104584 -0.059074932512473942 -0.016952499487640348 -0.18697589906118825 0.23522375118427011 0.058469270560141187 0.014042618525490318 -0.093728989458263204 -0.02051646434094688 -0.089282930436939231 0.098502161195357235 -0.0044197307446498428 -0.14870890819960023 0.034998913014779663 0.013178300684582195 -0.13619212955143636 -0.030170999552956733 0.011039995183138569 -0.00028424139236643228 -0.087298154421155072 0.024924633237500396 -0.022783537594554384 0.15666292173056126 -0.049269284994466735 -0.084941111605686029 -0.0030315210352501766 0.025691987132125144 0.42920328619781389 0.01305971666718856 0.0041240126965484351 0.54530593737851341 -0.18740388573578406 0.04875623856986263 -0.051573864703669127 0.014207790473782841 -0.00070432902717569535 0.067483836239124642 -0.0010709125216858927 -0.098177836349870651 0.75490963924200771
leaf_count=434 102 7342 541 223 598 1526 668 551 350 1507 5285 531 4199 4891 184 1113 33725 15662 752 2558 10488 1052 549 759 17415 1257 39 1134 217 40 504 213 832 1776 2547 2816 9894 1322 33
internal_value=0 0.00235352 0.00712216 0.0263383 0.0378713 0.0289916 -0.0274553 -0.0990351 -0.0853362 0.0584272 -0.0211903 -0.0867348 0.0127014 0.00252212 -0.0150462 -0.0475133 0.00570457 -0.00697392 -0.060804 0.0211276 -0.0180022 0.167724 -0.0691776 -0.113506 -0.000837676 0.00885328 0.0114708 0.052848 0.188604 0.518938 -0.1685 -0.0467842 -0.032541 0.0241857 0.0107946 0.0771319 0.00060142 -0.0855364 0.638694
internal_count=135629 131757 113592 21943 20099 18824 18165 1844 3872 6697 16441 1724 12127 91649 2823 1297 68645 23004 1303 9304 15773 1275 3266 1290 22306 46339 35188 1463 329 112 606 1395 1045 2374 5105 4323 11151 1871 73
cat_boundaries=0 1 2 6 10 11 14 18 19 23 27 30 31 32 33 37 41 45 46 50 51 55 56 57 58 59 60 63 67 71 72 76
cat_threshold=1 1 67108864 4194312 64 9 404095992 808728464 809893891 2 12289 436213760 662946400 931450893 201334848 1432 4202562 9 1808 67108864 8 64 1 33646593 1034722 1279266032 1 24581 196705 1073743236 224 4032 8193 196728 2287743384 1008209088 15 3306553848 812654360 805699585 10 75694330 3357278216 3222867184 1 2784 6414351 725111 1073811388 4 451 337119032 544212496 537362433 6 7168 12 2 3 1 131072 2359296 809893888 2181661696 2257059846 2410164224 4 131520 2098576 536870912 2 1 31571974 2293856 1075317944 6
shrinkage=1


Tree=7
num_leaves=40
num_cat=30
split_feature=2 11 5 7 0 0 11 7 0 8 7 7 0 0 0 0 7 7 0 0 11 11 7 2 3 0 0 7 0 11 0 0 7 8 7 7 0 0 0
split_gain=27.243 9.03558 9.43316 31.8029 23.1236 9.01529 8.39497 6.724 6.11684 5.55703 5.04743 4.24284 3.99911 3.85442 3.64656 2.83928 2.73837 2.55385 2.26257 1.81428 1.54741 3.43501 10.9032 27.1196 3.09831 1.36708 1.32897 1.19561 1.18047 1.13559 1.11371 1.03369 1.01011 0.975298 0.972302 0.945422 0.876914 0.839247 0.830752
threshold=0 36.250000000000007 1.0000000180025095e-35 1 2 3 37.250000000000007 4 5 7.5000000000000009 6 7 8 9 10 11 12 13 14 15 57.250000000000007 56.750000000000007 16 17 47.610230220000005 18 19 20 21 43.250000000000007 22 23 24 5.5000000000000009 25 26 27 28 29
decision_type=1 2 2 1 1 1 2 1 1 2 1 1 1 1 1 1 1 1 1 1 2 2 1 1 2 1 1 1 1 2 1 1 1 2 1 1 1 1 1
left_child=6 9 16 8 29 11 18 14 -4 32 -11 36 -12 -9 -8 17 26 -7 -1 -19 21 30 23 24 -23 -10 -3 -17 -15 -5 35 -16 33 -2 -22 -18 -6 -29 -13
right_child=1 2 3 4 5 15 7 13 25 10 12 38 -14 28 31 27 20 19 -20 -21 34 22 -24 -25 -26 -27 -28 37 -30 -31 -32 -33 -34 -35 -36 -37 -38 -39 -40
leaf_value=-0.15126779504135063 0.15409478322046302 -0.016458575623418695 -0.18697589906118825 0.23522375118427011 0.058469270560141187 0.014042618525490318 -0.0050317542137104584 -0.093728989458263204 -0.02051646434094688 0.072157200558689183 -0.16019375750430362 0.098502161195357235 -0.056664229033202437 -0.0044197307446498428 -0.14870890819960023 0.034998913014779663 0.016210167378360424 -0.13619212955143636 -0.072379157135795916 -0.030170999552956733 0.014114254193110107 0.3413131710705653 0.011238545720916577 0.0066051744837374556 0.63743471877207025 -0.087298154421155072 0.00019592885026102754 0.024924633237500396 -0.022783537594554384 0.15666292173056126 0.01216134749543816 -0.084941111605686029 -0.0059945613985361431 0.018012762432569475 -0.0046184714145264668 -0.0024716459947020106 0.014207790473782841 -0.00070432902717569535 0.067483836239124642
leaf_count=536 79 7031 541 223 598 1526 434 668 551 250 455 1507 2194 5285 531 4199 3499 184 1397 1113 3512 53 1677 313 106 752 15015 2558 10488 1052 31744 759 2647 158 12985 11870 1776 2547 2816
internal_value=0 0.00576214 0.00779269 0.0263383 0.0378713 0.0289916 -0.0341204 -0.0274704 -0.0990351 -0.032763 -0.0636815 0.0584272 -0.0763516 -0.0211903 -0.0867348 0.0127014 0.00315802 -0.0150462 -0.0967894 -0.0475133 0.00639104 0.0091992 0.0482977 0.180775 0.505567 -0.060804 -0.00648542 0.0211276 -0.0180022 0.167724 0.00741577 -0.113506 -0.00168374 0.0594988 -0.00199057 0.0004243 0.0241857 0.0107946 0.0771319
internal_count=135629 115531 109748 21943 20099 18824 20098 18165 1844 5783 2899 6697 2649 16441 1724 12127 87805 2823 1933 1297 65759 49262 2149 472 159 1303 22046 9304 15773 1275 47113 1290 2884 237 16497 15369 2374 5105 4323
cat_boundaries=0 1 2 6 10 11 14 15 16 20 24 28 31 32 33 37 38 39 40 44 48 49 53 57 61 62 63 64 67 71 75
cat_threshold=1 1 67108864 4194312 64 9 404095992 808728464 809893891 2 12289 436213760 662946400 931450893 1 1808 201326656 1438 4202562 9 67108864 8 64 1 33646593 1034722 1279266032 1 24581 196705 1073743236 224 4032 503460033 2684356510 4235330 9 8193 12 2 75694330 3357278216 3222867184 1 3306553848 812654360 805699585 10 2784 6414351 725111 1073811388 4 196696 2288791961 471469248 15 337119032 544212496 537362433 6 1 1025 15360 131072 2359296 809893888 2181661696 2257059846 2410164224 4 131520 2098576 536870912 2
shrinkage=1


Tree=8
num_leaves=40
num_cat=23
split_feature=10 2 5 7 6 7 4 3 7 7 7 3 6 8 6 7 4 11 11 7 2 3 2 7 7 3 3 7 11 6 6 2 7 7 7 8 7 9 4
split_gain=28.9237 18.7328 10.042 31.8029 14.6615 6.724 4.78826 3.67213 3.23495 2.77049 2.62947 2.6294 2.54888 2.00285 1.65222 1.32611 1.28653 1.28618 3.61451 10.9032 27.1196 3.09831 1.32407 2.2666 1.29223 1.26477 1.22567 1.21863 2.02861 1.19882 1.13832 1.02313 1.01738 0.981208 0.972302 0.964758 1.88211 0.946243 0.90376
threshold=0.55000000000000016 0 1.0000000180025095e-35 1 2 3 -122.32387042999999 47.614654300000005 4 5 6 47.576765045000009 7 1.5000000000000002 8 9 -122.31950865499998 57.250000000000007 56.750000000000007 10 11 47.610230220000005 12 13 14 47.614654300000005 47.596489775000009 15 36.250000000000007 16 17 18 19 20 21 7.5000000000000009 22 0.78000000000000014 -122.33140837499998
decision_type=2 1 2 1 1 1 2 2 1 1 1 2 1 2 1 1 2 2 2 1 1 2 1 1 1 2 2 1 2 1 1 1 1 1 1 2 1 2 2
left_child=1 5 9 14 6 29 32 16 -6 -3 -9 -7 25 -12 -4 35 -8 18 22 20 21 38 23 37 30 -2 -16 -24 31 -1 -25 -29 -5 -13 -19 -14 -37 -11 -20
right_child=12 2 3 4 8 11 7 10 -10 17 13 33 15 -15 26 -17 -18 34 19 -21 -22 -23 27 24 -26 -27 -28 28 -30 -31 -32 -33 -34 -35 -36 36 -38 -39 -40
leaf_value=-0.12181453022606298 -0.27271129524966242 -0.0056097614019274345 -0.043517937379799115 0.030233400881605588 0.046233000416098666 -0.14582719738590141 0.12681380107797691 0.034675139458705082 0.011684452157321909 -0.010799983904872152 0.30962637015742689 0.0056757433291969826 -0.095131328020326797 0.10483970969427282 -0.26138350730471271 -0.091573419102520273 0.19804849455408349 0.014114254193110107 0.46945576019649077 0.011238545720916577 0.0066051744837374556 0.63743471877207025 0.016057123470757918 0.011977719264774402 0.011814110745102914 -0.13462124943122619 -0.11033551758304325 0.00079778982328017627 0.0020252600769278106 -0.063929924554049805 0.041216099295809855 -0.051165708332100608 0.067032776787304918 -0.021051040951901953 -0.0046184714145264668 0.044455215489182145 -0.05657516549900625 -0.1231842639216177 0.20824202082441196
leaf_count=621 82 23004 468 1238 3704 164 602 739 10107 2772 50 1518 367 1065 56 1971 438 3512 27 1677 313 106 5190 2269 17277 347 1320 576 17398 1103 3301 1139 2156 14759 12985 227 878 77 26
internal_value=0 0.00235352 0.00712216 0.0263383 0.0378713 -0.0274553 0.0778819 0.10789 0.0196117 0.00252212 0.0812106 -0.0211903 -0.0853362 0.111657 -0.0990351 -0.0755171 0.15545 0.00570457 0.00814002 0.0482977 0.180775 0.505567 0.006414 0.0114167 0.0147345 -0.158681 -0.116997 0.00111943 -0.00257213 -0.0867348 0.0279817 -0.035387 0.0525242 -0.0199338 -0.00199057 -0.0517216 -0.037319 -0.0151484 0.339949
internal_count=135629 131757 113592 21943 20099 18165 6288 2894 13811 91649 1854 16441 3872 1115 1844 3443 1040 68645 52148 2149 472 159 49999 25696 22847 429 1376 24303 19113 1724 5570 1715 3394 16277 16497 1472 1105 2849 53
cat_boundaries=0 1 2 3 4 5 6 7 8 9 10 11 12 13 14 15 16 17 18 19 20 21 22 23
cat_threshold=1 1 10808 12289 2240 224 3856 2600 10600 451 12 2 24 1 15360 1025 8728 1348 4 1796 2 1025 1
shrinkage=1


Tree=9
num_leaves=40
num_cat=23
split_feature=10 2 5 0 0 0 0 0 0 0 0 2 0 4 0 11 11 0 11 0 9 0 0 0 9 11 11 2 0 2 0 11 9 1 3 11 0 9 0
split_gain=28.9237 18.7328 10.042 23.9974 7.66002 4.9701 4.1073 2.63911 2.17579 2.00677 1.73698 1.59394 2.20074 1.00917 0.982149 0.958158 0.871687 0.782637 0.772238 0.726449 0.722231 0.611106 0.548587 0.5456 0.496137 0.489514 1.02139 1.66012 0.884723 0.543356 0.457304 0.451898 0.440114 0.509198 0.435285 0.398905 0.365784 0.357428 0.336042
threshold=0.55000000000000016 0 1.0000000180025095e-35 1 2 3 4 5 6 7 8 9 10 -122.35204799999998 11 43.250000000000007 30.250000000000004 12 36.250000000000007 13 0.43500000000000005 14 15 16 0.3000000000000001 57.250000000000007 56.750000000000007 17 18 19 20 39.750000000000007 0.41500000000000009 2.5000000000000004 47.61587269000001 45.250000000000007 21 0.27500000000000008 22
decision_type=2 1 2 1 1 1 1 1 1 1 1 1 1 2 1 2 2 1 2 1 2 1 1 1 2 2 2 1 1 1 1 2 2 2 2 2 1 2 1
left_child=1 6 10 9 22 17 34 13 -8 15 11 12 -3 -6 18 -4 -7 -2 20 -10 -13 -12 -5 -18 -19 26 29 28 -28 30 -23 -20 -31 38 -1 -9 -37 -17 -34
right_child=5 2 3 4 7 16 8 35 19 -11 21 14 -14 -15 -16 37 23 24 31 -21 -22 25 -24 -25 -26 -27 27 -29 -30 32 -32 -33 33 -35 -36 36 -38 -39 -40
leaf_value=-0.12930791231293495 -0.25517395151242822 0.075202011330038995 0.23900627250024858 0.055039489877499702 -0.085413513916823114 -0.096103974886887086 -0.039067958687050673 0.023723907248858964 -0.0031118997036540981 0.09895590875469229 0.024843830042910721 -0.041937419139519601 0.0058615449651695595 -0.014935642900506267 -0.003155043358791746 0.16159470946458818 -0.078518727029150109 -0.17553731252361968 0.0057647091295755758 -0.020455193886339228 -0.16397248725013872 0.016448007121231997 0.036519949789617326 -0.045794907713120399 -0.11163559933907108 0.0012794673212291571 0.12398972071583525 0.0090136630107534831 0.042784350265165326 0.0047736256377351105 0.0070235165452749472 -0.021085103592624548 -0.050485806660683509 0.012414400929685739 -0.073387647635880723 -0.00082511822773709753 0.014380614364266704 0.065674022168153268 -0.012744399481884048
leaf_count=379 120 482 172 2728 215 826 5835 2300 3432 921 1834 191 6633 3692 18027 740 910 243 759 8299 65 8048 4498 1530 243 14441 216 1244 428 19400 14392 3600 316 615 220 2599 4037 41 958
internal_value=0 0.00235352 0.00712216 0.0263383 0.0161862 -0.0853362 -0.0274553 0.0015216 -0.0246375 0.134257 0.00252212 -0.00375595 0.00929184 -0.0201266 -0.00785836 0.168309 -0.0691776 -0.1685 -0.0208637 -0.0167536 -0.074287 0.00554025 0.0422119 -0.0598841 -0.142028 0.00498861 0.00659577 0.0293686 0.0701153 0.00561255 0.00904462 -0.0177741 0.00198974 -0.0125803 -0.108325 0.0109986 0.00707742 0.155195 -0.0239876
internal_count=135629 131757 113592 21943 20069 3872 18165 12843 17566 1874 91649 29757 7115 3907 22642 953 3266 606 4615 11731 256 61892 7226 2440 486 60058 45617 1888 644 43729 22440 4359 21289 1889 599 8936 6636 781 1274
cat_boundaries=0 1 5 9 13 16 19 23 27 31 32 35 39 43 46 47 51 54 55 58 59 62 65 68
cat_threshold=1 67239936 4195336 64 9 404488696 809251728 810418179 2 201334848 1432 4202562 9 67108864 8 64 33579013 245857 1073743244 404620160 1064306192 806789121 11 67108864 8 64 1 67305976 410792344 807010369 11 16 67108864 0 64 67108864 4194328 64 8 67108864 0 64 1 33677313 720998 1073745072 8193 134218176 2359696 537001984 2 303955985 4286859777 260423936 2 940083202 1073743360 2185314702 24 2069889026 125830658 1111826444 543168514 125829122 33573424 973078528 1603 138731776
shrinkage=1


Tree=10
num_leaves=40
num_cat=23
split_feature=10 2 5 7 6 7 7 7 7 3 6 6 8 7 1 3 6 3 11 11 7 2 3 2 7 3 7 7 7 3 6 8 7 6 6 7 11 1 8
split_gain=28.5875 18.6864 9.46773 31.632 14.0277 6.46825 3.42911 3.37115 2.97803 2.86996 2.46922 2.0364 1.93612 2.46325 4.56413 4.34802 1.84553 1.48155 1.41969 4.05106 12.5593 29.0459 1.62868 1.45527 2.04041 1.38739 1.28555 1.22117 1.15022 1.09646 1.09025 1.06412 2.42419 1.05339 1.00888 1.007 1.87257 1.3144 1.88779
threshold=0.55000000000000016 0 1.0000000180025095e-35 1 2 3 4 5 6 47.576765045000009 7 8 7.5000000000000009 9 3.5000000000000004 47.611349465000011 10 47.59618222000001 57.250000000000007 56.750000000000007 11 12 47.600457115000005 13 14 47.614654300000005 15 16 17 47.596489775000009 18 7.5000000000000009 19 20 21 22 36.250000000000007 1.5000000000000002 7.5000000000000009
decision_type=2 1 2 1 1 1 1 1 1 2 1 1 2 1 2 2 1 2 2 2 1 1 2 1 1 2 1 1 1 2 1 2 1 1 1 1 2 2 2
left_child=1 5 8 16 7 33 -6 12 -3 -7 25 -8 13 14 -5 -16 -4 -14 19 23 21 22 -21 24 -10 -2 -13 31 34 -18 -11 -12 -33 -1 -26 37 -37 38 -25
right_child=10 2 3 4 6 9 11 -9 18 30 27 26 17 -15 15 -17 29 -19 -20 20 -22 -23 -24 35 28 -27 -28 -29 -30 -31 -32 32 -34 -35 -36 36 -38 -39 -40
leaf_value=-0.10897222008393152 -0.27765960474921275 -0.005723530136077383 -0.040952060635733513 0.13335493030594345 0.049348145274544203 -0.14974678811989045 0.035954935605898013 0.065756012178824944 -0.01180919998972298 -0.03098442680421918 -0.098748668427909136 0.02008169334823235 0.28343133686312294 0.11002112427640814 0.11098701085165889 0.61972166647360838 -0.25517553350032135 0.098715448011204451 -0.00067451042118828793 0.32886526769849911 0.010934861049495894 0.0093752815463119428 0.59742382721934406 -0.11465103700471467 0.013459302226772203 -0.13293421752609713 -0.0051866567505896733 -0.09168245238310728 0.012490239943632044 -0.11229066741062291 -0.012985080342583893 0.056592754889699073 -0.059690208466075048 -0.057462436017120755 0.040734068922149896 -0.032298377525451429 0.002360830703469664 0.024582535814516381 0.0018078285103727098
leaf_count=869 83 23022 461 84 4205 168 3538 2574 2850 4816 363 3930 45 274 24 56 56 1238 16492 27 1668 312 138 157 2412 328 4112 1924 17270 1311 11374 219 861 915 3180 1711 17528 3807 1227
internal_value=0 0.00245669 0.00721225 0.0258916 0.0373585 -0.0273387 0.0235344 0.0879924 0.00275526 -0.0210687 -0.0857684 0.0146223 0.122714 0.180833 0.277852 0.465737 -0.0997272 0.10383 0.00605008 0.00860254 0.0511599 0.192358 0.520564 0.006782 0.0120312 -0.159641 0.00580535 -0.076051 0.0151776 -0.11864 -0.0197323 -0.0529057 -0.0375287 -0.0843926 0.0276481 0.00125186 -0.00208462 0.0135978 -0.0127673
internal_count=135629 131851 113709 21908 20080 18142 15785 4295 91801 16358 3778 11580 1721 438 164 80 1828 1283 68779 52287 2145 477 165 50142 25712 411 8042 3367 22862 1367 16190 1443 1080 1784 5592 24430 19239 5191 1384
cat_boundaries=0 1 2 3 4 5 6 7 8 9 10 11 12 13 14 15 16 17 18 19 20 21 22 23
cat_threshold=1 1 2616 12289 2240 12396 224 2600 8323 12320 10600 12 2 24 1 1570 451 15360 10776 1 8794 3396 1025
shrinkage=1


Tree=11
num_leaves=40
num_cat=21
split_feature=11 5 7 0 9 0 0 0 7 7 0 7 0 7 8 11 11 7 1 1 1 0 3 0 0 11 0 7 4 7 0 7 8 1 7 8 1 1 8
split_gain=19.1245 13.9786 31.632 21.598 10.3469 8.72409 6.4951 6.48962 4.28983 3.65364 2.803 2.97788 2.69565 2.45293 5.40695 2.10473 5.45864 11.7688 9.18728 22.765 2.40675 2.01358 1.62868 1.57198 1.46861 1.25727 1.03724 0.999951 1.02962 0.991086 0.976132 0.942914 0.949844 0.933174 0.929962 1.92371 2.71286 0.928417 1.19428
threshold=36.250000000000007 1.0000000180025095e-35 0 1 0.15500000000000003 2 3 4 5 6 7 8 9 10 7.5000000000000009 57.250000000000007 56.750000000000007 11 5.5000000000000009 4.5000000000000009 3.5000000000000004 12 47.600457115000005 13 14 43.250000000000007 15 16 -122.31950865499998 17 18 19 5.5000000000000009 1.5000000000000002 20 7.5000000000000009 3.5000000000000004 1.5000000000000002 6.5000000000000009
decision_type=2 2 1 1 2 1 1 1 1 1 1 1 1 1 2 2 2 1 2 2 2 1 2 1 1 2 1 1 2 1 1 1 2 2 1 2 2 2 2
left_child=4 9 6 25 31 8 -3 -6 -5 12 11 -7 33 14 -9 16 20 18 19 -18 37 -13 -21 -15 -8 -4 -22 -27 -29 -12 34 -1 -33 -2 35 36 -10 38 -11
right_child=1 2 3 5 7 10 24 13 30 15 29 21 -14 23 -16 -17 17 -19 -20 22 26 -23 -24 -25 -26 27 -28 28 -30 -31 -32 32 -34 -35 -36 -37 -38 -39 -40
leaf_value=0.06177321128677675 -0.038790819409762166 -0.18874973782805696 0.23336141061739962 0.024176381897032959 -0.18844641739442647 0.017256990234601935 -0.018341451261672068 -0.21680088272014161 0.1067416901330895 0.027149803275977678 0.036390683869247861 -0.13372958691964712 -0.0024973065917729118 -0.10004169190849967 0.078304173039052224 -0.0057148652982734064 0.019772687073042174 0.012772983028304543 -0.00037941024247470411 0.32886526769849911 -0.025367652447258762 -0.026316809830541077 0.59742382721934406 -0.0561040157774449 -0.087856177960843079 0.099200767377864763 -0.0015028838255272598 0.13463167269941431 0.21259103226039203 0.014340384143511997 0.063887069495597124 -0.032135334236495595 0.0078081633256205634 -0.016479679378621173 0.083938688250743021 0.10658020099939551 0.46626527253804645 0.014724043478125609 -0.00011953635714101918
leaf_count=216 2312 553 222 2332 460 2067 555 79 43 1873 3756 190 24480 1293 290 17475 155 1393 157 27 2045 1553 138 2594 720 379 16084 307 378 4538 2509 893 1786 9910 1523 242 41 18793 11268
internal_value=0 0.00289451 0.0258916 0.0373585 -0.0487013 0.0287287 -0.0997272 -0.0775896 0.0576959 -0.00185359 0.0126838 -0.00975777 -0.0099215 -0.064862 0.0133973 0.00241369 0.00560837 0.058655 0.192358 0.2936 0.00362692 -0.0400936 0.552114 -0.0723066 -0.0593498 0.162283 -0.00557538 0.149263 0.173751 0.022992 0.0762675 -0.001642 -0.00684494 -0.0220463 0.0944816 0.145995 0.280859 0.00885109 0.00240303
internal_count=135629 128018 21908 20080 7611 18794 1828 4716 6690 106110 12104 3810 36702 4256 369 69408 51933 1870 477 320 50063 1743 165 3887 1275 1286 18129 1064 685 8294 4358 2895 2679 12222 1849 326 84 31934 13141
cat_boundaries=0 1 5 9 12 16 17 18 21 22 26 27 28 29 32 36 40 41 42 46 47 48
cat_threshold=1 67108864 4194312 64 9 2551317496 808728464 809893891 2 301996544 126075488 864350223 67117056 1160 4194368 9 1808 12513 24583 196705 1073745844 4032 1679688184 4033875864 65602 10 1 12 8193 404099265 4001630998 167895042 76218840 3357280392 1075383536 1 67108864 6291848 805306432 9 3586 2784 268566976 2099088 536870912 2 1 4098
shrinkage=1


Tree=12
num_leaves=40
num_cat=31
split_feature=10 2 5 7 0 0 0 7 0 7 0 0 7 0 7 0 0 0 7 8 7 0 0 7 4 0 7 3 7 0 7 8 1 0 0 4 0 7 7
split_gain=28.5875 18.6864 9.46773 31.632 21.598 8.72409 6.4951 6.46825 5.24051 4.28983 4.05316 3.33496 2.97803 2.803 2.97788 2.01358 1.46861 1.39697 1.33774 2.18947 1.38665 1.29365 1.25868 1.19111 1.47501 1.06641 1.05443 1.03092 0.991086 0.976132 0.929962 1.92371 2.71286 0.92387 0.893683 0.858998 0.75769 0.784401 0.730863
threshold=0.55000000000000016 0 1.0000000180025095e-35 1 2 3 4 5 6 7 8 9 10 11 12 13 14 15 16 7.5000000000000009 17 18 19 20 -122.31950865499998 21 22 47.614129925000007 23 24 25 7.5000000000000009 3.5000000000000004 26 27 -122.33788336499998 28 29 30
decision_type=2 1 2 1 1 1 1 1 1 1 1 1 1 1 1 1 1 1 1 2 1 1 1 1 2 1 1 2 1 1 1 2 2 1 1 2 1 1 1
left_child=1 7 12 6 23 9 -4 11 27 34 -9 -1 17 14 -7 -16 -8 -3 19 -10 -21 -20 -12 -5 -25 26 -14 -2 -15 30 31 32 -11 -13 -6 -33 37 -30 -24
right_child=8 2 3 4 5 13 16 10 18 29 22 33 25 28 15 -17 -18 -19 21 20 -22 -23 38 24 -26 -27 -28 -29 36 -31 -32 35 -34 -35 -36 -37 -38 -39 -40
leaf_value=-0.0061769957606407537 -0.27480642030770264 -0.017012383452024743 -0.18874973782805696 0.11338464642608125 0.058387963344746191 0.017256990234601935 -0.018341451261672068 -0.094446223891464884 -0.13010516533603589 0.1067416901330895 -0.029311173685168855 -0.14662626649984906 0.015033666199737557 0.036390683869247861 -0.13372958691964712 -0.026316809830541077 -0.087856177960843079 -0.000347512192364249 -0.11145327261759093 0.063331339382904653 -0.046279752062531779 -0.064197608061916822 -0.021322579666249813 0.14473725428613676 0.22931879150243373 0.010039860780991224 -0.0021713475375770672 -0.16379650518870381 -0.035375891287504943 0.063887069495597124 0.083938688250743021 0.20920749574653738 0.46626527253804645 -0.085527981014964408 0.012875407329894296 0.071993101664723391 0.023308008126845484 0.01260442774977996 -0.0039497843718748673
leaf_count=438 129 7419 553 452 569 2067 555 686 154 43 5085 470 4521 3756 190 1553 720 15603 965 219 223 1850 3761 373 461 47610 16648 238 515 2509 1523 61 41 876 1763 181 3060 963 6826
internal_value=0 0.00245669 0.00721225 0.0258916 0.0373585 0.0287287 -0.0997272 -0.0273387 -0.0857684 0.0576959 -0.0210687 -0.0843926 0.00275526 0.0126838 -0.00975777 -0.0400936 -0.0593498 -0.00708769 -0.0728146 -0.0283116 0.00698971 -0.0821033 -0.0177381 0.162283 0.187874 0.00605008 0.000143638 -0.198765 0.022992 0.0762675 0.0944816 0.145995 0.280859 -0.109161 0.0228122 0.105216 0.0129762 -0.00561273 -0.0115012
internal_count=135629 131851 113709 21908 20080 18794 1828 18142 3778 6690 16358 1784 91801 12104 3810 1743 1275 23022 3411 596 442 2815 15672 1286 834 68779 21169 367 8294 4358 1849 326 84 1346 2332 242 4538 1478 10587
cat_boundaries=0 1 2 6 10 13 14 18 19 23 27 28 31 32 33 37 41 42 43 47 51 52 56 57 58 62 63 67 70 73 74 75
cat_threshold=1 1 67108864 4194312 64 9 2551317496 808728464 809893891 2 301996544 126075488 864350223 12289 67117056 1160 4202560 1 1808 67108864 8 64 1 33650689 1074743776 1279265968 1 224 24583 196705 1073745844 4032 8193 76218840 3357280392 1075383536 1 1679229432 813173784 805700162 10 8321 1 404099265 3867417366 201441283 8 2183005056 1072694656 811343873 10 3586 196824 2286687640 1008208064 15 3072 2784 268566976 2099088 536870912 2 4098 68683576 544212488 537067524 6 131072 262144 809893890 1642076160 49152 114696 12 3648
shrinkage=1


Tree=13
num_leaves=40
num_cat=23
split_feature=10 5 7 0 0 0 0 7 7 0 0 7 0 0 0 7 8 7 0 7 4 7 3 9 7 0 1 7 8 1 9 7 1 1 8 4 9 0 9
split_gain=28.5875 14.4293 31.632 21.598 8.72409 6.4951 5.24051 4.28983 3.18668 2.83076 2.803 2.97788 2.01358 1.65436 1.46861 1.33774 2.18947 1.38665 1.29365 1.19111 1.47501 1.04389 1.03092 1.00558 0.991086 0.976132 0.967111 0.929962 1.92371 2.71286 0.926879 1.12605 2.76059 11.0723 20.504 2.15389 0.897542 0.893683 0.881021
threshold=0.55000000000000016 1.0000000180025095e-35 0 1 2 3 4 5 6 7 8 9 10 11 12 13 7.5000000000000009 14 15 16 -122.31950865499998 17 47.614129925000007 1.0000000180025095e-35 18 19 1.5000000000000002 20 7.5000000000000009 3.5000000000000004 0.27500000000000008 21 4.5000000000000009 5.5000000000000009 14.500000000000002 -122.33407627499999 0.48000000000000004 22 0.43500000000000005
decision_type=2 2 1 1 1 1 1 1 1 1 1 1 1 1 1 1 2 1 1 1 2 1 2 2 1 1 2 1 2 2 2 1 2 2 2 2 2 1 2
left_child=1 8 5 19 7 -3 22 37 9 26 11 -6 -13 21 -7 16 -8 -18 -17 -4 -21 -10 -2 -15 -12 27 -1 28 29 -9 31 32 -25 34 35 -34 38 -5 -32
right_child=6 2 3 4 10 14 15 25 13 -11 24 12 -14 23 -16 18 17 -19 -20 20 -22 -23 -24 30 -26 -27 -28 -29 -30 -31 36 -33 33 -35 -36 -37 -38 -39 -40
leaf_value=-0.039037371964012503 -0.27480642030770264 -0.18874973782805696 0.11338464642608125 0.058387963344746191 0.017256990234601935 -0.018341451261672068 -0.13010516533603589 0.1067416901330895 0.0084817694696320903 -0.0021642991067930299 0.036390683869247861 -0.13372958691964712 -0.026316809830541077 0.0019863226534256777 -0.087856177960843079 -0.11145327261759093 0.063331339382904653 -0.046279752062531779 -0.064197608061916822 0.14473725428613676 0.22931879150243373 -0.010813156615533967 -0.16379650518870381 0.01500906491183784 0.014340384143511997 0.063887069495597124 -0.016370159389498387 0.083938688250743021 0.10658020099939551 0.46626527253804645 -0.0049913064696340652 0.0074416614604232312 0.5007564671884176 -0.00087887767622460292 -0.037368996387619917 0.2758618930010388 0.017406161105540364 0.012875407329894296 -0.051696401694490579
leaf_count=2302 129 553 452 569 2067 555 154 43 3691 25396 3756 190 1553 32938 720 965 219 223 1850 373 461 11610 238 6305 4538 2509 10323 1523 242 41 2440 11824 136 760 178 62 1494 1763 484
internal_value=0 0.00245669 0.0258916 0.0373585 0.0287287 -0.0997272 -0.0857684 0.0576959 -0.00221312 -0.00961636 0.0126838 -0.00975777 -0.0400936 0.00170164 -0.0593498 -0.0728146 -0.0283116 0.00698971 -0.0821033 0.162283 0.187874 -0.00752127 -0.198765 0.00419488 0.022992 0.0762675 -0.0218501 0.0944816 0.145995 0.280859 0.00916554 0.0121614 0.0217915 0.0671981 0.207558 0.428971 -0.00389812 0.0228122 -0.0140864
internal_count=135629 131851 21908 20080 18794 1828 3778 6690 109943 38021 12104 3810 1743 71922 1275 3411 596 442 2815 1286 834 15301 367 56621 8294 4358 12625 1849 326 84 23683 19265 7441 1136 376 198 4418 2332 2924
cat_boundaries=0 1 5 9 12 16 17 18 22 25 26 27 31 35 36 37 41 42 43 44 48 49 50 53
cat_threshold=1 67108864 4194312 64 9 2551317496 808728464 809893891 2 301996544 126075488 864350223 67117056 1160 4202560 1 1808 12513 1679688184 3497004952 69698 10 24583 196705 1073745844 4032 8193 67240512 140509576 941359168 15 76218840 3357280392 1075383536 1 8321 1 404099265 3867417366 201441283 8 3586 3072 2784 268566976 2099088 536870912 2 4098 14 131072 262144 809893890
shrinkage=1


Tree=14
num_leaves=40
num_cat=32
split_feature=10 2 5 7 0 0 0 7 0 7 0 0 7 0 7 0 0 11 11 7 2 2 7 0 0 7 8 7 0 0 0 11 7 0 7 7 0 7 1
split_gain=28.5875 18.6864 9.46773 31.632 21.598 8.72409 6.4951 6.46825 5.24051 4.28983 4.05316 3.33496 2.97803 2.803 2.97788 2.01358 1.46861 1.41969 4.05106 12.5593 29.0459 1.45527 2.04041 1.45977 1.39697 1.33774 2.18947 1.38665 1.29365 1.2832 1.25868 1.25727 1.15022 1.50082 0.999951 0.991086 0.976132 0.946266 2.08919
threshold=0.55000000000000016 0 1.0000000180025095e-35 1 2 3 4 5 6 7 8 9 10 11 12 13 14 57.250000000000007 56.750000000000007 15 16 17 18 19 20 21 7.5000000000000009 22 23 24 25 43.250000000000007 26 27 28 29 30 31 1.5000000000000002
decision_type=2 1 2 1 1 1 1 1 1 1 1 1 1 1 1 1 1 2 2 1 1 1 1 1 1 1 2 1 1 1 1 2 1 1 1 1 1 1 2
left_child=1 7 12 6 31 9 -4 11 -2 -6 -9 -1 24 14 -7 -16 -8 18 21 20 -20 22 23 -14 -3 26 -10 -28 -27 -23 -12 -5 33 -24 -33 -15 -11 38 -31
right_child=8 2 3 4 5 13 16 10 25 36 30 -13 17 35 15 -17 -18 -19 19 -21 -22 29 32 -25 -26 28 27 -29 -30 37 -32 34 -34 -35 -36 -37 -38 -39 -40
leaf_value=-0.0061769957606407537 -0.19740041083539978 -0.017012383452024743 -0.18874973782805696 0.23336141061739962 0.024176381897032959 0.017256990234601935 -0.018341451261672068 -0.094446223891464884 -0.13010516533603589 0.095845716288340793 -0.029311173685168855 -0.10779649016876508 -0.0446363488243137 0.036390683869247861 -0.13372958691964712 -0.026316809830541077 -0.087856177960843079 -0.00067451042118828793 0.52192852545021939 0.010934861049495894 0.0093752815463119428 -0.015388959950279489 0.04999396777555544 0.0037460361627796499 -0.000347512192364249 -0.11145327261759093 0.063331339382904653 -0.046279752062531779 -0.064197608061916822 -0.023894432312544706 -0.010137002496671141 0.099200767377864763 0.012490239943632044 0.016117378423799785 0.17511507234936377 0.014340384143511997 0.063887069495597124 0.0031551026831846398 0.043040527362259343
leaf_count=438 367 7419 553 222 2332 2067 555 686 154 1849 5085 1346 910 3756 190 1553 720 16492 165 1668 312 3397 2118 1940 15603 965 219 223 1850 644 10587 379 17270 3474 685 4538 2509 18699 1690
internal_value=0 0.00245669 0.00721225 0.0258916 0.0373585 0.0287287 -0.0997272 -0.0273387 -0.0857684 0.0576959 -0.0210687 -0.0843926 0.00275526 0.0126838 -0.00975777 -0.0400936 -0.0593498 0.00605008 0.00860254 0.0511599 0.192358 0.006782 0.0120312 -0.0131734 -0.00708769 -0.0728146 -0.0283116 0.00698971 -0.0821033 0.00125186 -0.0177381 0.162283 0.0151776 0.0276481 0.149263 0.022992 0.0762675 0.00416639 0.0231086
internal_count=135629 131851 113709 21908 20080 18794 1828 18142 3778 6690 16358 1784 91801 12104 3810 1743 1275 68779 52287 2145 477 50142 25712 2850 23022 3411 596 442 2815 24430 15672 1286 22862 5592 1064 8294 4358 21033 2334
cat_boundaries=0 1 2 6 10 13 14 18 19 23 27 28 31 32 33 37 38 39 40 41 44 48 49 50 54 58 62 63 67 68 69 73 74
cat_threshold=1 1 67108864 4194312 64 9 2551317496 808728464 809893891 2 301996544 126075488 864350223 12289 67117056 1160 4202560 1 1808 67108864 8 64 1 33650689 1074743776 1279265968 1 224 24583 196705 1073745844 4032 8193 76218840 3357280392 1075383536 1 12 2 24 1 3760064032 4168104657 67112112 1679229432 813173784 805700162 10 8321 1 404099265 3867417366 201441283 8 67239936 138413464 64 11 2183005056 1072694656 811343873 10 15360 3289776640 542129822 843321423 8 3586 2784 268566976 2099088 536870912 2 1
shrinkage=1


Tree=15
num_leaves=40
num_cat=30
split_feature=10 2 5 7 0 0 7 0 0 7 0 0 7 0 7 0 0 11 11 7 2 3 0 11 0 2 7 0 0 7 7 0 7 0 7 8 1 7 11
split_gain=29.7922 19.1331 9.53931 31.963 21.6397 9.28741 7.15605 6.6754 5.13476 4.22148 3.66605 3.31225 2.82654 2.72513 2.47452 1.74004 1.39832 1.3318 3.76355 10.9158 26.1104 2.21168 1.30163 1.2759 1.25818 1.19768 2.40407 1.66758 1.36507 1.18017 1.16606 1.58826 1.14706 1.04015 1.47336 3.8551 4.65935 1.03279 1.86299
threshold=0.55000000000000016 0 1.0000000180025095e-35 1 2 3 4 5 6 7 8 9 10 11 12 13 14 57.250000000000007 56.750000000000007 15 16 47.600457115000005 17 43.250000000000007 18 19 20 21 22 23 24 25 26 27 28 7.5000000000000009 3.5000000000000004 29 37.250000000000007
decision_type=2 1 2 1 1 1 1 1 1 1 1 1 1 1 1 1 1 2 2 1 1 2 1 2 1 1 1 1 1 1 1 1 1 1 1 2 2 1 2
left_child=1 6 12 7 23 9 11 -4 -2 -6 -8 -1 16 14 -7 -16 -3 18 25 20 21 -20 -9 -5 -12 26 27 -14 -27 -15 31 -28 -10 34 35 36 -11 38 -30
right_child=8 2 3 4 5 13 10 22 32 33 24 -13 17 29 15 -17 -18 -19 19 -21 -22 -23 -24 -25 -26 28 30 -29 37 -31 -32 -33 -34 -35 -36 -37 -38 -39 -40
leaf_value=-0.0089784637672268627 -0.1794239021274007 -0.0165202294063432 -0.18925947121861611 0.23176216983639869 0.026111777058342993 0.014180406232538391 -0.092881293283368568 -0.020472070425676038 -0.047710655525383595 0.11294974309852887 -0.0039550041487434922 -0.11172065473435269 -0.049367799911241433 0.034909783700581336 -0.13265945093687642 -0.028623945211018686 0.00012479485869204706 -0.00030326826418927439 0.28226309832558699 0.01250395803779447 0.0095322863521079652 0.5874645371867141 -0.08596244092611556 0.14983920349718927 -0.022982660189656084 -0.010508446602499116 0.0046513976128863517 0.0022191726963350969 0.10835849681123749 0.012059228811304312 0.012359132503806757 0.040696805893538426 -0.086849215112106457 0.063714411076231089 0.082743136192597919 0.099870611564351036 0.56801266276738216 0.0046491000157048486 0.017207364132170729
leaf_count=426 504 7445 561 231 2365 1648 648 564 1406 45 5254 1323 910 4180 180 1210 15646 16458 29 1663 309 131 711 1074 10372 5573 1822 1973 255 4979 17337 3772 1917 2321 1636 256 45 16592 1858
internal_value=0 0.00264578 0.00744143 0.0261409 0.0376412 0.0289756 -0.0276179 -0.0998605 -0.0868571 0.0589701 -0.0210502 -0.0882612 0.00295834 0.0125431 -0.013386 -0.0443214 -0.00661147 0.00617579 0.00864871 0.0497973 0.182737 0.49956 -0.0587521 0.161737 -0.0179566 0.00689736 0.0116376 -0.0155471 0.00185162 0.0211489 0.0150607 0.0276193 -0.0718503 0.0776783 0.0952249 0.156568 0.339117 0.0059448 0.026717
internal_count=135629 131802 113779 22006 20170 18865 18023 1836 3827 6668 16274 1749 91773 12197 3038 1390 23091 68682 52224 2132 469 160 1275 1305 15626 50092 25814 2883 24278 9159 22931 5594 3323 4303 1982 346 90 18705 2113
cat_boundaries=0 1 2 6 10 11 14 18 19 23 27 28 31 32 33 37 38 39 43 46 47 48 51 55 56 57 61 62 66 67 68
cat_threshold=1 1 67108864 4194312 64 9 404095992 808728464 809893891 2 12289 301997568 109298272 931459085 201334784 1176 4202560 9 1808 67108864 8 64 1 33646593 2148485600 3361737904 1 224 24583 196705 1073743248 4032 8193 1146552824 276314008 537264129 10 12 2 1704394962 3358064648 3222867184 1 6414343 1074729079 1073811388 24 1 3760080384 4168104658 36016 67240000 139462040 1812072640 11 2784 15360 129375 983105 3224964784 4 451 402784704 2099088 536870912 2 4098 1
shrinkage=1


Tree=16
num_leaves=40
num_cat=28
split_feature=2 11 5 7 0 0 11 7 0 9 7 7 0 0 0 7 0 7 0 0 11 11 7 2 3 0 0 11 0 7 0 7 11 4 0 7 0 7 11
split_gain=28.0046 8.85178 8.97089 31.963 21.6397 9.28741 8.7895 7.15605 6.6754 5.63122 4.64073 4.22148 3.66605 3.63222 3.31225 2.77433 2.72513 2.47452 2.43416 1.74004 1.58151 3.59112 10.9158 26.1104 2.21168 1.30804 1.30163 1.2759 1.25818 1.18017 1.04015 1.47336 1.21651 1.08335 1.01592 1.00703 0.969208 0.968805 0.980667
threshold=0 36.250000000000007 1.0000000180025095e-35 1 2 3 37.250000000000007 4 5 0.15500000000000003 6 7 8 9 10 11 12 13 14 15 57.250000000000007 56.750000000000007 16 17 47.600457115000005 18 19 43.250000000000007 20 21 22 23 54.750000000000007 -122.31567192499999 24 25 26 27 29.250000000000004
decision_type=1 2 2 1 1 1 2 1 1 2 1 1 1 1 1 1 1 1 1 1 2 2 1 1 2 1 1 2 1 1 1 1 2 2 1 1 1 1 2
left_child=6 9 15 8 27 11 18 14 -4 37 -11 -6 -9 -12 -8 25 17 -7 -1 -19 21 36 23 24 -23 -3 -10 -5 -14 -18 31 32 -13 -34 -31 -22 -17 -2 -39
right_child=1 2 3 4 5 16 7 12 26 10 13 30 28 -15 -16 20 29 19 -20 -21 35 22 -24 -25 -26 -27 -28 -29 -30 34 -32 -33 33 -35 -36 -37 -38 38 -40
leaf_value=-0.16482793556645536 0.059320405923160138 -0.015912276481399069 -0.18925947121861611 0.23176216983639869 0.026111777058342993 0.014180406232538391 -0.0089784637672268627 -0.092881293283368568 -0.020472070425676038 0.069888393488214559 -0.15660299488516161 0.12677133835505058 -0.0039550041487434922 -0.056888691255077971 -0.11172065473435269 0.0026623197308392626 0.034909783700581336 -0.13265945093687642 -0.076621413517574524 -0.028623945211018686 0.014660479864738406 0.28226309832558699 0.01250395803779447 0.0095322863521079652 0.5874645371867141 0.00054253114102150205 -0.08596244092611556 0.14983920349718927 -0.022982660189656084 -0.0046140330950527044 0.063714411076231089 0.082743136192597919 0.19832995735499728 0.44893468803313918 0.024269619074074676 -0.0043861280743737428 0.012341269655246526 -0.032902147941601317 0.00817908734048782
leaf_count=425 244 7118 561 231 2365 1648 426 648 564 238 446 254 5254 2162 1323 15324 4180 180 1499 1210 3524 29 1663 309 131 15008 711 1074 10372 2107 2321 1636 69 23 2872 12934 31917 867 1762
internal_value=0 0.00608793 0.00808334 0.0261409 0.0376412 0.0289756 -0.0344745 -0.0276332 -0.0998605 -0.0322686 -0.0637963 0.0589701 -0.0210502 -0.0758435 -0.0882612 0.00356551 0.0125431 -0.013386 -0.098739 -0.0443214 0.00682094 0.00965183 0.0497973 0.182737 0.49956 -0.0061206 -0.0587521 0.161737 -0.0179566 0.0211489 0.0776783 0.0952249 0.156568 0.259617 0.0106951 -0.00166743 0.00784006 -0.00103728 -0.00670746
internal_count=135629 115682 109963 22006 20170 18865 19947 18023 1836 5719 2846 6668 16274 2608 1749 87957 12197 3038 1924 1390 65831 49373 2132 469 160 22126 1275 1305 15626 9159 4303 1982 346 92 4979 16458 47241 2873 2629
cat_boundaries=0 1 2 6 10 11 14 15 16 20 24 28 29 32 33 37 38 39 40 44 48 51 52 56 57 60 61 65 66
cat_threshold=1 1 67108864 4194312 64 9 404095992 808728464 809893891 2 12289 301997568 109298272 931459085 1 1808 67108864 8 64 1 201465920 1436 4202560 9 33646593 2148485600 3361737904 1 224 24583 196705 1073743248 4032 503324672 1073743774 4235328 9 8193 12 2 1146552824 813184920 537264129 8 1704394962 3358064648 3222867184 1 6414343 1074729079 1073811388 2784 402784704 2099088 536870912 2 4098 1642072064 134268928 33671724 1025 229464 142348697 2822376578 11 1
shrinkage=1


Tree=17
num_leaves=40
num_cat=28
split_feature=2 11 5 7 0 0 11 7 0 8 7 7 0 0 0 7 0 7 0 0 11 11 7 2 0 0 11 0 7 0 7 8 1 4 0 7 0 7 8
split_gain=28.0046 8.85178 8.97089 31.963 21.6397 9.28741 8.7895 7.15605 6.6754 5.63122 4.64073 4.22148 3.66605 3.63222 3.31225 2.77433 2.72513 2.47452 2.43416 1.74004 1.58151 3.59112 10.9158 26.1104 1.30804 1.30163 1.2759 1.25818 1.18017 1.04015 1.47336 3.8551 4.65935 3.10652 1.01592 1.00703 0.969208 0.968805 0.980667
threshold=0 36.250000000000007 1.0000000180025095e-35 1 2 3 37.250000000000007 4 5 7.5000000000000009 6 7 8 9 10 11 12 13 14 15 57.250000000000007 56.750000000000007 16 17 18 19 43.250000000000007 20 21 22 23 7.5000000000000009 3.5000000000000004 -122.31940322499999 24 25 26 27 5.5000000000000009
decision_type=1 2 2 1 1 1 2 1 1 2 1 1 1 1 1 1 1 1 1 1 2 2 1 1 1 1 2 1 1 1 1 2 2 2 1 1 1 1 2
left_child=6 9 15 8 26 11 18 14 -4 37 -11 -6 -9 -12 -8 24 17 -7 -1 -19 21 36 23 -23 -3 -10 -5 -14 -18 30 31 32 -13 -34 -30 -22 -17 -2 -39
right_child=1 2 3 4 5 16 7 12 25 10 13 29 27 -15 -16 20 28 19 -20 -21 35 22 -24 -25 -26 -27 -28 -29 34 -31 -32 -33 33 -35 -36 -37 -38 38 -40
leaf_value=-0.16482793556645536 0.059320405923160138 -0.015912276481399069 -0.18925947121861611 0.23176216983639869 0.026111777058342993 0.014180406232538391 -0.0089784637672268627 -0.092881293283368568 -0.020472070425676038 0.069888393488214559 -0.15660299488516161 0.11294974309852887 -0.0039550041487434922 -0.056888691255077971 -0.11172065473435269 0.0026623197308392626 0.034909783700581336 -0.13265945093687642 -0.076621413517574524 -0.028623945211018686 0.014660479864738406 0.50092426936800594 0.01250395803779447 0.0095322863521079652 0.00054253114102150205 -0.08596244092611556 0.14983920349718927 -0.022982660189656084 -0.0046140330950527044 0.063714411076231089 0.082743136192597919 0.099870611564351036 0.2871288751281057 0.81378597695174915 0.024269619074074676 -0.0043861280743737428 0.012341269655246526 -0.032902147941601317 0.00817908734048782
leaf_count=425 244 7118 561 231 2365 1648 426 648 564 238 446 45 5254 2162 1323 15324 4180 180 1499 1210 3524 160 1663 309 15008 711 1074 10372 2107 2321 1636 256 21 24 2872 12934 31917 867 1762
internal_value=0 0.00608793 0.00808334 0.0261409 0.0376412 0.0289756 -0.0344745 -0.0276332 -0.0998605 -0.0322686 -0.0637963 0.0589701 -0.0210502 -0.0758435 -0.0882612 0.00356551 0.0125431 -0.013386 -0.098739 -0.0443214 0.00682094 0.00965183 0.0497973 0.182737 -0.0061206 -0.0587521 0.161737 -0.0179566 0.0211489 0.0776783 0.0952249 0.156568 0.339117 0.566649 0.0106951 -0.00166743 0.00784006 -0.00103728 -0.00670746
internal_count=135629 115682 109963 22006 20170 18865 19947 18023 1836 5719 2846 6668 16274 2608 1749 87957 12197 3038 1924 1390 65831 49373 2132 469 22126 1275 1305 15626 9159 4303 1982 346 90 45 4979 16458 47241 2873 2629
cat_boundaries=0 1 2 6 10 11 14 15 16 20 24 28 29 32 33 37 38 39 40 44 48 51 52 56 57 60 61 65 66
cat_threshold=1 1 67108864 4194312 64 9 404095992 808728464 809893891 2 12289 301997568 109298272 931459085 1 1808 67108864 8 64 1 201465920 1436 4202560 9 33646593 2148485600 3361737904 1 224 24583 196705 1073743248 4032 503324672 1073743774 4235328 9 8193 12 2 1146552824 813184920 537264129 8 1704394962 3358064648 3222867184 1 6414343 1074729079 1073811388 2784 402784704 2099088 536870912 2 4098 1642072064 134268928 33671724 1025 229464 142348697 2822376578 11 1
shrinkage=1


Tree=18
num_leaves=40
num_cat=25
split_feature=10 5 7 0 0 0 0 7 0 7 0 7 0 7 0 11 7 7 0 7 8 11 4 0 0 3 0 9 11 7 0 11 8 8 7 4 8 7 7
split_gain=29.7922 14.5825 31.963 21.6397 9.28741 6.6754 5.13476 4.22148 3.14014 2.79903 2.72513 2.47452 1.74004 1.61799 1.30163 1.2759 1.18017 1.14706 1.04015 1.47336 3.8551 4.65935 3.10652 1.02275 1.01592 0.982855 0.93843 0.913116 1.3733 0.860798 0.840798 0.783089 5.77628 7.69675 12.1328 2.44875 0.766412 1.9493 0.762422
threshold=0.55000000000000016 1.0000000180025095e-35 0 1 2 3 4 5 6 7 8 9 10 11 12 43.250000000000007 13 14 15 16 7.5000000000000009 51.250000000000007 -122.31940322499999 17 18 47.614129925000007 19 1.0000000180025095e-35 36.750000000000007 20 21 55.250000000000007 14.500000000000002 13.500000000000002 22 -122.33406608499999 7.5000000000000009 23 24
decision_type=2 2 1 1 1 1 1 1 1 1 1 1 1 1 1 2 1 1 1 1 2 2 2 1 1 2 1 2 2 1 1 2 2 2 1 2 2 1 1
left_child=1 8 5 15 7 -3 25 26 9 -1 11 -6 -13 27 -7 -4 -12 36 19 20 21 -9 -23 -11 29 -2 -5 -10 -29 -18 -19 -30 33 -33 35 -35 -8 -38 -17
right_child=6 2 3 4 10 14 17 18 13 23 16 12 -14 -15 -16 38 24 30 -20 -21 -22 22 -24 -25 -26 -27 -28 28 31 -31 -32 32 -34 34 -36 -37 37 -39 -40
leaf_value=0.0044928888814062028 -0.2477623129927754 -0.18925947121861611 0.23176216983639869 0.060367780318426247 0.014180406232538391 -0.020472070425676038 -0.088006101915031221 0.11294974309852887 0.0039787232337751789 -0.024448410948568623 0.034909783700581336 -0.13265945093687642 -0.028623945211018686 -0.00088263204108751355 -0.08596244092611556 0.10271530746388709 -0.03177178779586648 -0.054589538002536971 0.063714411076231089 0.082743136192597919 0.099870611564351036 0.2871288751281057 0.81378597695174915 -0.010221634383951321 0.024269619074074676 -0.15289406158226551 0.014407015328957627 -0.057855630850256787 0.012712545460686099 0.010312874612605763 -0.10256840158544631 0.0029393741207593979 0.0071628178111214436 0.63345778626230931 0.04518361772796449 0.30589759558189622 0.048100986016241708 -0.056331887620614571 0.17172672980736386
leaf_count=11549 160 561 231 592 1648 564 358 45 17657 7166 4180 180 1210 43323 711 380 743 643 2321 1636 256 21 24 17354 2872 344 1773 253 10105 1364 1274 253 1877 74 152 33 221 827 694
internal_value=0 0.00264578 0.0261409 0.0376412 0.0289756 -0.0998605 -0.0868571 0.0589701 -0.00206326 -0.00970763 0.0125431 -0.013386 -0.0443214 0.00167764 -0.0587521 0.161737 0.0211489 -0.0718503 0.0776783 0.0952249 0.156568 0.339117 0.566649 -0.0157524 0.0106951 -0.180788 0.0247476 0.0072685 0.0137208 -0.00597819 -0.0882134 0.0151978 0.0314801 0.125629 0.246808 0.48568 -0.0490748 -0.035778 0.148475
internal_count=135629 131802 22006 20170 18865 1836 3827 6668 109796 36069 12197 3038 1390 73727 1275 1305 9159 3323 4303 1982 346 90 45 24520 4979 504 2365 30404 12747 2107 1917 12494 2389 512 259 107 1406 1048 1074
cat_boundaries=0 1 5 9 12 16 17 21 22 25 26 27 28 32 33 34 38 39 43 46 49 50 54 55 56 57
cat_threshold=1 67108864 4194312 64 9 404095992 808728464 809893891 2 301997568 109298272 931459085 201334784 1176 4202560 9 1808 68551672 410007448 806355009 11 3840 24583 196705 1073743248 4032 8193 1054 1704394962 3358064648 3222867184 1 2784 451 402784704 2099088 536870912 2 4098 67239936 6291736 64 8 1642072064 134268928 33671724 131072 2359296 809893888 12 65126407 7012449 1075449020 4 12 1 3586
shrinkage=1


Tree=19
num_leaves=40
num_cat=21
split_feature=2 11 5 7 6 11 7 8 7 7 8 7 3 7 3 4 4 6 7 11 11 7 2 3 3 7 4 7 3 6 7 7 3 3 7 8 7 2 6
split_gain=28.0046 8.85178 8.97089 31.963 15.0619 8.7895 7.15605 5.63122 4.64073 3.68133 16.0587 3.03579 2.96537 2.77433 2.22645 2.2262 2.01995 1.75504 1.72243 1.58151 3.59112 10.9158 26.1104 2.21168 1.19979 1.12747 1.12571 1.35583 1.11365 1.09526 1.04624 1.00703 0.975855 1.03974 0.968805 0.980667 0.964114 1.11581 0.973787
threshold=0 36.250000000000007 1.0000000180025095e-35 1 2 37.250000000000007 3 7.5000000000000009 4 5 7.5000000000000009 6 47.59618222000001 7 47.576765045000009 -122.32387042999999 -122.35224032999999 8 9 57.250000000000007 56.750000000000007 10 11 47.600457115000005 47.596489775000009 12 -122.34723282999998 13 47.576765045000009 14 15 16 47.61587269000001 47.672227755000009 17 5.5000000000000009 18 19 20
decision_type=1 2 2 1 1 2 1 2 1 1 2 1 2 1 2 2 2 1 1 2 2 1 1 2 2 1 2 1 2 1 1 1 2 2 1 2 1 1 1
left_child=5 7 13 17 9 28 -7 34 -9 10 -5 -6 -11 -3 -8 -10 25 24 -14 20 36 22 23 -22 -4 -13 27 -18 -1 -16 -28 -21 -20 -34 -2 -36 37 38 -15
right_child=1 2 3 4 11 6 14 8 15 12 -12 16 18 19 29 -17 26 -19 32 31 21 -23 -24 -25 -26 -27 30 -29 -30 -31 -32 -33 33 -35 35 -37 -38 -39 -40
leaf_value=-0.31610046550051679 0.059320405923160138 -0.0047564427020785633 -0.25931808213490715 0.83076603401394122 0.047594610805490448 -0.086897034981843368 -0.13897770944484808 0.069888393488214559 -0.059007047859893406 0.20428027948073971 0.048175732200080493 0.0653981538393512 0.055427342284660244 0.011962839901507972 -0.03118206729385898 -0.12892219308843067 0.014659521803587797 -0.04473613162568954 0.089941036383010112 0.014660479864738406 0.28226309832558699 0.01250395803779447 0.0095322863521079652 0.5874645371867141 -0.11228140588768061 0.023599328516510455 0.028174046828934145 -0.035006930813847079 -0.094728478380975825 -0.013125814394784593 0.0030739297240351638 -0.0043861280743737428 0.21577529430390444 0.10520612437690552 -0.032902147941601317 0.00817908734048782 0.0068748750212025136 0.0066581360061859704 0.039680577071902638
leaf_count=23 244 22126 58 37 4257 1749 155 238 2020 202 90 1062 1746 2223 4818 588 1072 493 1857 3524 29 1663 309 131 1285 1722 3263 1112 1901 11301 3387 12934 136 227 867 1762 37354 4642 3022
internal_value=0 0.00608793 0.00808334 0.0261409 0.0376412 -0.0344745 -0.0276332 -0.0322686 -0.0637963 0.090138 0.254751 0.0233903 0.0845245 0.00356551 -0.0210502 -0.0758435 0.0149888 -0.0998605 0.0787076 0.00682094 0.00965183 0.0497973 0.182737 0.49956 -0.119109 0.0384899 0.00759951 -0.0120983 -0.098739 -0.0199162 0.0140687 -0.00166743 0.0974078 0.145267 -0.00103728 -0.00670746 0.00784006 0.0166182 0.0266113
internal_count=135629 115682 109963 22006 20170 19947 18023 5719 2846 4295 127 15875 4168 87957 16274 2608 11618 1836 3966 65831 49373 2132 469 160 1343 2784 8834 2184 1924 16119 6650 16458 2220 363 2873 2629 47241 9887 5245
cat_boundaries=0 1 2 3 4 5 6 7 8 9 10 11 12 13 14 15 16 17 18 19 20 21
cat_threshold=1 1 2616 12289 1 4096 2240 224 5782 3842 12 2 42 1808 10776 1570 1025 1 7168 24 1348
shrinkage=1


Tree=20
num_leaves=40
num_cat=22
split_feature=10 2 5 0 0 0 0 0 4 0 0 0 0 11 9 0 2 0 11 11 11 2 0 2 0 3 0 11 11 11 0 11 9 11 0 3 11 2 0
split_gain=29.5121 18.6795 8.87875 23.8226 8.03751 5.10837 4.05031 2.358 1.54498 1.5385 1.46598 1.26843 1.16856 1.06872 0.927064 0.861528 0.840787 0.909876 0.655854 0.726722 1.06054 1.99319 0.800592 0.69183 0.668262 0.618709 0.602892 0.602329 0.584139 0.576772 0.569035 0.551408 0.501166 0.456277 0.456072 0.455061 0.442043 0.429803 0.933795
threshold=0.55000000000000016 0 1.0000000180025095e-35 1 2 3 4 5 -122.31950865499998 6 7 8 9 43.250000000000007 0.3000000000000001 10 11 12 36.250000000000007 57.250000000000007 56.750000000000007 13 14 15 16 47.614129925000007 17 36.250000000000007 39.750000000000007 43.750000000000007 18 30.250000000000004 0.27500000000000008 45.250000000000007 19 47.621505535000004 45.250000000000007 20 21
decision_type=2 1 2 1 1 1 1 1 2 1 1 1 1 2 2 1 1 1 2 2 2 1 1 1 1 2 1 2 2 2 1 2 2 2 1 2 2 1 1
left_child=1 6 9 8 12 14 10 30 35 16 -1 -8 -5 -10 25 -7 29 27 23 20 28 22 -22 -11 -25 -2 -14 -18 -20 -3 -6 -17 -15 -9 -31 36 -4 38 -30
right_child=5 2 3 4 7 15 11 33 13 18 -12 -13 26 32 -16 31 17 -19 19 -21 21 -23 -24 24 -26 -27 -28 -29 37 34 -32 -33 -34 -35 -36 -37 -38 -39 -40
leaf_value=-0.11836466727893327 -0.27546773407963882 0.016792636083479216 0.18928339272751116 -0.079490735409495458 0.057412431902704432 -0.045383409224155596 -0.0081326561485923331 0.032194867633703494 0.26194304431680099 0.0076574021986902541 -0.051739546453159667 -0.026885707046456361 -0.018455512003006366 0.16749721312509219 -0.13312063506242555 -0.10988249953572383 -0.06936036382028575 -0.0024515668858959218 0.015614792037438787 0.001571376928326404 -0.0049573892552483984 0.0094288038133228599 0.09266307566335677 -0.075375384983798518 -0.014463093424952269 -0.17894418794306888 0.00067862720466550449 -0.017142671675741614 0.060902423776570826 0.024704907164311653 0.037420662935431066 -0.07204688830351752 0.044190754691117946 0.014019601033753029 -0.0011285073656466908 0.092611355239920978 0.11917040038218933 0.0041502125440758802 0.010016530423786684
leaf_count=403 98 2691 122 229 2500 1170 5782 1875 125 1303 2224 9733 3076 566 323 514 235 10883 9226 15065 106 1309 547 211 1083 206 3544 3682 364 720 3848 1537 35 5245 10699 436 342 22805 10767
internal_value=0 0.00233568 0.0070931 0.025163 0.0157942 -0.0865092 -0.0274529 0.0299727 0.141261 0.00276973 -0.0637397 -0.0212718 -0.0120898 0.17645 -0.169092 -0.0696923 -0.0032664 -0.00852985 0.00554873 0.00622096 0.00822869 0.0309671 0.0755961 -0.0100099 -0.026272 -0.211424 -0.00959274 -0.0215845 0.00719508 0.00225658 0.0440055 -0.0824908 0.158952 0.0174173 -0.000845538 0.114444 0.136241 0.00527693 0.0103684
internal_count=135629 131781 113639 21943 20317 3848 18142 13468 1626 91696 2627 15515 6849 726 627 3221 28910 14800 62786 60189 45124 1962 653 2597 1294 304 6620 3917 43162 14110 6348 2051 601 7120 11419 900 464 33936 11131
cat_boundaries=0 1 5 8 12 16 20 24 27 30 31 35 36 40 41 44 45 48 51 55 57 58 61
cat_threshold=1 67239936 4194312 64 9 576747527 2172895329 1073762236 201334848 1944 4202560 9 68289024 141559304 64 9 403964920 271857552 805699586 2 67305976 142352792 2954364929 15 67108864 0 64 33679399 3222224999 1207963068 8192 31572998 3350624 3760328380 4 24 67240000 138412056 0 8 2 671089152 133120 1082527744 12 939532288 1542 4259904 16389 245856 1073743116 448 2360720 536870912 2 67108864 134217728 16 0 1024 64
shrinkage=1


Tree=21
num_leaves=40
num_cat=20
split_feature=10 2 5 7 6 7 4 3 7 7 6 3 7 6 4 7 3 3 8 7 8 3 1 7 7 3 8 7 6 7 7 7 4 3 3 9 9 7 7
split_gain=29.5121 18.6795 8.87875 33.3872 14.2215 6.37438 4.78019 4.29602 3.11537 2.92313 2.63044 2.41057 2.06415 1.64206 1.32874 1.26481 1.17935 1.09303 1.08107 1.11789 2.04551 1.40621 1.51704 1.05577 1.03388 0.876017 0.856687 2.08988 0.853981 0.843727 0.750144 0.717851 0.781197 1.4644 1.02469 0.694261 1.04229 1.0039 1.00127
threshold=0.55000000000000016 0 1.0000000180025095e-35 1 2 3 -122.32387042999999 47.614654300000005 4 5 6 47.576765045000009 7 8 -122.31950865499998 9 47.614654300000005 47.596489775000009 7.5000000000000009 10 5.5000000000000009 47.614943960000012 4.5000000000000009 11 12 47.662278055000009 7.5000000000000009 13 14 15 16 17 -122.33361484499999 47.61206974000001 47.604346020000008 0.36500000000000005 0.025000000000000005 18 19
decision_type=2 1 2 1 1 1 2 2 1 1 1 2 1 1 2 1 2 2 2 1 2 2 2 1 1 2 2 1 1 1 1 1 2 2 2 2 2 1 1
left_child=1 5 9 13 6 28 23 14 31 -3 16 -7 -9 -4 -8 26 -2 -15 19 20 21 -14 -23 -5 -13 -10 -12 -28 -1 -16 -27 32 33 34 -6 36 37 -11 -38
right_child=10 2 3 4 8 11 7 12 25 35 15 24 18 17 29 -17 -18 -19 -20 -21 -22 22 -24 -25 -26 30 27 -29 -30 -31 -32 -33 -34 -35 -36 -37 38 -39 -40
leaf_value=-0.11224352744476689 -0.26894021561256082 -0.00546851138049681 -0.044073327596688847 0.071766264078417116 0.055623192952845027 -0.1377520350141638 0.12821762468401618 0.035402559438969118 -0.00013049881650933188 0.012447417458637689 -0.093297585401765637 -0.011556069511578986 0.049273831883249089 -0.25680787588145809 0.091945493076036708 -0.092019049820062093 -0.13713978640443952 -0.11425203206997545 0.087644525977874713 0.083227306427836711 0.52177583866728827 0.1458448047557615 0.45131665016287509 0.035706870452956667 -0.027663362559310213 0.058295292778618141 0.047144750482400216 -0.059827089816350078 -0.063526998565542336 0.22591870974087402 -0.0033618043860639425 0.024292294803196307 0.020021003857865233 0.039829433223261226 0.1336333618440784 -0.0049959726591815943 0.0063670085343119744 0.0019768666821810736 0.01994494519153249
leaf_count=698 84 23552 420 1553 346 172 618 730 5653 13497 370 9023 44 56 110 1963 354 1360 810 159 22 37 29 1862 7221 503 226 851 1028 335 326 3637 963 2042 328 4203 9893 28451 12100
internal_value=0 0.00233568 0.0070931 0.025163 0.036953 -0.0274529 0.0762663 0.106288 0.0189353 0.00276973 -0.0865092 -0.0213402 0.0769317 -0.103594 0.156855 -0.07636 -0.160125 -0.120404 0.104117 0.157341 0.22501 0.186386 0.278703 0.0510477 -0.0201063 0.00295263 -0.052784 -0.0388871 -0.0851332 0.198519 0.0333145 0.0330725 0.0430118 0.0518056 0.0922224 0.00608864 0.00690788 0.00398446 0.0124838
internal_count=135629 131781 113639 21943 20107 18142 6309 2894 13798 91696 3848 16416 1831 1836 1063 3410 438 1416 1101 291 132 110 66 3415 16244 6482 1447 1077 1726 445 829 7316 3679 2716 674 68144 63941 41948 21993
cat_boundaries=0 1 2 3 4 5 6 7 8 9 10 11 12 13 14 15 16 17 18 19 20
cat_threshold=1 1 10808 12289 3808 8416 2600 3856 8552 451 12420 122 442 1 8730 3074 14 2240 7169 785
shrinkage=1


Tree=22
num_leaves=40
num_cat=18
split_feature=10 2 5 7 6 7 4 3 7 7 6 3 7 6 11 11 7 2 3 4 7 3 4 3 8 7 8 3 11 7 2 7 7 8 9 11 11 9 2
split_gain=29.5121 18.6795 8.87875 33.3872 14.2215 6.37438 4.78019 4.29602 3.11537 2.92313 2.63044 2.41057 2.06415 1.64206 1.34369 3.47316 10.1835 26.3531 1.72132 1.32874 1.26481 1.17935 1.12071 1.09303 1.08107 1.11789 2.04551 1.40621 1.51704 1.05577 1.05407 1.9063 1.23126 2.05441 4.27213 1.88771 1.48536 1.18515 1.12642
threshold=0.55000000000000016 0 1.0000000180025095e-35 1 2 3 -122.32387042999999 47.614654300000005 4 5 6 47.576765045000009 7 8 57.250000000000007 56.750000000000007 9 10 47.611349465000011 -122.31950865499998 11 47.614654300000005 -122.33361484499999 47.596489775000009 7.5000000000000009 12 5.5000000000000009 47.614943960000012 54.750000000000007 13 14 15 16 2.5000000000000004 1.0000000180025095e-35 36.250000000000007 37.250000000000007 0.22500000000000003 17
decision_type=2 1 2 1 1 1 2 2 1 1 1 2 1 1 2 2 1 1 2 2 1 2 2 2 2 1 2 2 2 1 1 1 1 2 2 2 2 2 1
left_child=1 5 9 13 6 -1 29 19 -6 -3 21 -7 -9 -4 15 30 17 18 22 -8 -12 -2 -17 -15 25 26 27 -14 -29 -5 31 -11 33 34 -32 -34 -35 38 -38
right_child=10 2 3 4 8 11 7 12 -10 14 20 -13 24 23 -16 16 -18 -19 -20 -21 -22 -23 -24 -25 -26 -27 -28 28 -30 -31 32 -33 35 36 -36 -37 37 -39 -40
leaf_value=-0.083769057322342938 -0.26894021561256082 -0.00546851138049681 -0.044073327596688847 0.071766264078417116 0.034436704333991625 -0.1377520350141638 0.12821762468401618 0.035402559438969118 0.0043167848956141303 -0.011481498523782295 -0.051419843092892027 -0.018742122242291555 0.049273831883249089 -0.25680787588145809 -0.00045613433287584946 0.58328372311758536 0.011667922059702634 0.0092628636099878273 0.61865491143242457 0.19988344020316196 -0.092019049820062093 -0.13713978640443952 0.29259868848339471 -0.11425203206997545 0.087644525977874713 0.083227306427836711 0.52177583866728827 0.1458448047557615 0.45131665016287509 0.035706870452956667 0.034181035470963815 0.015811897719946795 -0.029409745248159251 0.097260552487039173 -0.24649883451181825 0.0038698949397007092 0.05816286346065045 -0.034406975447445372 0.0086873846909890987
leaf_count=1726 84 23552 420 1553 7316 172 618 730 6482 2879 1447 16244 44 56 16330 21 1645 322 97 445 1963 354 36 1360 810 159 22 37 29 1862 153 22664 1867 307 84 19573 880 309 977
internal_value=0 0.00233568 0.0070931 0.025163 0.036953 -0.0274529 0.0762663 0.106288 0.0189353 0.00276973 -0.0865092 -0.0213402 0.0769317 -0.103594 0.00608864 0.00858243 0.0482117 0.175318 0.503549 0.156855 -0.07636 -0.160125 0.398329 -0.120404 0.104117 0.157341 0.22501 0.186386 0.278703 0.0510477 0.00689097 0.0113676 0.00215051 0.0221935 -0.0666646 -0.000392078 0.0307989 0.0215723 0.0311141
internal_count=135629 131781 113639 21943 20107 18142 6309 2894 13798 91696 3848 16416 1831 1836 68144 51814 2121 476 154 1063 3410 438 57 1416 1101 291 132 110 66 3415 49693 25543 24150 2710 237 21440 2473 2166 1857
cat_boundaries=0 1 2 3 4 5 6 7 8 9 10 11 12 13 14 15 16 17 18
cat_threshold=1 1 10808 12289 3808 8416 2600 3856 8552 12 2 451 12420 122 24 1 1 2
shrinkage=1


Tree=23
num_leaves=40
num_cat=26
split_feature=10 5 7 0 0 0 0 7 0 0 7 0 7 0 0 11 7 7 7 9 11 11 8 1 7 1 3 9 7 7 0 0 7 8 0 8 7 0 0
split_gain=29.5121 13.7184 33.3872 22.9418 7.43644 6.23958 5.10837 3.48792 2.83672 2.58313 2.57276 2.08465 2.07704 1.94012 1.38575 1.36654 1.35357 1.18324 1.11229 1.10044 1.55989 1.06931 8.1051 10.8077 8.79725 0.999384 0.949727 0.927064 1.63116 0.917688 0.892473 0.830441 0.917553 0.809969 0.801839 0.795924 1.93139 0.785114 0.761018
threshold=0.55000000000000016 1.0000000180025095e-35 0 1 2 3 4 5 6 7 8 9 10 11 12 43.250000000000007 13 14 15 1.0000000180025095e-35 36.750000000000007 56.750000000000007 14.500000000000002 5.5000000000000009 16 3.5000000000000004 47.614073300000008 0.3000000000000001 17 18 19 20 21 10.500000000000002 22 7.5000000000000009 23 24 25
decision_type=2 2 1 1 1 1 1 1 1 1 1 1 1 1 1 2 1 1 1 2 2 2 2 2 1 2 2 2 1 1 1 1 1 2 1 2 1 1 1
left_child=1 8 5 11 7 -3 27 34 12 10 -6 -4 25 -12 -7 -13 19 35 -17 -10 -21 -22 23 24 26 -1 -23 -2 33 -11 -14 32 -31 -29 -5 -8 -37 -9 -19
right_child=6 2 3 4 9 14 17 37 16 29 13 15 30 -15 -16 18 -18 38 -20 20 21 22 -24 -25 -26 -27 -28 28 -30 31 -32 -33 -34 -35 -36 36 -38 -39 -40
leaf_value=0.011982112621244073 -0.21006033110551578 -0.19002349514868591 0.097616301022391452 0.055860769962438821 0.014685592070290413 -0.01531490515822668 -0.086419793844089446 0.096614239770774185 0.0028466550567219197 0.033954801159741636 -0.13440374673385513 0.25427152669914177 -0.02303061570687738 -0.026685539337764151 -0.086195147669406794 0.099337132833653349 -0.00048537008808524846 -0.054783584640210006 0.18747842994344943 -0.066944885914439561 0.013417292258807495 0.4116186845677563 0.0011374855921979343 0.0036776496396963287 0.074883803852517875 -0.0071071724883112856 0.61154163884016322 0.071318266136381286 -0.17772355388589184 -0.034080100827544618 -0.0095837130431030877 0.023583739751165095 0.012690050314820039 -0.10779381253865111 0.012823933708947322 0.052663205771181242 -0.05317909271126476 0.063377200689556115 -0.10087849002929082
leaf_count=5557 304 562 643 571 1871 435 349 1057 14768 3726 184 191 7643 1376 839 303 51719 651 606 221 8668 35 1303 221 105 5415 74 51 222 639 14109 2792 1178 50 1773 212 800 3197 1209
internal_value=0 0.00233568 0.025163 0.036953 0.0265002 -0.103594 -0.0865092 0.05336 -0.00222466 0.0114055 -0.0116705 0.146303 -0.0100243 -0.0415388 -0.063676 0.17443 0.00108633 -0.0696923 0.159859 0.00706383 0.0148267 0.0165923 0.0392306 0.157421 0.317602 0.00119575 0.500101 -0.169092 -0.134485 0.0209071 -0.0156817 0.0114118 -0.00522614 -0.0170292 0.0221305 -0.0462642 -0.0324028 0.0704755 -0.086496
internal_count=135629 131781 21943 20107 18364 1836 3848 6598 109838 11766 3431 1743 32724 1560 1274 1100 77114 3221 909 25395 10627 10406 1738 435 214 10972 109 627 323 8335 21752 4609 1817 101 2344 1361 1012 4254 1860
cat_boundaries=0 1 5 9 12 16 17 21 24 25 27 28 29 33 34 35 36 37 38 39 43 46 47 50 51 55 59
cat_threshold=1 67239936 4195336 64 9 2551448568 808727440 809902083 2 436213760 662947424 864346125 201334848 1944 4202560 9 1808 68289528 141559704 807141440 11 24581 196705 1073743796 4032 131072 4195328 7936 8193 92471440 1208745992 3222867184 1 1038 451 3586 12 15 2784 67108992 6291864 64 8 1642076162 16826368 116744 12 0 2359296 809902080 1 448 2097552 0 2 31573030 7536736 3222932664 4
shrinkage=1


Tree=24
num_leaves=40
num_cat=28
split_feature=2 11 11 5 7 0 0 7 0 8 7 0 0 7 0 7 0 7 0 0 0 11 11 7 2 3 0 11 0 0 4 7 11 7 2 0 0 7 4
split_gain=27.2807 9.05595 8.52154 8.31829 33.3872 22.9418 7.43644 6.37438 6.23958 5.40467 4.83118 3.63979 3.57457 3.48792 3.35778 2.82207 2.58313 2.57276 2.38133 2.08465 1.94012 1.58256 3.23704 10.2628 26.3531 1.72132 1.38575 1.36654 1.27395 1.22483 1.12071 1.11229 0.956353 0.917688 0.913688 1.32796 1.30752 0.877217 0.868809
threshold=0 36.250000000000007 37.250000000000007 1.0000000180025095e-35 1 2 3 4 5 7.5000000000000009 6 7 8 9 10 11 12 13 14 15 16 57.250000000000007 56.750000000000007 17 18 47.611349465000011 19 43.250000000000007 20 21 -122.33361484499999 22 39.750000000000007 23 24 25 26 27 -122.34794655499999
decision_type=1 2 2 2 1 1 1 1 1 2 1 1 1 1 1 1 1 1 1 1 1 2 2 1 1 2 1 2 1 1 2 1 2 1 1 1 1 1 2
left_child=2 9 18 15 8 19 13 14 -5 -2 -11 -9 -12 -7 -4 28 17 -8 -1 -6 -19 22 32 24 25 30 -10 -21 -3 -13 -24 -29 -17 -18 36 -36 -34 -23 -27
right_child=1 3 7 4 5 6 16 11 26 10 12 29 -14 -15 -16 21 33 20 -20 27 -22 37 23 -25 -26 38 -28 31 -30 -31 -32 -33 34 -35 35 -37 -38 -39 -40
leaf_value=-0.16045606862234482 -0.00091430196247378791 -0.016115148019081392 -0.0059978437708121625 -0.19002349514868591 0.097616301022391452 0.023494706704150638 0.014685592070290413 -0.091194537681906787 -0.01531490515822668 0.071002425428463536 -0.15752157059135255 -0.029716665117616795 -0.057701621918086837 0.071839689230103906 -0.10923977699046776 0.017798864555792764 0.033954801159741636 -0.13440374673385513 -0.074870440406136302 0.25427152669914177 -0.026685539337764151 0.013667074544823186 0.58328372311758536 0.011264515002710564 0.0092628636099878273 0.52498525679592156 -0.086195147669406794 0.099337132833653349 0.00018093124879681828 -0.010767909544065661 0.29259868848339471 0.18747842994344943 0.069074174299284821 0.012775957995318351 -0.0088669216765557505 0.0076916007455882333 0.011958268218697523 -0.0042169974104092284 0.71427601720718792
leaf_count=447 2843 7039 429 562 643 2344 1871 679 435 243 436 5035 2176 4254 1297 10063 3726 184 1496 191 1376 3466 21 1665 322 49 839 303 15037 10702 36 606 406 4609 6555 18462 11739 12995 48
internal_value=0 0.00572891 -0.0341919 0.00774574 0.025163 0.036953 0.0265002 -0.0274681 -0.103594 -0.0331415 -0.0638747 -0.0213402 -0.0762703 0.05336 -0.0851332 0.00339792 0.0114055 -0.0116705 -0.0971493 0.146303 -0.0415388 0.00667866 0.00951102 0.047542 0.175318 0.503549 -0.063676 0.17443 -0.00638484 -0.0182105 0.398329 0.159859 0.00778684 0.0209071 0.00544511 0.0019864 0.0125576 -0.00181143 0.617291
internal_count=135629 115544 20085 109846 21943 20107 18364 18142 1836 5698 2855 16416 2612 6598 1726 87903 11766 3431 1943 1743 1560 65827 49366 2141 476 154 1274 1100 22076 15737 57 909 47225 8335 37162 25017 12145 16461 97
cat_boundaries=0 1 2 6 10 11 14 15 19 23 24 28 29 32 33 37 39 40 41 42 46 50 54 55 56 57 61 64 65
cat_threshold=1 1 67239936 4195336 64 9 2551448568 808727440 809902083 2 12289 436213760 662947424 864346125 1 67108864 8 64 1 201465920 1436 8258 9 1808 33646593 3222227426 1212157104 1 224 24581 196705 1073743796 4032 503459904 1948 4235328 9 131072 4195328 8193 12 2 92471440 1208745992 3222867184 1 1159135736 812654360 538345472 10 2148926336 1072695168 818683905 10 3586 2784 16 67240384 4194712 2082080960 15 67108864 1024 64 1025
shrinkage=1


Tree=25
num_leaves=40
num_cat=29
split_feature=10 2 5 7 0 0 7 0 0 7 0 0 7 7 0 0 4 11 11 7 2 3 0 0 7 0 2 7 0 0 0 7 7 0 7 11 11 11 11
split_gain=29.618 18.6883 9.92285 30.6565 22.2088 8.48194 6.4988 6.28617 5.10821 4.05415 3.72468 3.41483 2.90313 2.82858 3.59499 1.73462 1.52266 1.4404 3.64091 10.7855 28.3735 1.76262 1.41462 1.36169 1.30077 1.29492 1.27781 2.35725 1.74146 1.37453 1.21222 1.19761 1.08743 1.69916 0.985906 2.25144 1.84661 1.77553 3.07295
threshold=0.55000000000000016 0 1.0000000180025095e-35 1 2 3 4 5 6 7 8 9 10 11 12 13 -122.31950865499998 57.250000000000007 56.750000000000007 14 15 47.611349465000011 16 17 18 19 20 21 22 23 24 25 26 27 28 37.250000000000007 45.750000000000007 39.750000000000007 40.250000000000007
decision_type=2 1 2 1 1 1 1 1 1 1 1 1 1 1 1 1 2 2 2 1 1 2 1 1 1 1 1 1 1 1 1 1 1 1 1 2 2 2 2
left_child=1 6 12 7 16 9 11 -4 -2 -6 -8 -1 23 14 -7 -16 -5 18 26 20 21 -20 -9 -3 -18 -15 27 28 -14 -28 -12 -10 33 -29 35 -31 37 -37 -39
right_child=8 2 3 4 5 13 10 22 31 -11 30 -13 17 25 15 -17 24 -19 19 -21 -22 -23 -24 -25 -26 -27 29 32 -30 34 -32 -33 -34 -35 -36 36 -38 38 -40
leaf_value=-0.0055638842586026912 -0.18171991839259738 -0.016818187460121925 -0.1866488412545671 0.1277470178181199 0.01657074033423396 0.025032693558136115 -0.094254525888022286 -0.01770633238771676 -0.047614901442105964 0.072699689483690572 -0.029083038059538067 -0.10959561675799566 -0.049451124060261954 0.01035532944282351 -0.13472441310706668 -0.024793891719150508 0.11019262350021557 -0.00080051339534662879 0.4229303019616012 0.011941790505639224 0.0084004995674316907 0.64704352510806151 -0.085944473030646368 -0.00033349079689573655 0.22397862132834673 0.036825048401123467 -0.015816666978105035 0.0037143271422511548 0.0031668224408981155 0.10880137870401482 -0.010413111545545068 -0.087639686170726039 0.01258311883323635 0.040849617513683767 0.0035705158825559834 0.029194981467622727 0.044033541958253916 -0.23880884276364009 -0.024206253252058815
leaf_count=429 482 7361 540 805 1765 2014 635 549 1398 4950 5227 1303 921 3276 145 2326 221 16425 56 1651 317 94 730 15675 461 4301 3330 1845 1945 284 10509 1913 17214 3757 18679 486 1033 77 500
internal_value=0 0.00257484 0.00732528 0.0263548 0.0375194 0.0281545 -0.027259 -0.0976905 -0.0870536 0.0566269 -0.0210617 -0.0853798 0.00274094 0.01227 -0.00762932 -0.0331314 0.154796 0.00600164 0.00857291 0.0491841 0.181556 0.526885 -0.0583932 -0.00697083 0.190602 0.0240433 0.00685506 0.0117761 -0.0152242 0.00166759 -0.0179942 -0.0723026 0.0151729 0.0272811 0.00465478 0.0237811 0.0125595 -0.0167006 -0.0542089
internal_count=135629 131836 113733 22083 20264 18777 18103 1819 3793 6715 16371 1732 91650 12062 4485 2471 1487 68614 52189 2118 467 150 1279 23036 682 7577 50071 25682 2866 24389 15736 3311 22816 5602 21059 2380 2096 1063 577
cat_boundaries=0 1 2 6 10 11 14 18 19 23 27 28 29 33 34 35 36 40 44 45 49 50 51 54 58 62 63 64 68 69
cat_threshold=1 1 67239936 4194312 64 9 2551448568 808728464 809893891 2 12289 436214272 125945440 864473101 201334784 1160 4202562 9 1792 67108864 8 64 1 33683457 1034592 1279266032 1 224 30 34178048 3347580934 2411206784 4 8193 12 2 1149469048 3361472520 3222867168 1 1159070200 812912280 805732353 10 3078 33582081 3296921703 1073745328 4 24 1 3793618472 4168104528 2148011056 67239936 138413464 536870976 9 2685797248 1055917952 810459137 10 451 15360 130399 983040 3224962992 6 1
shrinkage=1


Tree=26
num_leaves=40
num_cat=21
split_feature=10 2 5 0 0 0 0 0 0 0 4 2 0 0 0 11 4 8 0 0 11 11 8 9 11 11 2 11 2 0 0 0 11 0 9 11 11 4 0
split_gain=29.618 18.6883 9.92285 23.2054 7.98176 5.10821 4.01791 2.70422 2.18877 1.56652 1.55015 1.3948 2.15462 1.18732 1.08341 0.837271 0.802755 0.781781 0.7396 0.690082 0.662968 0.649312 0.724676 0.648359 0.645349 1.13825 1.88322 0.681927 0.648901 0.646937 0.525165 0.445645 0.434364 0.429962 0.423422 0.438163 0.398206 0.387925 0.375367
threshold=0.55000000000000016 0 1.0000000180025095e-35 1 2 3 4 5 6 7 -122.31950865499998 8 9 10 11 43.250000000000007 -122.35204799999998 7.5000000000000009 12 13 45.250000000000007 36.250000000000007 11.500000000000002 0.3000000000000001 57.250000000000007 56.750000000000007 14 36.250000000000007 15 16 17 18 60.250000000000007 19 0.27500000000000008 67.000000000000014 39.750000000000007 -122.29898126999998 20
decision_type=2 1 2 1 1 1 1 1 1 1 2 1 1 1 1 2 2 2 1 1 2 2 2 2 2 2 1 2 1 1 1 1 2 1 2 2 2 2 1
left_child=1 6 9 10 19 23 -1 16 -8 11 -4 12 -3 21 -7 -12 -6 -16 -10 -5 -9 22 -13 37 25 27 31 28 -11 -30 -29 -27 -23 -14 35 -17 -32 -2 -26
right_child=5 2 3 4 7 14 8 20 18 24 15 13 33 -15 17 34 -18 -19 -20 -21 -22 32 -24 -25 38 26 -28 30 29 -31 36 -33 -34 -35 -36 -37 -38 -39 -40
leaf_value=-0.10777392291762265 -0.20903726204581588 0.074500691587321338 0.11532822672448478 0.056138918742533989 -0.074548309932370493 -0.044417844853777269 -0.038951198570680495 0.028702994153706751 -0.0057936178071356439 0.007913496185782477 0.25003058694699271 -0.032472879064157231 0.01356949317291597 -0.00099890501310381276 -0.1166704256339874 0.1747166580061314 -0.013117981075767062 -0.073505339197462577 -0.021973541260609471 0.036064286624328375 0.0089025408120838988 -0.011068510344162182 -0.13488614774980515 -0.14712810870641851 -0.0040294258244469739 0.14040771047484121 0.010027245406024378 0.022752798008112793 -0.062181538000093808 -0.010480581456387306 0.013924465544248166 0.062333167164706917 -0.03479687259162241 -0.0024359842465019803 0.046025297345750053 0.056025588033538666 0.0062135968948109086 -0.35418658108558998 0.0060547831286963697
leaf_count=572 232 478 879 3257 224 1123 5857 2294 4886 1271 131 287 3384 16166 566 541 4226 1622 6788 4035 6433 5402 91 230 7070 100 1269 2512 322 952 8515 539 900 3316 30 33 31374 20 7702
internal_value=0 0.00257484 0.00732528 0.0263548 0.0172037 -0.0870536 -0.027259 0.00250275 -0.0245268 0.00274094 0.141427 -0.00318189 0.00896999 -0.00700215 -0.0723026 0.176194 -0.017535 -0.0856442 -0.0165777 0.0437293 0.0127286 -0.0182087 -0.0584921 -0.183084 0.00562612 0.00744407 0.0313663 0.00642855 -0.00947038 -0.0253051 0.00738283 0.0751414 -0.0158214 0.00428996 0.160476 0.166529 0.00649383 -0.221921 -0.000136235
internal_count=135629 131836 113733 22083 20469 3793 18103 13177 17531 91650 1614 30024 7178 22846 3311 735 4450 2188 11674 7292 8727 6680 378 482 61626 46854 1908 44946 2545 1274 42401 639 6302 6700 604 574 39889 252 14772
cat_boundaries=0 1 5 9 13 16 19 23 27 28 31 35 39 42 46 47 48 51 54 57 61 64
cat_threshold=1 67239936 4194312 64 9 403964408 808728464 2957901827 2 201334784 1160 4202562 9 67108864 8 64 30725 245857 1073743756 404620160 1055917840 805740545 11 67338744 8135064 874121280 15 16 67108864 0 64 67239936 4194456 536870976 8 31572998 4399200 1345457848 6 33677319 985191 3221229240 402653632 2360720 537001984 2 2 12 973086720 134219270 1212220160 8193 0 4194308 1207963648 17409 2147549440 131456 1057048 872546304 14 3625192960 4185923072 2193944611
shrinkage=1


Tree=27
num_leaves=40
num_cat=28
split_feature=10 2 5 7 0 0 7 0 0 7 0 0 7 7 0 0 3 11 11 7 2 3 0 0 0 2 7 0 0 0 7 11 7 0 7 11 11 8 11
split_gain=29.618 18.6883 9.92285 30.6565 22.2088 8.48194 6.4988 6.28617 5.10821 4.05415 3.72468 3.41483 2.90313 2.82858 3.59499 1.73462 1.45296 1.4404 3.64091 10.7855 28.3735 1.76262 1.41462 1.36169 1.29492 1.27781 2.35725 1.74146 1.37453 1.21222 1.19761 1.13465 1.08743 1.69916 0.985906 2.25144 1.84661 4.14567 1.47987
threshold=0.55000000000000016 0 1.0000000180025095e-35 1 2 3 4 5 6 7 8 9 10 11 12 13 47.621505535000004 57.250000000000007 56.750000000000007 14 15 47.611349465000011 16 17 18 19 20 21 22 23 24 43.250000000000007 25 26 27 37.250000000000007 45.750000000000007 4.5000000000000009 36.250000000000007
decision_type=2 1 2 1 1 1 1 1 1 1 1 1 1 1 1 1 2 2 2 1 1 2 1 1 1 1 1 1 1 1 1 2 1 1 1 2 2 2 2
left_child=1 6 12 7 16 9 11 -4 -2 -6 -8 -1 23 14 -7 -16 31 18 25 20 21 -20 -9 -3 -15 26 27 -14 -27 -12 -10 -5 33 -28 35 -30 37 -37 -36
right_child=8 2 3 4 5 13 10 22 30 -11 29 -13 17 24 15 -17 -18 -19 19 -21 -22 -23 -24 -25 -26 28 32 -29 34 -31 -32 -33 -34 -35 38 36 -38 -39 -40
leaf_value=-0.0055638842586026912 -0.18171991839259738 -0.016818187460121925 -0.1866488412545671 0.24739968745445118 0.01657074033423396 0.025032693558136115 -0.094254525888022286 -0.01770633238771676 -0.047614901442105964 0.072699689483690572 -0.029083038059538067 -0.10959561675799566 -0.049451124060261954 0.01035532944282351 -0.13472441310706668 -0.024793891719150508 0.10610819840938823 -0.00080051339534662879 0.4229303019616012 0.011941790505639224 0.0084004995674316907 0.64704352510806151 -0.085944473030646368 -0.00033349079689573655 0.036825048401123467 -0.015816666978105035 0.0037143271422511548 0.0031668224408981155 0.10880137870401482 -0.010413111545545068 -0.087639686170726039 0.16157068153586898 0.01258311883323635 0.040849617513683767 -0.025185914754702991 -0.23880884276364009 0.044033541958253916 0.0021152478369525752 0.0063266648218854469
leaf_count=429 482 7361 540 186 1765 2014 635 549 1398 4950 5227 1303 921 3276 145 2326 405 16425 56 1651 317 94 730 15675 4301 3330 1845 1945 284 10509 1913 896 17214 3757 1633 77 1033 986 17046
internal_value=0 0.00257484 0.00732528 0.0263548 0.0375194 0.0281545 -0.027259 -0.0976905 -0.0870536 0.0566269 -0.0210617 -0.0853798 0.00274094 0.01227 -0.00762932 -0.0331314 0.154796 0.00600164 0.00857291 0.0491841 0.181556 0.526885 -0.0583932 -0.00697083 0.0240433 0.00685506 0.0117761 -0.0152242 0.00166759 -0.0179942 -0.0723026 0.174961 0.0151729 0.0272811 0.00465478 0.0237811 0.0125595 -0.0167006 0.00220636
internal_count=135629 131836 113733 22083 20264 18777 18103 1819 3793 6715 16371 1732 91650 12062 4485 2471 1487 68614 52189 2118 467 150 1279 23036 7577 50071 25682 2866 24389 15736 3311 1082 22816 5602 21059 2380 2096 1063 18679
cat_boundaries=0 1 2 6 10 11 14 18 19 23 27 28 29 33 34 35 36 40 44 48 49 50 53 57 61 62 63 67 68
cat_threshold=1 1 67239936 4194312 64 9 2551448568 808728464 809893891 2 12289 436214272 125945440 864473101 201334784 1160 4202562 9 1792 67108864 8 64 1 33683457 1034592 1279266032 1 224 30 34178048 3347580934 2411206784 4 8193 12 2 1149469048 3361472520 3222867168 1 1159070200 812912280 805732353 10 33582081 3296921703 1073745328 4 24 1 3793618472 4168104528 2148011056 67239936 138413464 536870976 9 2685797248 1055917952 810459137 10 451 15360 130399 983040 3224962992 6 1
shrinkage=1


Tree=28
num_leaves=40
num_cat=28
split_feature=10 2 5 7 0 0 7 0 0 7 0 0 7 7 0 0 3 11 11 7 2 3 0 0 0 2 7 0 0 0 7 11 7 0 7 11 11 11 11
split_gain=29.618 18.6883 9.92285 30.6565 22.2088 8.48194 6.4988 6.28617 5.10821 4.05415 3.72468 3.41483 2.90313 2.82858 3.59499 1.73462 1.45296 1.4404 3.64091 10.7855 28.3735 1.76262 1.41462 1.36169 1.29492 1.27781 2.35725 1.74146 1.37453 1.21222 1.19761 1.13465 1.08743 1.69916 0.985906 2.25144 1.84661 1.77553 3.07295
